tree
version=v4
num_class=1
num_tree_per_iteration=1
label_index=0
max_feature_idx=15
objective=binary sigmoid:1
feature_names=vaf nref nalt ndupalt nsimalt sbp conf duplex_frac has_duplex ci_width ref_len alt_len alt_depth variant_class mode dataset_type
feature_infos=[0.000843:0.5] [8:1185] [1:392] none [1:392] [0:1] [0.77746000000000004:1] none none [0.0044809999999999997:0.457538] [1:170] [1:64] [9:1271] [0:2] [0:1] [0:1]
tree_sizes=3446 3551 3570 3581 3583 3618 3610 3634 3597 3552 3630 3597 3619 3582 3635 3617

Tree=0
num_leaves=31
num_cat=0
split_feature=13 12 15 6 0 5 0 1 0 1 12 6 0 1 6 6 1 0 5 1 1 0 1 0 1 0 0 0 0 6
split_gain=1.7897e+08 4.62986e+07 2.45391e+07 6.08853e+06 2.61802e+07 1.21755e+07 5.02269e+06 1.41413e+07 3.07473e+06 1.08559e+07 3.00297e+06 1.2811e+06 785002 6.94451e+06 1.78512e+06 646555 1.16117e+06 508288 4.58064e+06 3.2573e+06 281651 2.91402e+06 272838 1.87726e+06 325106 3.77504e+06 275071 4.73219e+06 236588 4.36255e+06
threshold=1.0000000180025095e-35 1096.5000000000002 1.0000000180025095e-35 0.99398400000000009 0.0011855000000000001 0.34508800000000006 0.0010015000000000002 844.00000000000011 0.00092750000000000005 1094.5000000000002 13.500000000000002 0.99999750000000021 0.062864000000000017 12.500000000000002 0.99921900000000019 0.99567700000000003 16.500000000000004 0.0009385000000000001 0.96978850000000005 1054.5000000000002 998.50000000000011 0.00098650000000000018 1013.5000000000001 0.00097550000000000013 1026.0000000000002 0.0009655000000000001 0.0009515000000000002 0.00096450000000000019 0.050523000000000005 0.99420500000000012
decision_type=2 2 2 2 2 2 2 2 2 2 2 2 2 2 2 2 2 2 2 2 2 2 2 2 2 2 2 2 2 2
left_child=1 2 3 4 5 -1 8 -8 9 -7 -5 12 14 -14 15 16 -12 -10 -19 20 -20 22 -22 24 -24 26 -26 -28 29 -18
right_child=-2 -3 -4 10 -6 6 7 -9 17 -11 11 -13 13 -15 -16 -17 28 18 19 -21 21 -23 23 -25 25 -27 27 -29 -30 -31
leaf_value=-8.4369560691986401 -8.4369560691986916 -8.4369560691986401 -8.4369560691979846 -8.4369560691986383 -8.4369560691986401 -8.4369560691986401 396.91105888758813 -8.4369560691986401 382.36090847622455 390.37656760566068 -8.4369560691986223 -8.4369560691986401 407.39687771109362 -8.4369560691986401 -8.4369560691986401 403.35189784665937 395.17570004315985 -8.4369560691986383 403.27413325828138 -8.4369560691986401 402.88575046621509 -8.4369560691986401 403.07985022494557 -8.4369560691986383 387.8844140405883 -8.4369560691986401 -8.4369560691986401 401.91799173626003 379.84080738956158 -8.4369560691986401
leaf_weight=1.0377612936281355 28.369066228697193 4.6997300384100518 2.219875542286899 0.20587651961250486 2.4834453656512769 1.0126252069312678 2.0600870545458743 1.4782412890781413 10.68394013833313 2.0938412281102501 0.081871825241264129 0.086659651278749972 2.0081391420389987 0.50200356003188051 0.11538660750375029 10.139324926567495 2.0689445327152485 0.34137199647375993 2.0282480113964896 0.23268834542250338 2.0301631418114967 0.2075522587256281 2.0292055766039958 0.13453791165375228 4.2140154994267505 0.27075156242062792 0.32605095315375399 2.0349509678489994 6.4519702912657522 0.30761782290937834
leaf_count=4335 118505 19632 9273 860 10374 4230 257 6175 2887 398 342 362 40 2097 482 612 294 1426 124 972 132 867 128 562 906 1131 1362 152 1906 1285
internal_value=200.426 293.61 317.716 330.492 304.412 328.528 339.744 227.565 354.105 260.374 371.689 375.285 376.819 324.234 383.706 386.081 366.429 365.973 353.331 362.473 368.974 362.789 369.768 362.306 367.926 357.505 372.574 345.249 369.906 342.933
internal_weight=91.9559 63.5869 58.8871 56.6673 34.6995 32.216 31.1783 3.53833 27.6399 3.10647 21.9678 21.7619 21.6753 2.51014 19.1651 19.0497 8.9104 24.5335 13.8495 13.5082 13.2755 11.2472 11.0397 9.00951 8.87497 6.84577 6.57502 2.361 8.82853 2.37656
internal_count=192108 73603 53971 44698 36418 26044 21709 6432 15277 4628 8280 7420 7058 2137 4921 4439 3827 10649 7762 6336 5364 5240 4373 4241 3679 3551 2420 1514 3485 1579
is_linear=0
shrinkage=1


Tree=1
num_leaves=31
num_cat=0
split_feature=13 12 1 0 0 1 15 0 5 0 5 0 5 6 0 0 1 6 1 1 1 12 1 5 1 1 0 5 0 1
split_gain=2.7394e+06 6.97275e+06 1.85055e+08 1.75905e+06 1.03426e+06 1.03918e+07 1.22356e+07 4.56895e+07 1.17747e+09 5.47181e+06 1.4837e+08 2.64417e+06 5.78033e+06 199999 524950 1.22839e+07 2.57374e+07 417183 1.83082e+06 3.89721e+06 1.57576e+06 1.51117e+06 2.97114e+06 226798 346237 90183.8 1.02186e+07 2.25643e+07 83154.3 1.04456e+06
threshold=1.0000000180025095e-35 19.500000000000004 16.500000000000004 0.062864000000000017 0.0009515000000000002 1077.5000000000002 1.0000000180025095e-35 0.00093750000000000007 0.34466900000000006 0.0009475000000000001 0.37385300000000005 0.0009385000000000001 0.34376400000000001 0.99398400000000009 0.04565650000000001 0.042262000000000008 1071.5000000000002 0.99921900000000019 1092.5000000000002 1073.5000000000002 1089.5000000000002 584.50000000000011 1057.5000000000002 0.27596050000000005 1062.5000000000002 1095.5000000000002 0.00091250000000000012 0.34423900000000007 0.0010015000000000002 998.50000000000011
decision_type=2 2 2 2 2 2 2 2 2 2 2 2 2 2 2 2 2 2 2 2 2 2 2 2 2 2 2 2 2 2
left_child=1 2 3 -1 5 6 7 8 -3 11 -11 12 -9 28 15 17 -17 18 19 21 -21 -15 -23 -24 -25 26 27 -7 29 -6
right_child=-2 4 -4 -5 13 25 -8 9 -10 10 -12 -13 -14 14 -16 16 -18 -19 -20 20 -22 22 23 24 -26 -27 -28 -29 -30 -31
leaf_value=-529.24127564318906 -0.10002166514182137 -0.10002166514182034 -10199.316527209656 -7.5904795599058987 -908.50562078374696 -0.10002166514181175 -0.10002166514182116 -0.10002166514181342 -47035.005062042765 -0.10002166514182032 -17350.398766577189 -0.10002166514182108 -3759.2398194225593 -0.10002166514181624 -0.10002166514182116 -17234.986579794 -0.10002166514178289 -0.10002166514182081 -4.8839465054846878 -7078.7141437537794 -2154.4608414312474 -5309.0606132326357 -66.049842678418926 -577.16095553134062 -2308.3437571292707 -0.10002166514182134 -0.1000216651418213 -8309.7774693392494 -4.9072917773902081 -23.222325060132611
leaf_weight=0.074082297884159654 25.669949446673854 0.096826863024034537 0.018628881924087182 0.50731211007223465 0.013430124177830183 0.010397515492513776 0.5105613336636452 0.012563664553454146 0.0056319875584429626 0.094877328869188204 0.005198757746256887 0.33661956407013349 0.006065217370633035 0.017329192487522849 0.48175155115313828 0.0012996894365642211 0.002599378873128444 0.17957375715195667 0.083613353752298281 0.0012996894365642211 0.001299689436564222 0.0017329192487522968 0.0030326086853165179 0.0034658384975045919 0.001732919248752296 3.4541412925755139 1.2559332255332263 0.0047655279340687038 5.304465820430778 1.7558804287982637
leaf_count=740 118505 447 1992 2382 186 48 2357 58 2683 438 930 1554 258 80 2224 232 12 829 390 102 34 100 16 36 48 15946 5798 420 24745 8518
internal_value=-19.616 -54.7816 -388.418 -74.0601 -40.1115 -72.1625 -353.825 -677.603 -2585.53 -248.275 -901.414 -64.2805 -1224.01 -16.4642 -64.5639 -169.136 -5745.06 -94.9547 -245.021 -916.707 -4616.59 -564.337 -1545.62 -753.316 -1154.22 -8.48055 -31.2542 -2611.71 -11.1691 -29.9422
internal_weight=39.9161 14.2461 0.600023 0.581394 13.6461 5.79358 1.06834 0.557783 0.102459 0.455325 0.100076 0.355248 0.0186289 7.85251 0.778731 0.296979 0.00389907 0.29308 0.113506 0.0298929 0.00259938 0.0272935 0.00996429 0.00823137 0.00519876 4.72524 1.2711 0.015163 7.07378 1.76931
internal_count=192108 73603 5114 3122 68489 30937 8725 6368 3130 3238 1368 1870 316 37552 4103 1879 244 1635 806 416 136 280 200 100 84 22212 6266 468 33449 8704
is_linear=0
shrinkage=0.1


Tree=2
num_leaves=31
num_cat=0
split_feature=13 1 1 1 9 5 9 1 12 0 15 5 0 12 6 12 5 15 0 12 0 5 12 0 12 0 1 1 1 14
split_gain=3.03788e+09 1.48856e+11 2.48653e+11 1.3327e+10 6.06786e+09 5.85783e+09 1.59284e+11 4.87815e+09 2.73223e+09 2.81774e+09 1.18479e+10 3.86663e+11 9.0634e+08 7.12296e+08 3.43514e+09 6.27085e+10 4.80336e+09 3.17454e+10 5.56755e+11 4.42049e+07 7.35151e+09 6.27145e+09 3.74464e+06 2.76432e+07 2.89225e+06 1616.49 11824.6 1344.56 2196.77 6.10352e-05
threshold=1.0000000180025095e-35 15.500000000000002 14.500000000000002 17.500000000000004 0.31167050000000002 0.24547400000000003 0.007108999999999901 18.500000000000004 1078.5000000000002 0.0009385000000000001 1.0000000180025095e-35 0.34341450000000001 0.13355600000000004 1055.5000000000002 0.99420500000000012 25.500000000000004 0.96978850000000005 1.0000000180025095e-35 0.001018 1096.5000000000002 0.00091250000000000012 0.33748200000000006 844.50000000000011 0.0012695 844.50000000000011 0.0026700000000000005 1085.5000000000002 1064.5000000000002 1067.5000000000002 1.0000000180025095e-35
decision_type=2 2 2 2 2 2 2 2 2 2 2 2 2 2 2 2 2 2 2 2 2 2 2 2 2 2 2 2 2 2
left_child=1 2 -1 4 -3 6 -5 12 9 10 11 -9 -7 14 15 -11 24 18 -18 20 21 -10 23 -20 -17 -22 -27 -15 -29 -13
right_child=-2 3 -4 5 -6 7 -8 8 19 13 -12 29 -14 27 -16 16 17 -19 22 -21 25 -23 -24 -25 -26 26 -28 28 -30 -31
leaf_value=-1463.6412177668285 -0.10001960745306267 236334.47770836201 1591411.815597028 992415.40427837102 -0.1000195991928254 37702.194318482601 -0.10001871389981615 -0.10001960745299897 -0.10001960745297683 777988.77520947624 -0.10001960745299954 968263.36820891313 -0.10001960745298662 -0.10001957918691794 -0.10001960745299979 -4185.4533872560824 2418890.4376326781 -0.10001854965981527 -18272.232757481455 -0.10001957912378699 -0.10001958258741191 163859.87152667798 -0.10000015612517361 -0.10000015612318332 -0.10001853630128138 -0.10001960745298973 -336.47490861532009 -177.58581680415477 -0.10001265870403371 968263.36820816202
leaf_weight=0.0025964421089631476 23.227584531414323 0.0035333473267654672 0.0015741722307893724 0.0016828680020352085 0.0015686977484108411 0.044297152897342928 0.041499423179857331 0.094670463935472071 0.0043121122289448977 0.0010733471583532763 0.2034532951656729 0.0021560561144707826 0.0074481938499957314 0.47404118427152753 0.4317992381984368 0.0016724991542130243 0.0010188788649038863 0.06301225167608708 0.0010124707523573159 3.1967952534182587 1.1378922031294676 0.0050961326342074953 0.0086124094377737648 0.0045433023001351103 0.12902009045408419 0.0086242244578896843 0.0011891494068549955 0.0011268506916621837 0.0018296509670108208 0.0021560561144724488
leaf_count=2284 118505 992 462 1064 14 1634 1440 483 22 896 1038 1481 38 2913 2209 1126 6000 3723 817 19188 6706 446 5376 2862 8047 110 58 238 454 1482
internal_value=513.883 2544.49 599757 2120.55 163670 1980.13 38675.6 1708.19 1434.3 5241.37 13805.3 42181.7 32275.3 2926.27 5101.63 15593.5 11676.1 31279.7 161062 191.602 721.222 88757.4 -1305.84 -3329.97 -53.6608 -0.448541 -40.8607 -0.519309 -67.7475 968263
internal_weight=29.1069 5.87931 0.00417061 5.87514 0.00510205 5.87003 0.0431823 5.82685 5.77511 1.4212 0.302436 0.0989826 0.0517453 1.11876 0.641764 0.209965 0.208892 0.0781993 0.0151871 4.35391 1.15711 0.00940824 0.0141682 0.00555577 0.130693 1.14771 0.00981337 0.476998 0.0029565 0.00431211
internal_count=192108 73603 2746 70857 1006 69851 2504 67347 65675 39145 4484 3446 1672 34661 31056 28847 27951 18778 15055 26530 7342 468 9055 3679 9173 6874 168 3605 692 2963
is_linear=0
shrinkage=0.1


Tree=3
num_leaves=31
num_cat=0
split_feature=0 6 0 5 5 12 10 10 13 9 12 0 9 0 1 6 9 12 15 12 0 12 5 2 9 11 10 12 1 12
split_gain=5.64742e+08 1.17231e+10 2.70305e+10 2.13917e+07 3.72791e+09 6.08654e+09 2.2935e+10 3.27643e+10 3.52817e+07 3.55783e+08 1.46776e+08 2.11414e+10 7.03878e+07 3.94491e+08 1.55479e+08 4.36624e+07 7.39269e+08 1.93898e+07 3.10153e+07 2.32794e+09 3.56111e+09 2.67072e+07 6.47505e+08 5.79967e+06 1.80705e+07 2.59148e+08 2.50156e+08 163916 461677 145039
threshold=0.13355600000000004 0.99999850000000012 0.14316450000000003 0.35147050000000007 0.35127950000000002 844.50000000000011 33.500000000000007 15.500000000000002 1.0000000180025095e-35 0.27019800000000005 1050.5000000000002 0.0010270000000000004 0.22662800000000002 0.08374150000000001 22.500000000000004 0.99420500000000012 0.0091669999999999512 1078.5000000000002 1.0000000180025095e-35 1065.5000000000002 0.0050335000000000006 1055.5000000000002 0.55819300000000005 1.5000000000000002 0.007108999999999901 4.5000000000000009 141.00000000000003 20.500000000000004 12.500000000000002 1096.5000000000002
decision_type=2 2 2 2 2 2 2 2 2 2 2 2 2 2 2 2 2 2 2 2 2 2 2 2 2 2 2 2 2 2
left_child=3 2 -2 4 23 6 7 -6 9 10 11 -5 15 14 -14 16 -13 18 19 21 -21 22 -12 -1 25 26 -25 28 -3 -19
right_child=1 27 -4 8 5 -7 -8 -9 -10 -11 17 12 13 -15 -16 -17 -18 29 -20 20 -22 -23 -24 24 -26 -27 -28 -29 -30 -31
leaf_value=-12.89395748405539 470834.07722942217 -0.10001774727663496 -0.10001774724960195 -418699.32698360627 784723.52872000262 -0.10001773196051003 -0.10001774724960744 -0.10001774724953359 -0.10001774724962759 -45107.144230775681 -0.10001765581667335 -0.10000014776537949 -28730.21170116981 -0.10001774724962527 -0.1000177472495873 -0.10001774724962725 -87854.678834620863 -49.623822065473355 -0.10001771719877187 -223905.52095496395 -0.10001773904319217 -0.10001770885576378 -75142.099823731667 -51522.40221988863 -1.7055282720219591 -0.10001774724962509 -0.10001774724957119 -7.1700868458040858 -2442.0342174784541 -0.10001770704024507
leaf_weight=2.9232590348471041 0.0017735589062785042 0.002837694250047206 0.0039018295938149095 0.0012147144470836526 0.0010641353437769166 0.011536830314298641 0.004965964937582612 0.0010641353437677026 19.087927728833165 0.0017735589062793924 0.02567263212722537 0.01630018721846227 0.0078036591876298189 0.043097481422591954 0.002482982468791306 0.30381064064567909 0.0010175906729728004 0.8036539301674569 0.30212310660317598 0.0011848752874357152 0.0017735590517986566 0.20111187310885725 0.0012003939239096919 0.0020107797122362872 0.12457096307969096 0.040082431281916797 0.0017735589062795043 0.11315306663163938 0.0010647297540913314 2.2387558523778353
leaf_count=21975 50 38 76 8138 50 71 28 6 107625 2954 260 12598 2292 243 14 1713 1640 5910 2069 3215 12 1402 1008 1246 1119 226 10 656 58 15406
internal_value=8.57794 6776.13 147136 -23.183 222.98 44820.3 117708 392362 -56.4129 -328.334 -308.234 -2188.39 -837.455 -4199.85 -21795.4 -278.493 -5162.43 -110.659 -666.996 -1539.44 -89675.9 -395.74 -3356.63 -45.7707 -616.351 -2361.8 -27376.1 -29.1461 -666.353 -13.1818
internal_weight=26.274 0.122731 0.00567539 26.1512 3.11033 0.0186311 0.00709424 0.00212827 23.0409 3.95298 3.9512 0.375727 0.374513 0.0533841 0.0102866 0.321128 0.0173178 3.57548 0.533066 0.230943 0.00295843 0.227985 0.026873 3.0917 0.168438 0.0438668 0.00378434 0.117055 0.00390242 3.04241
internal_count=192108 878 126 191230 24731 155 84 56 166499 58874 55920 26638 18500 2549 2306 15951 14238 29282 7966 5897 3227 2670 1268 24576 2601 1482 1256 752 96 21316
is_linear=0
shrinkage=0.1


Tree=4
num_leaves=31
num_cat=0
split_feature=12 10 0 1 5 13 9 13 12 6 12 0 9 0 15 12 15 5 5 0 1 0 12 1 1 5 5 5 11 11
split_gain=1.5237e+08 5.554e+10 1.62307e+11 5.21698e+08 5.59303e+07 2.30504e+08 7.076e+08 3.20274e+07 9.33899e+07 8.53501e+07 2.29623e+09 1.96294e+10 7.30699e+08 5.5478e+07 2.67344e+09 8.19325e+06 2.50212e+07 2.35083e+08 3.95893e+06 258993 259975 16335 28111 14213.9 20429 9801.65 25035.5 805.9 11691.4 1229.25
threshold=19.500000000000004 2.5000000000000004 0.052676500000000008 13.500000000000002 0.15594850000000002 1.0000000180025095e-35 0.0082064999999999517 1.0000000180025095e-35 1096.5000000000002 0.99420500000000012 1050.5000000000002 0.0010335000000000003 0.0086500000000000014 0.0009385000000000001 1.0000000180025095e-35 1055.5000000000002 1.0000000180025095e-35 0.36621900000000002 0.38974800000000004 0.10025350000000001 24.500000000000004 0.13355600000000004 13.500000000000002 1053.5000000000002 1062.5000000000002 0.35187550000000006 0.32944600000000007 0.35147050000000007 4.5000000000000009 15.500000000000002
decision_type=2 2 2 2 2 2 2 2 2 2 2 2 2 2 2 2 2 2 2 2 2 2 2 2 2 2 2 2 2 2
left_child=1 2 -1 -4 5 6 -2 8 9 10 11 -6 18 14 -12 16 17 -15 -13 23 -21 -3 -23 -11 -25 26 -10 28 -9 -30
right_child=4 21 3 -5 7 -7 -8 27 25 19 13 12 -14 15 -16 -17 -18 -19 -20 20 -22 22 -24 24 -26 -27 -28 -29 29 -31
leaf_value=1300859.6331186753 -97001.255131368554 -0.1000160498244584 -2959.955274704495 -88484.194064266398 -433260.6077919961 -0.10000935261713494 -0.10000318787036602 -310.27672220771763 -581.0147629789675 -0.1000158375535094 -81400.04610955836 -6361.3804329630875 -89298.8881651095 -0.10001604760150816 -0.10001605886547385 -0.10001601216427869 -0.10001603144048601 -29999.773897168096 -0.10000013003983824 -2007.7631738646564 -0.10001603619529958 -0.10001604982442963 -445.19103238902119 -0.10001437232340418 -579.33536378421911 -0.10001602077586372 -0.10001573745362735 -0.1000160497730668 -66.186260163178005 -0.10001545194296101
leaf_weight=0.001283846562649126 0.0010577193628701709 1.5781683872337449 0.0012838465627282858 0.0016048082034103572 0.0011738895903337038 0.014767034879090701 0.002602084643800592 0.0012895874500679074 0.0010328537705746044 0.32146528843804845 0.0041732214369001311 0.0010689671791382577 0.0010011334065893615 0.019902400300098266 0.12164466514312622 0.27619905283340351 0.054626559574039946 0.0030066993513173648 0.011539525423813021 0.0012950379597782549 0.001284938406342917 0.0038515396881849675 0.0022467314847745001 0.0014772311769775106 0.0010358454564993735 2.0257547364207653 0.0026333611667380677 15.689457625447602 0.003026348074629758 0.040228160972584526
leaf_count=1416 1242 9834 2014 1710 11534 929 1022 198 974 2429 8868 3028 2588 422 1882 4345 536 1132 9781 138 16 24 26 68 248 15496 2740 98137 372 8959
internal_value=18.7995 958.894 365321 -50473.4 -61.4727 -5568.07 -28034.4 -56.0128 -364.446 -1264.45 -2093.21 -40910.5 -7068.63 -896.561 -2700.03 -255.093 -1163.44 -3937.4 -539.419 -9.89918 -1007.86 -0.731223 -164.081 -1.95199 -238.851 -0.395667 -163.757 -0.13815 -13.5698 -4.72381
internal_weight=20.1912 1.58844 0.0041725 0.00288865 18.6027 0.0184268 0.0036598 18.5843 2.85032 0.820894 0.494336 0.0147835 0.0136096 0.479553 0.125818 0.353735 0.0775357 0.0229091 0.0126085 0.326558 0.00257998 1.58427 0.00609827 0.323978 0.00251308 2.02942 0.00366621 15.734 0.0445441 0.0432545
internal_count=192108 15024 5140 3724 177084 3193 2264 173891 66225 47015 44116 26931 15397 17185 10750 6435 2090 1554 12809 2899 154 9884 50 2745 316 19210 3714 107666 9529 9331
is_linear=0
shrinkage=0.1


Tree=5
num_leaves=31
num_cat=0
split_feature=13 5 1 12 0 9 0 6 1 0 5 12 1 15 12 12 5 5 0 10 10 9 5 11 5 14 5 5 9 0
split_gain=6.80588e+07 4.62754e+08 5.29909e+08 2.07009e+08 2.55768e+10 1.84246e+08 3.18396e+09 9.84995e+07 6.78194e+08 5.3634e+07 4.23049e+07 2.93315e+07 9.79928e+07 3.28251e+07 4.73601e+09 4.00148e+07 1.30629e+08 6.81086e+06 28282.4 14335.2 1322.38 35395.5 800.181 12639.3 20966.3 1.49012e-08 6.12759e-11 5.8966e-11 2.86213e-11 6.34426e-12
threshold=1.0000000180025095e-35 0.14133150000000003 633.50000000000011 1050.5000000000002 0.0010565000000000004 0.22662800000000002 0.08374150000000001 0.99420500000000012 703.00000000000011 0.10025350000000001 0.35147050000000007 1096.5000000000002 1075.5000000000002 1.0000000180025095e-35 1065.5000000000002 1055.5000000000002 0.36149750000000008 0.54741550000000017 0.13355600000000004 42.500000000000007 2.5000000000000004 0.18376050000000002 0.35147050000000007 15.500000000000002 0.10973450000000001 1.0000000180025095e-35 0.35247050000000008 0.35302300000000003 0.007108999999999901 0.00093750000000000007
decision_type=2 2 2 2 2 2 2 2 2 2 2 2 2 2 2 2 2 2 2 2 2 2 2 2 2 2 2 2 2 2
left_child=1 2 -1 4 -3 7 -7 8 -6 -8 -5 12 13 14 15 16 -12 -10 20 -20 21 27 23 24 -22 -14 -9 -2 -25 -13
right_child=18 3 -4 10 5 6 9 26 17 -11 11 29 25 -15 -16 -17 -18 -19 19 -21 22 -23 -24 28 -26 -27 -28 -29 -30 -31
leaf_value=-0.10000288836654164 -0.10000291901581543 -507159.6098815857 -100134.48071164225 -12113.404049958936 -87186.03834027343 -129565.08533762791 -0.10001452073073568 -0.10000291887987317 -8785.6908707518251 -21860.162973263006 -0.10001452823209728 -0.10001452073171267 -15839.102913429022 -0.10001449929693751 -203023.16620187566 -0.10001449612338581 -19411.466294284826 -0.10000011495198469 -426.51870908801078 -0.10001420390822363 -0.100004985446788 -459.20154782237 -0.10001452073324023 -0.10001452076317092 -573.568985677451 -15839.102913429015 -0.10001452073019812 -0.10001452073361408 -0.10000291869088454 -0.10001317767223156
leaf_weight=0.0011200112688938392 0.0048994671575097728 0.0010028403097841468 0.0010006553122981921 0.0029719389430947754 0.0010253947104533765 0.0020329566614236674 0.032962940153083764 0.0046372126569451657 0.0010016400865424432 0.001161936269255647 0.013652237655833233 1.7971335086040197 0.0021781674149679011 0.24242783734075601 0.0011619369386437475 0.16466174248654397 0.004646762041374485 0.0074115210968557447 0.0023451129428061481 0.0011876223216233939 0.0016319451562593068 0.0017425339319743207 15.581447997392409 0.039936594381203561 0.0010462641017279775 0.002178167414967902 0.24874676864419598 0.041385180884191297 0.0022458391018400073 0.035871725736399074
leaf_count=758 280 12797 1374 7401 3522 4340 775 161 3604 658 96 12376 3111 2041 2945 1404 1172 7124 236 230 52 38 107302 8875 482 3111 1713 285 725 3120
internal_value=-78.4313 -555.533 -47249.4 -516.956 -2985.6 -1294.5 -7987.3 -373.736 -10404.2 -744.425 -190.273 -174.621 -917.004 -764.605 -1771.2 -493.102 -4929.33 -1046.08 -0.253097 -283.167 -0.189332 -16.7572 -0.138411 -13.4748 -224.13 -15839.1 -0.100014 -0.100013 -0.100014 -0.100014
internal_weight=18.2469 2.56899 0.00212067 2.56687 0.299983 0.29898 0.0361578 0.262823 0.00943856 0.0341249 2.26688 2.26391 0.430907 0.426551 0.184123 0.182961 0.018299 0.00841316 15.6779 0.00353274 15.6743 0.0480272 15.6263 0.0448606 0.00267821 0.00435633 0.253384 0.0462846 0.0421824 1.83301
internal_count=192108 73603 2132 71471 34694 21897 5773 16124 14250 1433 36777 29376 13880 7658 5617 2672 1268 10728 118505 466 118039 603 117436 10134 534 6222 1874 565 9600 15496
is_linear=0
shrinkage=0.1


Tree=6
num_leaves=31
num_cat=0
split_feature=5 13 12 10 13 12 0 5 6 9 9 6 5 12 0 1 0 1 12 15 5 5 0 0 1 0 0 0 1 1
split_gain=8.52872e+07 8.54884e+08 7.5808e+07 2.57655e+10 5.20681e+07 1.68262e+08 1.786e+09 3.86442e+09 1.23541e+08 6.51454e+08 6.81804e+07 2.4961e+08 3.88321e+07 2.98481e+07 6.53841e+07 9.98834e+06 1.48176e+07 2.91426e+07 6.79124e+06 6.82536e+07 4.15908e+07 1.98914e+06 2.6805e+06 1.17366e+07 910250 436878 384860 324128 179003 106536
threshold=0.15594850000000002 1.0000000180025095e-35 18.500000000000004 3.5000000000000004 1.0000000180025095e-35 1052.5000000000002 0.0010565000000000004 0.96978850000000005 0.99420500000000012 0.0069630000000000013 0.22662800000000002 0.99999150000000003 0.35187550000000006 1096.5000000000002 0.0009385000000000001 1073.5000000000002 0.00093550000000000003 1065.5000000000002 1055.5000000000002 1.0000000180025095e-35 0.35483200000000009 0.35800400000000004 0.00093450000000000011 0.00093250000000000006 913.50000000000011 0.091695000000000013 0.0011710000000000004 0.00093150000000000014 1072.5000000000002 1068.5000000000002
decision_type=2 2 2 2 2 2 2 2 2 2 2 2 2 2 2 2 2 2 2 2 2 2 2 2 2 2 2 2 2 2
left_child=1 -1 3 -2 5 6 7 -4 9 24 -10 -12 -7 14 15 16 21 -18 19 20 -16 28 23 27 26 -13 -8 -23 -14 -24
right_child=2 -3 4 -5 -6 12 8 -9 10 -11 11 25 13 -15 18 -17 17 -19 -20 -21 -22 22 29 -25 -26 -27 -28 -29 -30 -31
leaf_value=-91690.369017626334 330494.7998069161 -0.10000734810300507 -0.10001314601534056 -1.2146418533521308 -0.20550793141254703 -11281.599599578178 -1579.4725496823592 -108231.93054102076 -0.10001295850801271 -88190.33691244034 -23229.231325533066 -0.10001314602844485 -1065.5958979000177 -0.1000131220421044 -0.10001314601528744 -5381.941471854152 -2345.0137363504377 -11587.367759847846 -0.10001310483613822 -0.10001312176054555 -20187.988373021628 -2302.3321927044153 -1832.3019313742254 -6953.4984818342118 -0.10000010704382162 -861.10669334854231 -4036.3865056348477 -1539.1496244578009 -0.10001314602988468 -1372.3295616932753
leaf_weight=0.0011189846109308519 0.0023650959481152914 0.011141699018897722 0.0097231830004602671 0.89715972996782511 13.270796579031932 0.0031556088556502484 0.0016462233693346198 0.0049929858652871814 0.22916870338107742 0.0010137176532225567 0.0060441347595769903 0.010774327180115506 0.0026278843870386473 1.658593325444613 0.0015767323784530154 0.018395190709270537 0.0097231722320429981 0.0052557687740772971 0.22797194828467582 0.037882381073814031 0.0028928236058618495 0.010511537548154926 0.0070952878450043491 0.005781345651485025 0.0030164586019054695 0.013008029156480916 0.0010405604245988798 0.011825479741673917 0.0039418265805579722 0.017344036954455078
leaf_count=2264 3650 929 4493 6870 110670 7365 2369 8834 1876 4987 1512 82 48 15496 12 5648 304 651 3917 328 738 324 184 448 4227 565 2645 272 30 370
internal_value=-31.0595 -8368.31 -24.8551 867.749 -76.4043 -515.11 -2810.8 -36721.6 -932.688 -14322.1 -585.439 -5082.83 -197.129 -179.825 -1001.41 -3296.26 -2778.54 -5587.94 -216.137 -1379.02 -13066.3 -2066.82 -2271.89 -2937.68 -1192.4 -471.037 -2531.01 -1898.29 -426.298 -1505.87
internal_weight=16.4876 0.0122607 16.4753 0.899525 15.5758 2.305 0.280428 0.0147162 0.265712 0.00671696 0.258995 0.0298265 2.02457 2.02142 0.362825 0.0925015 0.0741063 0.0149789 0.270324 0.0423519 0.00446956 0.0591274 0.0525577 0.0281184 0.00570324 0.0237824 0.00268678 0.022337 0.00656971 0.0244393
internal_count=192108 3193 188915 10520 178395 67725 31590 13327 18263 14228 4035 2159 36135 28770 13274 8279 2631 955 4995 1078 750 1676 1598 1044 9241 647 5014 596 78 554
is_linear=0
shrinkage=0.1


Tree=7
num_leaves=31
num_cat=0
split_feature=13 9 5 12 0 6 1 2 12 15 5 10 9 0 11 12 12 5 11 14 14 12 5 5 9 0 0 5 0 12
split_gain=1.16863e+08 2.61694e+09 7.72639e+08 1.75823e+08 3.10961e+09 8.60128e+07 1.3147e+10 1.30046e+10 1.50124e+07 7.67665e+07 4.75224e+08 39130 1.25314e+06 48402.6 2299.35 924.577 1436.07 485.023 11488.4 280.367 4.76837e-07 1.19423e-09 2.46228e-11 2.02771e-11 1.205e-11 3.48277e-12 3.44221e-11 5.22648e-13 3.18745e-13 8.61186e-14
threshold=1.0000000180025095e-35 0.22662800000000002 0.26231000000000004 1096.5000000000002 0.0009385000000000001 0.99420500000000012 1049.5000000000002 1.5000000000000002 1055.5000000000002 1.0000000180025095e-35 0.35733550000000008 3.5000000000000004 0.21057350000000002 0.12516200000000002 33.500000000000007 847.50000000000011 781.50000000000011 0.35147050000000007 15.500000000000002 1.0000000180025095e-35 1.0000000180025095e-35 18.500000000000004 0.35187550000000006 0.35247050000000008 0.007108999999999901 0.0016785000000000003 0.0032635000000000003 0.21856050000000002 0.00094550000000000005 1056.5000000000002
decision_type=2 2 2 2 2 2 2 2 2 2 2 2 2 2 2 2 2 2 2 2 2 2 2 2 2 2 2 2 2 2
left_child=1 2 -1 4 19 6 7 -6 9 10 -8 12 15 17 -15 16 -2 18 -13 -4 -3 -19 -17 -7 27 -5 -27 -20 -10 -30
right_child=11 20 3 25 5 23 8 -9 28 -11 -12 13 -14 14 -16 22 -18 21 24 -21 -22 -23 -24 -25 -26 26 -28 -29 29 -31
leaf_value=-73991.130530932016 -0.10001070408626739 -52517.602173752734 -95212.707739629899 -0.10001189079703998 -437374.62471356406 -0.10000238429813356 -0.10001189078468904 -0.10000010529368047 -0.10001189079634565 -0.10001187548469377 -63222.771954064054 -299.4717599624978 -2937.6019641672347 -380.64566169830135 -591.70743703655069 -0.10000238448034082 -121.96699102824989 -0.10000390778263187 -0.1000118906498895 -95268.781124865825 -52517.60217375154 -0.10001070405693889 -0.10001070405697457 -0.10001189078147626 -0.10000221253387674 -0.10000009458168752 -0.10001188672453709 -0.10001069672121009 -0.10001162382374829 -0.10001102019094309
leaf_weight=0.0014326060772870122 0.002353798487437996 0.0048745654203229405 0.0017833772653875748 1.471405225805938 0.0013768520249186613 0.0022684941268522598 0.0071335169195663184 0.0013428367159349364 0.19510149671259569 0.035952005044919133 0.0014267033839132637 0.0013361313889308493 0.0014978713443269944 0.0010511222401284872 0.0010141860402654856 0.0038680826831073425 0.0016411336218880024 0.26493656903039742 0.0042801586096174972 0.0017833772653830238 0.0048745654203230515 10.728931466983338 0.044294195467955433 0.20532644769937747 0.0017000815794140358 0.0027290114435344339 0.026640903912849012 0.02557337554894357 0.0043792082681193278 0.0051345945876164478
leaf_count=2640 26 2887 5375 15946 23336 159 380 3367 2255 536 1148 488 68 372 42 346 24 6792 36 5375 2886 100279 468 2001 725 2886 336 8839 170 1920
internal_value=-126.932 -835.608 -579.222 -525.667 -2229.21 -1507.15 -2749.39 -221422 -362.164 -2026.51 -10537.2 -0.641406 -85.8328 -0.226951 -484.289 -3.93457 -50.1634 -0.136286 -12.2619 -95240.7 -52517.6 -0.100011 -0.10001 -0.100012 -0.10001 -0.100012 -0.100011 -0.100011 -0.100012 -0.100011
internal_weight=13.0574 1.97497 1.96522 1.96378 0.463009 0.459442 0.251847 0.00271969 0.249128 0.0445122 0.00856022 11.0825 0.0536551 11.0288 0.00206531 0.0521572 0.00399493 11.0268 0.0328897 0.00356675 0.00974913 10.9939 0.0481623 0.207595 0.0315536 1.50078 0.0293699 0.0298535 0.204615 0.0095138
internal_count=192108 73603 67830 65190 46022 35272 33112 26703 6409 2064 1528 118505 932 117573 414 864 50 117159 10088 10750 5773 107071 814 2160 9600 19168 3222 8875 4345 2090
is_linear=0
shrinkage=0.1


Tree=8
num_leaves=31
num_cat=0
split_feature=5 11 2 1 10 12 0 10 6 6 10 13 1 0 12 0 5 10 0 12 15 5 6 5 10 5 14 10 0 5
split_gain=1.3917e+08 2.27436e+08 7.17229e+08 6.15966e+07 9.91254e+09 6.21619e+07 1.41334e+09 4.3542e+10 2.94684e+07 9.10434e+08 5.05209e+10 2.4846e+08 2.63667e+08 7.58227e+09 3.34503e+08 3.98754e+09 1.49435e+10 1.24781e+07 1.43678e+07 9.03144e+06 2.53634e+08 829623 88121.6 1547.5 9711.77 22540.4 76.6442 1.01628e-10 1.55501e-11 1.38758e-11
threshold=0.24547400000000003 5.5000000000000009 20.500000000000004 17.500000000000004 5.5000000000000009 22.500000000000004 0.04565650000000001 14.500000000000002 0.78939550000000014 0.78926050000000014 6.5000000000000009 1.0000000180025095e-35 1064.5000000000002 0.0017865000000000001 1052.5000000000002 0.001897 0.38017300000000004 3.5000000000000004 0.048211000000000011 1055.5000000000002 1.0000000180025095e-35 0.35332950000000002 0.99999450000000012 0.35147050000000007 32.500000000000007 0.34823700000000007 1.0000000180025095e-35 1.5000000000000002 0.0032635000000000003 0.35247050000000008
decision_type=2 2 2 2 2 2 2 2 2 2 2 2 2 2 2 2 2 2 2 2 2 2 2 2 2 2 2 2 2 2
left_child=1 2 -1 4 -2 6 7 -5 9 27 -11 12 14 -14 15 16 21 18 -8 20 -16 -10 -6 24 25 -13 -20 -7 -15 -17
right_child=3 -3 -4 5 22 8 17 -9 11 10 -12 23 13 28 19 29 -18 -19 26 -21 -22 -23 -24 -25 -26 -27 -28 -29 -30 -31
leaf_value=-102214.55419356249 -265758.19769952627 -0.10000877287141557 -0.10000216377061666 539103.69108564255 -0.10000356006022607 -0.10001076051716351 -0.10001076051403851 -0.10000968021034096 -2788.7472543818367 616118.51838310703 -0.10000968020945551 -0.10000897336996509 -270232.61534812924 -0.10000009127510168 -45238.155296168203 -0.10000215518648664 -358806.045323723 -0.10000968021034298 -2110.267804834798 -0.1000107411102327 -0.1000107490074619 -0.10001076053014482 -885.48812208187155 -0.10000968021031748 -0.10000943904227524 -563.51914246782451 -2103.5044465204573 -0.10000968020976186 -0.10001076050239061 -0.10001052680179152
leaf_weight=0.0010370353277180389 0.0014118102261136958 0.0050267303280803199 0.0020308596795075573 0.0015489635989024411 0.23853946116287261 1.3313967877184048 0.06261095184891019 0.045694426167756319 0.0015061065932968631 0.0013553431490436188 0.073769398928486551 0.0021308846355948541 0.0010927626515240254 0.0014697367205371839 0.0012909485085401675 0.0020526228236406032 0.0015061065934353079 0.55743327515665442 0.033457055025792215 0.19130037610570128 0.031016170866905668 0.0036576874408638096 0.0011294481810182324 6.5526968847260374 0.019985476009715508 0.001064926561926304 0.033564633980859071 2.5171634108927639 0.019364232866792008 0.05587394955318814
leaf_count=2528 3866 773 216 242 6734 15946 590 472 4548 482 790 1356 11537 3351 1002 240 15840 5760 1246 3069 478 2216 190 67962 5040 95 1246 28919 248 5126
internal_value=12.433 -13095.2 -34551.5 21.4361 -1560.57 54.4742 944.804 17675.4 -6.00655 212.723 11115.4 -130.64 -2896.62 -13467.7 -2092.37 -8430.9 -81650.5 -205.612 -1089.33 -261.272 -1807.75 -813.455 -4.27243 -0.191252 -25.983 -187.846 -2106.88 -0.10001 -0.10001 -0.10001
internal_weight=11.7932 0.00809463 0.0030679 11.7851 0.241081 11.544 0.734309 0.0472434 10.8097 3.92368 0.0751247 6.88601 0.310131 0.0219267 0.288204 0.0645965 0.0066699 0.687066 0.129633 0.223607 0.0323071 0.00516379 0.239669 6.57588 0.0231813 0.00319581 0.0670217 3.84856 0.020834 0.0579266
internal_count=192108 3517 2744 188591 10790 177801 9556 714 168245 46137 1272 122108 47655 15136 32519 27970 22604 8842 3082 4549 1480 6764 6924 74453 6491 1451 2492 44865 3599 5366
is_linear=0
shrinkage=0.1


Tree=9
num_leaves=31
num_cat=0
split_feature=12 10 5 11 13 9 12 0 12 0 5 6 5 5 12 0 5 1 0 10 1 10 5 12 0 1 0 10 10 10
split_gain=2.69998e+08 4.31491e+10 1.73574e+08 4.35502e+08 6.80064e+07 1.2611e+09 2.43076e+08 3.78425e+08 1.55458e+08 8.67173e+09 6.04018e+09 4.48445e+07 3.4112e+07 7.05145e+07 1.02095e+07 3.49286e+06 2.20754e+06 344065 14221.5 13146.4 34969.5 38933.7 20829 19089.9 5699.86 45421.4 3387.1 2330.63 2215.65 1454.55
threshold=18.500000000000004 7.5000000000000009 0.24547400000000003 5.5000000000000009 1.0000000180025095e-35 0.21830450000000004 1096.5000000000002 0.00093950000000000012 1052.5000000000002 0.001897 0.35685250000000007 0.99420500000000012 0.36486150000000006 0.36591950000000001 1055.5000000000002 0.00094950000000000015 0.96978850000000005 1053.5000000000002 0.11092200000000001 5.5000000000000009 21.500000000000004 4.5000000000000009 0.36591950000000001 1112.5000000000002 0.00091250000000000012 1106.5000000000002 0.00097750000000000029 34.500000000000007 37.500000000000007 15.500000000000002
decision_type=2 2 2 2 2 2 2 2 2 2 2 2 2 2 2 2 2 2 2 2 2 2 2 2 2 2 2 2 2 2
left_child=1 -1 3 -2 5 6 7 12 9 10 -9 -11 -4 -14 15 16 -10 -18 -3 20 21 -6 23 26 25 -24 -22 -20 -29 -21
right_child=2 18 4 -5 19 -7 -8 8 14 11 -12 -13 13 -15 -16 -17 17 -19 27 29 22 -23 24 -25 -26 -27 -28 28 -30 -31
leaf_value=582914.8719967861 -57683.988954006782 -0.100003189553937 -26416.429132156176 -0.10000793428550425 -685.04496027965342 -90659.433325447782 -0.10000972208110009 -3082.0020793412154 -0.10000973192357793 -20228.296953918543 -277576.74641184619 -0.10000960350642329 -706.36992030405554 -17188.141378644828 -0.10000971372427477 -724.3564797366638 -4271.5078220161377 -3155.3804641955967 -101.10667489632624 -10.64921593684376 -570.88746835340396 -0.10000876288345184 -652.42853400928072 -0.1000087628834582 -0.10000876288351331 -0.10000876288350316 -326.26401249573121 -348.01187240164268 -156.66034433500744 -0.10000876228186495
leaf_weight=0.0012774627247641437 0.0018376014850186575 0.2089290286457981 0.0027255868772044769 0.0045484098637076364 0.0017519656102903394 0.001557478914037457 1.2277671270320949 0.0013627947628261907 0.0021415347873698911 0.0011073651324977609 0.0019468496611810826 0.10640305292653807 0.0031149564310908309 0.015574782155474254 0.14747588528250333 0.011321956156848501 0.0036990146327298143 0.01090235891751945 0.0019800672234850927 0.13271139498101447 0.0010511793661862603 0.0015767690492793918 0.0012263759272173056 0.0017519656103104353 0.05063180613797158 0.0082342383684590459 0.0012263769006444214 0.0011497164523461834 0.0012774627248290926 8.6403841635503049
leaf_count=3740 2744 6542 3479 773 116 2798 19188 5008 338 4777 17596 1207 54 7485 4413 488 196 458 102 1785 98 18 22 82 694 94 120 68 68 107557
internal_value=-44.9216 3465.9 -117.482 -16598.9 -107.34 -721.263 -630.04 -3142.97 -2184.06 -5116.5 -164549 -208.452 -15965.3 -14441.2 -332.786 -2080.99 -2998.38 -3438.13 -3.84995 -0.597716 -44.577 -360.597 -28.1715 -248.268 -13.4128 -84.6611 -439.167 -181.619 -247.301 -0.259588
internal_weight=10.5986 0.214614 10.384 0.00638601 10.3776 1.5371 1.53554 0.307776 0.286361 0.11082 0.00330964 0.10751 0.0214153 0.0186897 0.175541 0.0280649 0.0167429 0.0146014 0.213336 8.84055 0.0674507 0.00332873 0.0641219 0.00402952 0.0600924 0.00946061 0.00227756 0.00440725 0.00242718 8.7731
internal_count=192108 10520 181588 3517 178071 67485 64687 45499 34481 28588 22604 5984 11018 7539 5893 1480 992 654 6780 110586 1244 134 1110 300 810 116 218 238 136 109342
is_linear=0
shrinkage=0.1


Tree=10
num_leaves=31
num_cat=0
split_feature=13 12 9 5 0 1 5 0 12 1 12 0 15 5 0 12 10 1 10 5 0 0 1 6 1 14 14 1 5 0
split_gain=3.31037e+08 8.18585e+09 3.95969e+11 5.00627e+11 4.45008e+09 6.22577e+09 2.80707e+08 1.18049e+08 1.07627e+08 3.07221e+08 6.21664e+07 4.6883e+08 1.05072e+08 2.98217e+07 990050 4.02715e+07 475094 3.91763e+06 9.37465e+06 68213.2 55340 7387.57 49071.7 6251.23 51414.7 84.7264 7.45058e-09 4.60123e-10 6.45614e-12 5.95343e-13
threshold=1.0000000180025095e-35 1036.5000000000002 0.0074410000000000006 0.96978850000000005 0.050523000000000005 25.500000000000004 0.3523515000000001 0.00089750000000000019 1055.5000000000002 1049.5000000000002 1096.5000000000002 0.00094050000000000004 1.0000000180025095e-35 0.36335100000000004 0.04565650000000001 571.50000000000011 15.500000000000002 21.500000000000004 7.5000000000000009 0.36591950000000001 0.062864000000000017 0.00091250000000000012 1110.5000000000002 0.99999150000000003 17.500000000000004 1.0000000180025095e-35 1.0000000180025095e-35 17.500000000000004 0.35247050000000008 0.0018510000000000002
decision_type=2 2 2 2 2 2 2 2 2 2 2 2 2 2 2 2 2 2 2 2 2 2 2 2 2 2 2 2 2 2
left_child=1 2 3 -1 14 -6 7 -3 9 -8 11 12 13 26 15 -4 17 18 -2 -19 -20 22 -21 27 -25 -15 -10 -18 -17 -13
right_child=16 6 4 -5 5 -7 8 -9 10 -11 -12 29 -14 25 -16 28 23 19 20 21 -22 -23 -24 24 -26 -27 -28 -29 -30 -31
leaf_value=-19324.019455897524 -9812.2564765966217 -0.10000880547297586 -18690.678368172576 2708749.9344281717 -219032.09372754369 -0.10000881409961832 -0.10000881419428383 -34343.937160097958 -11504.816492165126 -46548.742269287482 -0.10000879692620973 -0.10000880918944022 -0.10000881410471296 -23249.026288035799 -0.10000881410182659 -0.10000176877404997 -0.10000288924123615 -618.910646789353 -823.83034717706073 -720.86011268100117 -0.10000288922482344 -0.10000793077647796 -0.1000079306541309 -721.0244036583141 -0.10000793111677107 -23265.971569579971 -11504.816492165133 -0.10000793045577108 -0.10000881409964824 -0.10000685918384791
leaf_weight=0.0014800310091231941 0.0014268015440538342 0.0014092769706618427 0.0011984647862846023 0.001233118062310079 0.0022900764015503219 0.0029947152943350375 0.0052847916958854704 0.0034533124378839375 0.0013211972691351557 0.0019377579155843705 1.1061830837583952 0.1145918430047459 0.0028185539413243524 0.0059013478021369137 0.051438626469462179 0.0013619995534099863 0.18534847595947113 0.0019392038896293142 0.0012139895135985235 0.0011099393469826682 0.0024851921187112325 0.045815879964752337 0.0063413960744784781 0.0011096864036516116 0.0091152251116000116 0.0059013478021370247 0.0013211972691351548 7.8117414660907025 0.028890194604173303 0.0015873865676212509
leaf_count=7192 296 2256 1522 12746 5811 86 2700 6698 408 1612 15442 2067 1434 3222 1207 1369 6546 910 194 161 102 1640 258 198 261 3223 408 107939 2766 1434
internal_value=239.65 1693.56 30671 1.22058e+06 -5942.89 -94914 -410.498 -24390.4 -316.979 -12488.8 -246.061 -2284.97 -17661.5 -21107.6 -270.34 -712.327 -2.30635 -281.872 -2926.37 -36.3277 -270.43 -15.1186 -107.463 -0.199916 -78.3403 -23257.5 -11504.8 -0.100008 -0.100008 -0.100009
internal_weight=9.41025 1.3426 0.0908872 0.00271315 0.0881741 0.00528479 1.25171 0.00486259 1.24685 0.00722255 1.23963 0.133443 0.0172636 0.0144451 0.0828893 0.0314507 8.06765 0.0603324 0.00512598 0.0552064 0.00369918 0.0532672 0.00745134 8.00731 0.0102249 0.0118027 0.00264239 7.99709 0.0302522 0.116179
internal_count=192108 73603 32699 19938 12761 5897 40904 8954 31950 4312 27638 12196 8695 7261 6864 5657 118505 3561 592 2969 296 2059 419 114944 459 6445 816 114485 4135 3501
is_linear=0
shrinkage=0.1


Tree=11
num_leaves=31
num_cat=0
split_feature=5 10 13 12 0 1 0 12 12 0 1 0 1 0 1 10 1 11 1 5 5 0 1 6 1 10 10 1 5 5
split_gain=3.28313e+08 6.83926e+08 1.29296e+08 4.28665e+09 4.70957e+10 9.58237e+10 8.93076e+09 8.2534e+09 5.77343e+08 2.46625e+10 8.41289e+08 4.8764e+09 3.19016e+08 1.23334e+06 4.29883e+07 580176 9.42974e+06 9.41796e+06 168502 136314 28195.2 9768.18 52579.3 7750.75 4634.2 4131.26 6248.54 3.40058e-10 4.76212e-12 8.10019e-13
threshold=0.15594850000000002 33.500000000000007 1.0000000180025095e-35 1055.5000000000002 0.0028885000000000004 1039.0000000000002 0.050523000000000005 31.000000000000004 1068.5000000000002 0.00094050000000000004 1095.5000000000002 0.029548500000000002 1043.5000000000002 0.04565650000000001 573.50000000000011 15.500000000000002 21.500000000000004 9.5000000000000018 1027.5000000000002 0.39176400000000006 0.3523515000000001 0.00091250000000000012 1117.5000000000002 0.99999150000000003 18.500000000000004 40.500000000000007 34.500000000000007 17.500000000000004 0.35247050000000008 0.30378650000000007
decision_type=2 2 2 2 2 2 2 2 2 2 2 2 2 2 2 2 2 2 2 2 2 2 2 2 2 2 2 2 2 2
left_child=1 -1 3 4 5 -2 13 -8 9 -5 11 -10 -7 14 -6 16 17 -4 28 -18 -12 22 -21 27 25 26 -25 -17 -16 -29
right_child=2 -3 15 8 6 12 7 -9 10 -11 20 -13 -14 -15 18 23 19 -19 -20 21 -22 -23 -24 24 -26 -27 -28 29 -30 -31
leaf_value=-98990.589805949508 -1146462.3765144781 -0.10000730180002027 -13294.50339896922 314721.81573107128 -20075.737120154576 -0.10000796991618084 -349650.77971192234 -0.10000796991618084 -230060.01086575165 -0.10000795100556169 -470.62305347636811 -0.10000796211001411 -70735.352645440915 -0.10000796991843247 -0.10000160247696202 -0.1000026156788284 -1195.1351805920663 -347.77669430279064 -1254.8273274814574 -796.76326997049227 -0.10000796225762859 -0.10000717212677773 -0.10000717207687011 -93.053453617755963 -0.1000071724301604 -0.10000717243011537 -348.67543134234347 -0.10000445087920765 -0.1000079699162553 -0.10000717217166631
leaf_weight=0.0010364632017558209 0.001115780280095068 0.0021369604671372389 0.0010982064831875906 0.0025503535289316251 0.0011157802800880736 0.0012751774629577994 0.0014345746458275235 0.0012751774629577994 0.0010814574302455684 0.10505511573450121 0.0012751766480504348 0.0062225938406470505 0.0012751774629577994 0.046543964694137685 0.0012323900700721415 0.16771067000809381 0.0010041545443089097 0.001150494150351733 0.0011157802800880736 0.0010041883909503993 0.99368874964369536 0.040452067134237435 0.0047337854634461607 0.0021516146807697423 0.0030839810424367897 0.001290968808461912 0.0017212917446158826 0.001092390127062858 0.025025357710546814 7.0641411653000565
leaf_count=2685 22824 508 452 1848 1350 964 5793 58 11232 2457 3730 216 3623 1207 299 6546 744 140 52 227 15172 1580 190 74 123 172 70 724 514 106534
internal_value=-172.396 -32331.1 -160.364 -1126.24 -23275.1 -373527 -6758.26 -185109 498.382 7459.11 -248.936 -34063.4 -35367.7 -317.293 -835.501 -2.5415 -343.931 -6670.62 -51.2443 -42.4781 -0.703045 -17.4198 -139.522 -0.210486 -97.0949 -155.022 -206.663 -0.100007 -0.100008 -0.100007
internal_weight=8.48509 0.00317342 8.48192 1.19128 0.0814092 0.00366614 0.077743 0.00270975 1.10987 0.107605 1.00227 0.00730405 0.00255035 0.0750333 0.0284893 7.29063 0.0494429 0.0022487 0.0273735 0.0471942 0.994964 0.04619 0.00573797 7.24119 0.00824786 0.00516388 0.00387291 7.23294 0.0262577 7.06523
internal_count=192108 3193 188915 71339 36684 27411 9273 5851 34655 4305 30350 11448 4587 3422 2215 117576 3333 592 865 2741 18902 1997 417 114243 439 316 144 113804 813 107258
is_linear=0
shrinkage=0.1


Tree=12
num_leaves=31
num_cat=0
split_feature=5 10 9 0 10 13 12 9 0 1 1 0 2 10 1 6 10 10 10 6 1 12 10 9 9 5 0 1 6 0
split_gain=2.46939e+09 3.89225e+10 1.31916e+08 1.95644e+09 2.66578e+11 1.21576e+09 1.583e+09 9.68454e+10 6.94552e+09 1.0651e+08 1.39206e+09 1.44105e+06 4.74827e+07 684417 1.85697e+07 167515 8.9605e+07 23142.6 23067.2 16151 38621.5 2.49099e-10 3.02087e-11 3.50684e-12 1.62878e-12 8.00505e-14 4.71567e-14 1.41486e-13 8.88178e-16 4.44089e-16
threshold=0.35147050000000007 2.5000000000000004 0.0049580000000000015 0.00093050000000000012 17.500000000000004 1.0000000180025095e-35 1055.5000000000002 0.0074410000000000006 0.050523000000000005 1062.5000000000002 1074.5000000000002 0.04565650000000001 2.5000000000000004 13.500000000000002 584.00000000000011 0.78926050000000014 3.5000000000000004 32.500000000000007 5.5000000000000009 0.99999150000000003 18.500000000000004 18.500000000000004 1.5000000000000002 0.0072664999999999509 0.0069374999999999012 0.21856050000000002 0.0018750000000000001 1053.5000000000002 0.82601300000000011 0.0011555000000000001
decision_type=2 2 2 2 2 2 2 2 2 2 2 2 2 2 2 2 2 2 2 2 2 2 2 2 2 2 2 2 2 2
left_child=1 -1 3 15 -5 6 7 -4 11 26 -11 12 -9 14 -7 22 -17 -3 -18 21 -21 -15 -2 -12 25 -19 -8 -28 29 -23
right_child=2 17 5 4 -6 13 9 8 -10 10 23 -13 -14 19 -16 16 18 24 -20 20 -22 28 -24 -25 -26 -27 27 -29 -30 -31
leaf_value=609311.58879688685 -0.10000721392072745 -420.11993484164691 -928814.45014686661 1608347.7057183043 -0.10000649160559083 -12840.337554867885 -0.10000721393248045 -22186.950210528925 -247868.81712240429 -120725.47139381651 -0.10000107327181047 -0.10000721393129214 -0.10000721392911383 -0.10000236028845347 -0.10000649141428951 -22233.543718473193 -385.33294209519255 -0.10000721380599172 -0.10000649160403681 -684.95855867567707 -0.10000649160555573 -0.10000649160500259 -0.10000649160476741 -0.10000721392401445 -0.10000256690195453 -0.10000649064942531 -0.10000719994327643 -0.10000587523788268 -0.10000649160527109 -0.10000649160576153
leaf_weight=0.0011151142525706028 0.88859788047560817 0.0014285036466383507 0.0011538366088313925 0.0010383974728157544 0.13615139089233708 0.0011682026865525988 0.093821285867306869 0.0010096070327563203 0.0011538366088643661 0.00103789285185485 0.0010162278306324888 0.042115023519727401 0.021634436416206881 0.15175125505993836 0.031410493345280344 0.001817082433262728 0.0015574992285110048 0.001730784424580631 0.76726324119816303 0.0011681244213831423 0.0027905194510822184 2.4888839849418343 1.6618518877968278 0.010961455525830388 0.0010879629922861947 0.013240021103992947 0.0033229244672270388 0.0010645533235447147 1.1785727032226598 0.14854650933622915
leaf_count=14677 12376 2144 20252 1082 2098 614 1301 3900 5849 2759 3866 1207 312 6568 1236 5688 32 48 11951 320 123 38488 25993 186 694 7260 158 400 18225 2301
internal_value=102.617 36492.6 14.022 470.974 12173.6 -363.799 -8443.6 -20578.1 -4679 -1126.65 -9627.03 -345.998 -989.323 -4.04577 -460.524 -12.4454 -53.3027 -34.4107 -0.880422 -0.301431 -202.189 -0.100006 -0.100007 -0.100007 -0.100006 -0.100007 -0.100007 -0.100007 -0.100006 -0.100006
internal_weight=7.65946 0.0186024 7.64086 3.45828 0.13719 4.18258 0.178291 0.0670667 0.0659129 0.111224 0.0130156 0.0647591 0.022644 4.00429 0.0325787 3.32109 0.770638 0.0174873 0.768821 3.97171 0.00395864 3.96775 2.55045 0.0119777 0.0160588 0.0149708 0.0982088 0.00438748 3.816 2.63743
internal_count=192108 24823 167285 59220 3180 108065 40190 31520 11268 8670 6811 5419 4212 67875 1850 56040 17671 10146 11983 66025 443 65582 38369 4052 8002 7308 1859 558 59014 40789
is_linear=0
shrinkage=0.1


Tree=13
num_leaves=31
num_cat=0
split_feature=5 10 5 10 12 10 13 12 1 9 5 12 0 6 1 15 10 6 1 1 0 10 0 1 10 10 10 10 10 14
split_gain=5.95898e+09 6.02975e+10 2.06161e+10 4.01554e+10 4.49478e+08 4.32728e+10 8.89497e+07 8.35571e+08 1.01664e+10 2.09004e+09 2.319e+09 7.49619e+07 3.33832e+08 7.42384e+07 1.78742e+09 490486 249210 893340 2.99641e+06 524603 4755.68 1781.15 3117.2 29155.1 927.889 1246.26 2316.04 939.066 1894.6 66.6307
threshold=0.35039800000000004 33.500000000000007 0.35147050000000007 34.500000000000007 18.500000000000004 18.500000000000004 1.0000000180025095e-35 1055.5000000000002 1011.5000000000001 0.0076335000000000005 0.96978850000000005 1096.5000000000002 0.00094150000000000017 0.99487200000000009 614.00000000000011 1.0000000180025095e-35 15.500000000000002 0.7927995000000001 1127.0000000000002 841.50000000000011 0.095992500000000022 17.500000000000004 0.00093350000000000019 1089.5000000000002 32.500000000000007 34.500000000000007 36.500000000000007 39.500000000000007 41.500000000000007 1.0000000180025095e-35
decision_type=2 2 2 2 2 2 2 2 2 2 2 2 2 2 2 2 2 2 2 2 2 2 2 2 2 2 2 2 2 2
left_child=1 -1 3 -2 5 -4 7 8 9 10 -6 12 15 -11 -15 29 17 18 -8 -19 -7 22 23 -18 -22 -26 -27 -28 -29 -9
right_child=2 -3 4 -5 6 20 16 11 -10 13 -12 -13 -14 14 -16 -17 21 19 -20 -21 24 -23 -24 -25 25 26 27 28 -30 -31
leaf_value=-809732.18050615792 738060.5223060525 -0.10000566298172074 564811.01054236735 -0.10000587319946921 -0.10000652301383282 -0.10000214119352935 -6242.9343412312528 -15804.913288359297 -321922.21213929961 -589.93082099904098 -198715.08819347504 -0.1000065167448918 -0.10000650608174809 -135243.78412776088 -0.10000652301391133 -14175.79151457322 -567.76100572454152 -2270.3868800368018 -0.10000587301716234 -0.10000587305287177 -141.65045811348224 -0.10000587325442606 -0.10000587325441823 -0.10000587325441013 -0.10000214119349629 -153.25295450470335 -0.10000214119349582 -179.76019625983358 -0.10000214119344962 -15818.23943783808
leaf_weight=0.0010104576806359714 0.0011156971711312183 0.01023182463630283 0.0013701078714455353 0.0021726785762409551 0.0011745465308194971 0.12369505127207958 0.0010572121003774573 0.0075040430965600535 0.0010440413607284418 0.037976991792675108 0.001174546530834486 0.81775584632013931 0.068891269861865112 0.0010440413607284418 0.015269104900653474 0.0020880815573036662 0.0010569688602116703 0.0010571351256571928 0.0028186975498514233 0.027364688472905963 0.0014129237424640459 5.7525530217026244 0.012801067307009362 0.006283092669036705 0.0029542950978793678 0.0026117681300092954 0.002911479226895608 0.0011132126455777325 0.0012416602585290093 0.0075040430965600535
leaf_count=17601 476 6595 3952 151 2608 5778 557 3745 8078 4901 9834 15496 3241 2251 234 1490 24 574 146 1250 98 98265 218 107 188 174 178 70 82 3746
internal_value=-33.5326 -72778.9 84.8722 250413 -34.3638 5629.86 -149.307 -1040.22 -12709.2 -7009.38 -99357.6 -295.427 -3104.04 -3013.54 -8655.7 -15611.8 -1.75375 -278.757 -1702.93 -84.5422 -5.98493 -0.203943 -29.8898 -81.8432 -65.431 -55.4893 -76.2603 -38.077 -85.0303 -15811.6
internal_weight=6.91826 0.0112423 6.90702 0.00328838 6.90373 0.13731 6.76642 0.961427 0.0576833 0.0566392 0.00234909 0.903743 0.0859874 0.0542901 0.0163131 0.0170962 5.80499 0.0322977 0.00387591 0.0284218 0.13594 5.77269 0.0201411 0.00734006 0.0122453 0.0108324 0.00787812 0.00526635 0.00235487 0.0150081
internal_count=192108 24196 167912 627 167285 10520 156765 55624 27906 19828 12442 27718 12222 7386 2485 8981 101141 2527 703 1824 6568 98614 349 131 790 692 504 330 152 7491
is_linear=0
shrinkage=0.1


Tree=14
num_leaves=31
num_cat=0
split_feature=5 5 10 10 12 12 0 11 9 6 12 0 5 0 5 10 10 1 6 12 10 5 0 0 12 0 9 12 13 0
split_gain=6.4808e+09 5.82444e+10 5.27048e+08 2.09859e+08 2.8602e+10 1.22962e+09 3.66106e+09 9.47304e+09 1.4231e+08 9.71633e+08 1.18544e+08 7.38012e+09 3.12711e+06 2.64794e+06 2.446e+06 3.92101e+06 241901 3.43892e+06 28000.3 14815.9 4181.11 3576.61 2511.42 24268.9 1.31375e-10 3.89022e-13 1.36164e-12 3.79053e-13 1.62623e-13 1.42636e-13
threshold=0.34514950000000005 0.34065350000000005 34.500000000000007 15.500000000000002 765.50000000000011 1055.5000000000002 0.001018 2.5000000000000004 0.0074410000000000006 0.82437850000000013 1096.5000000000002 0.00094050000000000004 0.35247050000000008 0.00089050000000000012 0.35147050000000007 35.500000000000007 18.500000000000004 18.500000000000004 0.99999150000000003 1083.5000000000002 36.500000000000007 0.54481900000000005 0.00093350000000000019 0.00091650000000000011 18.500000000000004 0.00096650000000000002 0.0074410000000000006 1036.5000000000002 1.5000000000000002 0.0018750000000000001
decision_type=2 2 2 2 2 2 2 2 2 2 2 2 2 2 2 2 2 2 2 2 2 2 2 2 2 2 2 2 2 2
left_child=1 2 -1 4 -2 6 7 -6 9 -8 11 -7 13 -12 15 -5 17 -16 24 29 -20 -10 23 -19 -18 -14 -27 -4 -28 -13
right_child=3 -3 27 14 5 10 8 -9 21 -11 12 19 25 -15 16 -17 18 22 20 -21 -22 -23 -24 -25 -26 26 28 -29 -30 -31
leaf_value=-61898.377110566747 -520145.43977940851 778964.96322702698 -0.10000340973109859 -6925.7804433181418 -310946.14580789785 -253467.78932758979 -0.10000531292263425 -0.10000531255879389 -192.56727937030394 -105108.05113680958 -0.1000059088974012 -0.10000589583377689 -0.10000590682804988 -5081.1176714994072 -4974.1612654528044 -0.10000531291479775 -0.10000194380994168 -0.10000531323868829 -470.61931370451413 -376.51545202616728 -198.21339832003321 -0.10000587517275833 -0.10000531323869473 -470.61931370447286 -0.10000531323875493 -0.10000198897102766 -0.10000590039994524 -0.10000548614597249 -0.10000531323868872 -0.10000519090455096
leaf_weight=0.0019322024068036403 0.0010627798765633347 0.0010627590215683399 0.0011618456688275713 0.0013283893304559388 0.001487717905547469 0.0011689852887837296 0.0051010479893633933 0.0028695296363867584 0.0010391376999905342 0.0010627169381329793 0.0018893852829933158 0.062408703519860609 0.7259488668592784 0.0022436450235545635 0.0014877179055464698 0.0021254407313822526 0.11835521101602342 0.0078105190041242167 0.0012751867761834337 0.0010626556468196205 0.0010095228644786403 0.013627127998192989 0.015727303572930396 0.0012751867761835456 5.1938357393955812 0.0010681873716293913 0.011340845960830848 0.0036134791372611913 0.0080761829158291221 0.0030088231286029546
leaf_count=13577 11600 2746 1692 1108 9536 9783 6466 366 182 5025 598 2391 12697 564 102 909 6474 147 136 752 301 704 296 48 97752 2808 312 2156 234 646
internal_value=-120.354 91148.7 -17830.8 -234.948 -1699.87 -1046.57 -22809.2 -106168 -5372.15 -18122.1 -376.651 -4385.96 -15.2885 -2758.37 -3.46812 -2663.81 -1.74771 -304.274 -0.250537 -6.11684 -350.254 -13.7367 -24.2809 -66.1378 -0.100005 -0.100006 -0.100005 -0.100005 -0.100006 -0.100006
internal_weight=6.19647 0.00777029 0.00670753 6.1887 0.844466 0.843404 0.0251873 0.00435725 0.02083 0.00616376 0.818216 0.0676492 0.750567 0.00413303 5.34423 0.00345383 5.34078 0.0263007 5.31448 0.0664802 0.00228471 0.0146663 0.024813 0.00908571 5.31219 0.746434 0.0204852 0.00477532 0.019417 0.0654175
internal_count=192108 20171 17425 171937 64664 53064 22279 9902 12377 11491 30785 13572 17213 1162 107273 2017 105256 593 104663 3789 437 886 491 195 104226 16051 3354 3848 546 3037
is_linear=0
shrinkage=0.1


Tree=15
num_leaves=31
num_cat=0
split_feature=13 12 12 1 12 0 15 5 5 9 1 1 5 12 5 5 10 1 5 0 6 5 10 0 6 1 0 1 9 12
split_gain=6.90142e+09 1.00842e+12 8.42213e+10 7.00294e+11 4.20427e+09 2.52507e+10 1.08296e+10 1.28054e+10 1.19034e+09 6.1748e+08 5.827e+08 1.29081e+09 5.37768e+08 1.94892e+08 1.28828e+08 4.8043e+08 6.09419e+06 6.93008e+07 3.93267e+06 1.86718e+06 2.12333e+06 459808 298907 4.87861e+06 19855.4 31331.4 3315.27 28942.6 9.74776e-11 2.79193e-13
threshold=1.0000000180025095e-35 834.50000000000011 1051.5000000000002 996.50000000000011 1068.5000000000002 0.00094250000000000009 1.0000000180025095e-35 0.96978850000000005 0.35247050000000008 0.0078575000000000016 1095.5000000000002 1070.5000000000002 0.96978850000000005 1056.5000000000002 0.35127950000000002 0.33748200000000006 15.500000000000002 913.50000000000011 0.36703650000000004 0.00094050000000000004 0.78398100000000015 0.35147050000000007 18.500000000000004 0.040115000000000005 0.99998750000000014 21.500000000000004 0.00093350000000000019 1098.5000000000002 0.23915600000000004 1036.5000000000002
decision_type=2 2 2 2 2 2 2 2 2 2 2 2 2 2 2 2 2 2 2 2 2 2 2 2 2 2 2 2 2 2
left_child=1 -1 3 9 5 6 7 -4 -6 12 11 -10 -3 -7 15 29 17 -16 -15 20 -19 -18 23 26 28 -26 27 -23 -24 -2
right_child=14 2 4 -5 8 13 -8 -9 10 -11 -12 -13 -14 18 16 -17 21 19 -20 -21 -22 22 24 -25 25 -27 -28 -29 -30 -31
leaf_value=3080219.7492940114 -0.10000308122901068 -13442.930070714574 -12768.364631595481 2476926.0330021754 -83762.5956394893 -32320.088246699041 -0.10000534547567125 318987.68781735282 -0.10000533889145982 -0.10000534547278594 -0.10000533350735152 -132522.48244753003 -111464.98398407071 -5214.3651406727058 -26659.912146440238 -75908.429266311388 -1920.1050768795621 -0.10000480478550576 -0.10000533253524824 -0.10000480640892784 -6066.6452048413921 -567.3746632032379 -0.10000480505876495 -6996.4874583820801 -640.10218351079891 -0.10000480505871515 -0.10000480505875829 -0.10000480505874923 -0.10000175387798947 -0.10000498477863934
leaf_weight=0.0010684979497471705 0.0010512796249516621 0.0011753477447200575 0.0014958963147364557 0.0012821975396946081 0.0017095956718549124 0.0019678224981021222 0.0024575439456384629 0.0052356371015775949 0.0023547859473040935 0.0071589362632948905 0.66236637248158559 0.0010684987501008436 0.0010684979497455052 0.0014958963147364548 0.0010577718946463968 0.0010578549255548233 0.00124999669787662 0.0011539070690895761 0.043751235895854279 0.01682743723093183 0.0011538692565831177 0.001057688707080894 4.6963782432248991 0.0010576887070783405 0.001249995744728837 0.0019711471359187271 0.013173032079066616 0.0060095949265814852 0.1070924134182859 0.0028849683822854133
leaf_count=14082 3018 4175 757 10879 6714 1912 374 1319 1070 219 15102 8116 7135 446 1026 3905 53 86 1303 990 699 70 97685 124 431 73 274 125 6474 3472
internal_value=1341.62 10367.5 5902.27 284606 1788.54 28005.1 179670 245264 -426.767 -14346.9 -212.78 -41363.9 -60120.1 -1512.33 -26.1999 -16079.1 -9.66813 -1743.28 -172.487 -365.918 -3033.32 -2.41921 -1.92271 -375.722 -0.266439 -248.459 -29.7438 -84.9983 -0.100005 -0.100004
internal_weight=5.59008 0.735657 0.734588 0.010685 0.723903 0.056404 0.00918908 0.00673153 0.667499 0.00940278 0.66579 0.00342328 0.00224385 0.047215 4.85443 0.0049941 4.84943 0.020193 0.0452471 0.0191352 0.00230778 4.82924 4.82799 0.021298 4.80669 0.00322114 0.0202403 0.00706728 4.80347 0.00393625
internal_count=192108 73603 59521 22408 37113 6111 2450 2076 31002 11529 24288 9186 11310 3661 118505 10395 108110 2801 1749 1775 785 105309 105256 593 104663 504 469 195 104159 6490
is_linear=0
shrinkage=0.1


end of trees

feature_importances:
vaf=97
sbp=78
nref=77
alt_depth=67
ref_len=50
conf=30
ci_width=27
variant_class=18
dataset_type=14
alt_len=10
mode=8
nalt=4

parameters:
[boosting: gbdt]
[objective: binary]
[metric: average_precision]
[tree_learner: serial]
[device_type: cpu]
[data_sample_strategy: bagging]
[data: ]
[valid: ]
[num_iterations: 200]
[learning_rate: 0.1]
[num_leaves: 31]
[num_threads: -1]
[seed: 42]
[deterministic: 0]
[force_col_wise: 0]
[force_row_wise: 0]
[histogram_pool_size: -1]
[max_depth: -1]
[min_data_in_leaf: 20]
[min_sum_hessian_in_leaf: 0.001]
[bagging_fraction: 1]
[pos_bagging_fraction: 1]
[neg_bagging_fraction: 1]
[bagging_freq: 0]
[bagging_seed: 400]
[bagging_by_query: 0]
[feature_fraction: 1]
[feature_fraction_bynode: 1]
[feature_fraction_seed: 30056]
[extra_trees: 0]
[extra_seed: 12879]
[early_stopping_round: 0]
[early_stopping_min_delta: 0]
[first_metric_only: 0]
[max_delta_step: 0]
[lambda_l1: 0]
[lambda_l2: 0]
[linear_lambda: 0]
[min_gain_to_split: 0]
[drop_rate: 0.1]
[max_drop: 50]
[skip_drop: 0.5]
[xgboost_dart_mode: 0]
[uniform_drop: 0]
[drop_seed: 17869]
[top_rate: 0.2]
[other_rate: 0.1]
[min_data_per_group: 100]
[max_cat_threshold: 32]
[cat_l2: 10]
[cat_smooth: 10]
[max_cat_to_onehot: 4]
[top_k: 20]
[monotone_constraints: ]
[monotone_constraints_method: basic]
[monotone_penalty: 0]
[feature_contri: ]
[forcedsplits_filename: ]
[refit_decay_rate: 0.9]
[cegb_tradeoff: 1]
[cegb_penalty_split: 0]
[cegb_penalty_feature_lazy: ]
[cegb_penalty_feature_coupled: ]
[path_smooth: 0]
[interaction_constraints: ]
[verbosity: -1]
[saved_feature_importance_type: 0]
[use_quantized_grad: 0]
[num_grad_quant_bins: 4]
[quant_train_renew_leaf: 0]
[stochastic_rounding: 1]
[linear_tree: 0]
[max_bin: 255]
[max_bin_by_feature: ]
[min_data_in_bin: 3]
[bin_construct_sample_cnt: 200000]
[data_random_seed: 175]
[is_enable_sparse: 1]
[enable_bundle: 1]
[use_missing: 1]
[zero_as_missing: 0]
[feature_pre_filter: 1]
[pre_partition: 0]
[two_round: 0]
[header: 0]
[label_column: ]
[weight_column: ]
[group_column: ]
[ignore_column: ]
[categorical_feature: ]
[forcedbins_filename: ]
[precise_float_parser: 0]
[parser_config_file: ]
[objective_seed: 16083]
[num_class: 1]
[is_unbalance: 1]
[scale_pos_weight: 1]
[sigmoid: 1]
[boost_from_average: 1]
[reg_sqrt: 0]
[alpha: 0.9]
[fair_c: 1]
[poisson_max_delta_step: 0.7]
[tweedie_variance_power: 1.5]
[lambdarank_truncation_level: 30]
[lambdarank_norm: 1]
[label_gain: ]
[lambdarank_position_bias_regularization: 0]
[eval_at: ]
[multi_error_top_k: 1]
[auc_mu_weights: ]
[num_machines: 1]
[local_listen_port: 12400]
[time_out: 120]
[machine_list_filename: ]
[machines: ]
[gpu_platform_id: -1]
[gpu_device_id: -1]
[gpu_use_dp: 0]
[num_gpu: 1]

end of parameters

pandas_categorical:null
