{"learner":{"attributes":{"scikit_learn":"{\"_estimator_type\": \"classifier\"}"},"feature_names":[],"feature_types":[],"gradient_booster":{"model":{"cats":{"enc":[],"feature_segments":[],"sorted_idx":[]},"gbtree_model_param":{"num_parallel_tree":"1","num_trees":"500"},"iteration_indptr":[0,1,2,3,4,5,6,7,8,9,10,11,12,13,14,15,16,17,18,19,20,21,22,23,24,25,26,27,28,29,30,31,32,33,34,35,36,37,38,39,40,41,42,43,44,45,46,47,48,49,50,51,52,53,54,55,56,57,58,59,60,61,62,63,64,65,66,67,68,69,70,71,72,73,74,75,76,77,78,79,80,81,82,83,84,85,86,87,88,89,90,91,92,93,94,95,96,97,98,99,100,101,102,103,104,105,106,107,108,109,110,111,112,113,114,115,116,117,118,119,120,121,122,123,124,125,126,127,128,129,130,131,132,133,134,135,136,137,138,139,140,141,142,143,144,145,146,147,148,149,150,151,152,153,154,155,156,157,158,159,160,161,162,163,164,165,166,167,168,169,170,171,172,173,174,175,176,177,178,179,180,181,182,183,184,185,186,187,188,189,190,191,192,193,194,195,196,197,198,199,200,201,202,203,204,205,206,207,208,209,210,211,212,213,214,215,216,217,218,219,220,221,222,223,224,225,226,227,228,229,230,231,232,233,234,235,236,237,238,239,240,241,242,243,244,245,246,247,248,249,250,251,252,253,254,255,256,257,258,259,260,261,262,263,264,265,266,267,268,269,270,271,272,273,274,275,276,277,278,279,280,281,282,283,284,285,286,287,288,289,290,291,292,293,294,295,296,297,298,299,300,301,302,303,304,305,306,307,308,309,310,311,312,313,314,315,316,317,318,319,320,321,322,323,324,325,326,327,328,329,330,331,332,333,334,335,336,337,338,339,340,341,342,343,344,345,346,347,348,349,350,351,352,353,354,355,356,357,358,359,360,361,362,363,364,365,366,367,368,369,370,371,372,373,374,375,376,377,378,379,380,381,382,383,384,385,386,387,388,389,390,391,392,393,394,395,396,397,398,399,400,401,402,403,404,405,406,407,408,409,410,411,412,413,414,415,416,417,418,419,420,421,422,423,424,425,426,427,428,429,430,431,432,433,434,435,436,437,438,439,440,441,442,443,444,445,446,447,448,449,450,451,452,453,454,455,456,457,458,459,460,461,462,463,464,465,466,467,468,469,470,471,472,473,474,475,476,477,478,479,480,481,482,483,484,485,486,487,488,489,490,491,492,493,494,495,496,497,498,499,500],"tree_info":[0,0,0,0,0,0,0,0,0,0,0,0,0,0,0,0,0,0,0,0,0,0,0,0,0,0,0,0,0,0,0,0,0,0,0,0,0,0,0,0,0,0,0,0,0,0,0,0,0,0,0,0,0,0,0,0,0,0,0,0,0,0,0,0,0,0,0,0,0,0,0,0,0,0,0,0,0,0,0,0,0,0,0,0,0,0,0,0,0,0,0,0,0,0,0,0,0,0,0,0,0,0,0,0,0,0,0,0,0,0,0,0,0,0,0,0,0,0,0,0,0,0,0,0,0,0,0,0,0,0,0,0,0,0,0,0,0,0,0,0,0,0,0,0,0,0,0,0,0,0,0,0,0,0,0,0,0,0,0,0,0,0,0,0,0,0,0,0,0,0,0,0,0,0,0,0,0,0,0,0,0,0,0,0,0,0,0,0,0,0,0,0,0,0,0,0,0,0,0,0,0,0,0,0,0,0,0,0,0,0,0,0,0,0,0,0,0,0,0,0,0,0,0,0,0,0,0,0,0,0,0,0,0,0,0,0,0,0,0,0,0,0,0,0,0,0,0,0,0,0,0,0,0,0,0,0,0,0,0,0,0,0,0,0,0,0,0,0,0,0,0,0,0,0,0,0,0,0,0,0,0,0,0,0,0,0,0,0,0,0,0,0,0,0,0,0,0,0,0,0,0,0,0,0,0,0,0,0,0,0,0,0,0,0,0,0,0,0,0,0,0,0,0,0,0,0,0,0,0,0,0,0,0,0,0,0,0,0,0,0,0,0,0,0,0,0,0,0,0,0,0,0,0,0,0,0,0,0,0,0,0,0,0,0,0,0,0,0,0,0,0,0,0,0,0,0,0,0,0,0,0,0,0,0,0,0,0,0,0,0,0,0,0,0,0,0,0,0,0,0,0,0,0,0,0,0,0,0,0,0,0,0,0,0,0,0,0,0,0,0,0,0,0,0,0,0,0,0,0,0,0,0,0,0,0,0,0,0,0,0,0,0,0,0,0,0,0,0,0,0,0,0,0,0,0,0,0,0,0,0,0,0,0,0,0,0,0,0,0,0,0,0,0,0,0,0,0,0,0,0,0,0,0,0,0,0,0,0,0,0,0,0,0,0,0,0,0,0,0,0],"trees":[{"base_weights":[1.04703595E-7,1.9317102E0,-1.8815523E0,2.8621736E-1,1.9687566E0,-1.8979871E0,3.98734E-1,9.8015106E-1,-1.0023739E-1,1.980141E0,-1.2678468E0,-1.13744E0,-1.929577E0,1.9420807E0,-1.0015023E-1,1.3508809E0,-1.0004329E-1,1.9837177E0,-9.969761E-2,1.0450649E0,-1.0012942E-1,4.4265974E-1,-1.00327395E-1,-1.9503762E0,-1.4635822E0,1.9802016E0,-8.854332E-2,-9.983593E-2,1.6185155E0,1.9841038E0,-9.461493E-2,-9.6413925E-2,1.6627139E0,-9.998299E-2,7.391717E-1,-1.9955926E0,-1.8392049E0,-1.0032828E-1,-4.4009686E-1,9.9395715E-2,-6.0209252E-2,-9.7637065E-2,8.364006E-2,9.949755E-2,8.7381236E-2,-8.4910735E-2,9.1868214E-2,4.762877E-2,-2.9394258E-2,-9.136253E-2,-9.996099E-2,-7.956848E-2,-1.00345686E-1,2.5497565E-2,-8.0796234E-2],"categories":[],"categories_nodes":[],"categories_segments":[],"categories_sizes":[],"default_left":[0,0,0,0,0,0,0,0,0,0,0,0,0,0,0,0,0,0,0,0,0,0,0,0,0,0,0,0,0,0,0,0,0,0,0,0,0,0,1,0,0,0,0,0,0,0,0,0,0,0,0,0,0,0,0],"id":0,"left_children":[1,3,5,7,9,11,13,15,-1,17,19,21,23,25,-1,27,-1,29,-1,31,-1,33,-1,35,37,39,-1,-1,41,43,-1,-1,45,-1,47,49,51,-1,53,-1,-1,-1,-1,-1,-1,-1,-1,-1,-1,-1,-1,-1,-1,-1,-1],"loss_changes":[1.2902886E6,1.06775E4,6.74025E3,6.1353096E3,6.31475E3,4.2875E3,4.7769683E3,3.2758857E3,0E0,2.430375E3,1.02352435E3,9.782486E3,1.6586875E3,1.1453711E2,0E0,2.363796E3,0E0,2.590625E2,0E0,2.705291E2,0E0,1.8324646E3,0E0,8.2125E2,4.0718193E3,2.1475586E1,0E0,0E0,4.76354E2,2.3225E2,0E0,0E0,7.4182556E1,0E0,6.392788E2,6.75625E1,1.9694062E3,0E0,2.8399688E3,0E0,0E0,0E0,0E0,0E0,0E0,0E0,0E0,0E0,0E0,0E0,0E0,0E0,0E0,0E0,0E0],"parents":[2147483647,0,0,1,1,2,2,3,3,4,4,5,5,6,6,7,7,9,9,10,10,11,11,12,12,13,13,15,15,17,17,19,19,21,21,23,23,24,24,25,25,28,28,29,29,32,32,34,34,35,35,36,36,38,38],"right_children":[2,4,6,8,10,12,14,16,-1,18,20,22,24,26,-1,28,-1,30,-1,32,-1,34,-1,36,38,40,-1,-1,42,44,-1,-1,46,-1,48,50,52,-1,54,-1,-1,-1,-1,-1,-1,-1,-1,-1,-1,-1,-1,-1,-1,-1,-1],"split_conditions":[2.5540745E0,9.99825E-1,1E0,6.02E2,1E0,2E3,6E0,8.388E-3,-1.0023739E-1,5E0,3E0,2E0,9.95811E-1,4.003267E0,-1.0015023E-1,6.21E-3,-1.0004329E-1,1.111E3,-9.969761E-2,1.2E1,-1.0012942E-1,3.85207E-1,-1.00327395E-1,1E0,1.48E2,8E3,-8.854332E-2,-9.983593E-2,1E0,1.9838103E0,-9.461493E-2,-9.6413925E-2,1.48E2,-9.998299E-2,8.54E2,-4.7259658E-7,2E0,-1.0032828E-1,5E3,9.9395715E-2,-6.0209252E-2,-9.7637065E-2,8.364006E-2,9.949755E-2,8.7381236E-2,-8.4910735E-2,9.1868214E-2,4.762877E-2,-2.9394258E-2,-9.136253E-2,-9.996099E-2,-7.956848E-2,-1.00345686E-1,2.5497565E-2,-8.0796234E-2],"split_indices":[18,5,24,31,34,35,24,16,0,6,2,6,5,18,0,16,0,31,0,1,0,4,0,34,31,35,0,0,26,18,0,0,31,0,31,14,6,0,35,0,0,0,0,0,0,0,0,0,0,0,0,0,0,0,0],"split_type":[0,0,0,0,0,0,0,0,0,0,0,0,0,0,0,0,0,0,0,0,0,0,0,0,0,0,0,0,0,0,0,0,0,0,0,0,0,0,0,0,0,0,0,0,0,0,0,0,0,0,0,0,0,0,0],"sum_hessian":[3.5499822E5,1.7516436E5,1.7983384E5,3.8569883E3,1.7130738E5,1.7854717E5,1.2866842E3,2.9607493E3,8.9623914E2,1.7070731E5,6.00057E2,7.1218135E3,1.7142536E5,7.8344025E2,5.032439E2,2.6337532E3,3.2699603E2,1.7055431E5,1.5299815E2,1.445625E2,4.5549448E2,2.527369E3,4.5944443E3,1.6409786E5,7.3274897E3,7.7594037E2,7.4999094E0,1.9449765E2,2.4392554E3,1.7053781E5,1.64998E1,2.4499704E1,1.200628E2,2.729967E2,2.2543723E3,1.1664003E5,4.7457832E4,4.786942E3,2.5405476E3,7.7444037E2,1.4999819E0,3.5999565E1,2.4032559E3,1.6641562E5,4.1221987E3,5.4999332E0,1.1456287E2,1.9423118E3,3.120605E2,2.4707844E3,1.1416925E5,1.9157674E4,2.8300158E4,1.405497E3,1.1350505E3],"tree_param":{"num_deleted":"0","num_feature":"39","num_nodes":"55","size_leaf_vector":"1"}},{"base_weights":[1.3408621E-5,1.8403388E0,-1.7911574E0,2.7240488E-1,1.8756646E0,-1.8067951E0,3.796802E-1,9.330268E-1,-9.544035E-2,1.8865157E0,-1.2074522E0,-1.0824572E0,-1.8368914E0,1.8501762E0,-9.536113E-2,1.2859725E0,-9.526395E-2,1.889925E0,-9.494974E-2,9.945358E-1,-9.534222E-2,4.2083755E-1,-9.552211E-2,-1.8567203E0,-1.3927994E0,1.8867869E0,-8.547846E-2,-9.507548E-2,1.540781E0,1.8902935E0,-9.031945E-2,-9.207506E-2,1.5840095E0,-9.5209144E-2,7.0268667E-1,-1.8999443E0,-1.7504826E0,-9.5522925E-2,-4.184372E-1,-6.424557E-2,9.483234E-2,-9.307492E-2,7.9624996E-2,9.47946E-2,8.3200485E-2,9.104699E-2,-8.833669E-2,-1.2809043E-2,4.8609544E-2,-8.695227E-2,-9.5170625E-2,-7.5690575E-2,-9.553874E-2,3.4980927E-2,-6.6969685E-2],"categories":[],"categories_nodes":[],"categories_segments":[],"categories_sizes":[],"default_left":[0,0,0,0,0,0,0,0,0,0,0,0,0,0,0,0,0,0,0,0,0,0,0,0,0,0,0,0,0,0,0,0,0,0,0,0,0,0,0,0,0,0,0,0,0,0,0,0,0,0,0,0,0,0,0],"id":1,"left_children":[1,3,5,7,9,11,13,15,-1,17,19,21,23,25,-1,27,-1,29,-1,31,-1,33,-1,35,37,39,-1,-1,41,43,-1,-1,45,-1,47,49,51,-1,53,-1,-1,-1,-1,-1,-1,-1,-1,-1,-1,-1,-1,-1,-1,-1,-1],"loss_changes":[1.1673962E6,9.674625E3,6.0931875E3,5.5494097E3,5.7174375E3,3.8825625E3,4.322844E3,2.963335E3,0E0,2.2005E3,9.255288E2,8.851688E3,1.503875E3,1.0517236E2,0E0,2.138495E3,0E0,2.351875E2,0E0,2.457041E2,0E0,1.6568506E3,0E0,7.486875E2,3.689421E3,2.6665283E1,0E0,0E0,4.3148242E2,2.123125E2,0E0,0E0,9.9098694E1,0E0,5.827029E2,6.1625E1,1.7942656E3,0E0,2.6159788E3,0E0,0E0,0E0,0E0,0E0,0E0,0E0,0E0,0E0,0E0,0E0,0E0,0E0,0E0,0E0,0E0],"parents":[2147483647,0,0,1,1,2,2,3,3,4,4,5,5,6,6,7,7,9,9,10,10,11,11,12,12,13,13,15,15,17,17,19,19,21,21,23,23,24,24,25,25,28,28,29,29,32,32,34,34,35,35,36,36,38,38],"right_children":[2,4,6,8,10,12,14,16,-1,18,20,22,24,26,-1,28,-1,30,-1,32,-1,34,-1,36,38,40,-1,-1,42,44,-1,-1,46,-1,48,50,52,-1,54,-1,-1,-1,-1,-1,-1,-1,-1,-1,-1,-1,-1,-1,-1,-1,-1],"split_conditions":[2.5540745E0,9.99825E-1,1E0,6.02E2,1E0,2E3,6E0,8.388E-3,-9.544035E-2,5E0,3E0,2E0,9.95811E-1,2E2,-9.536113E-2,6.21E-3,-9.526395E-2,1.111E3,-9.494974E-2,1.5E2,-9.534222E-2,3.85207E-1,-9.552211E-2,1E0,1.48E2,9.63706E-1,-8.547846E-2,-9.507548E-2,1E0,1.9838103E0,-9.031945E-2,-9.207506E-2,1.54E2,-9.5209144E-2,1.0510705E0,-4.7259658E-7,2E0,-9.5522925E-2,1.54E2,-6.424557E-2,9.483234E-2,-9.307492E-2,7.9624996E-2,9.47946E-2,8.3200485E-2,9.104699E-2,-8.833669E-2,-1.2809043E-2,4.8609544E-2,-8.695227E-2,-9.5170625E-2,-7.5690575E-2,-9.553874E-2,3.4980927E-2,-6.6969685E-2],"split_indices":[18,5,24,31,34,35,24,16,0,6,2,6,5,38,0,16,0,31,0,31,0,4,0,34,31,5,0,0,26,18,0,0,31,0,17,14,6,0,31,0,0,0,0,0,0,0,0,0,0,0,0,0,0,0,0],"split_type":[0,0,0,0,0,0,0,0,0,0,0,0,0,0,0,0,0,0,0,0,0,0,0,0,0,0,0,0,0,0,0,0,0,0,0,0,0,0,0,0,0,0,0,0,0,0,0,0,0,0,0,0,0,0,0],"sum_hessian":[3.541475E5,1.7467694E5,1.7947058E5,3.8489631E3,1.7082797E5,1.7818717E5,1.2834093E3,2.9546597E3,8.943033E2,1.7022923E5,5.987406E2,7.109826E3,1.7107734E5,7.812503E2,5.02159E2,2.628367E3,3.262927E2,1.7007656E5,1.5267151E2,1.4422766E2,4.545129E2,2.5253242E3,4.584502E3,1.637621E5,7.315245E3,7.737624E2,7.487908E0,1.9408118E2,2.434286E3,1.700601E5,1.6468346E1,2.4453695E1,1.1977397E2,2.7241028E2,2.2529138E3,1.1639053E5,4.7371566E4,4.7765825E3,2.5386626E3,1.9971527E0,7.717652E2,3.59261E1,2.3983599E3,1.65947E5,4.11309E3,1.1229049E2,7.483476E0,4.9429916E2,1.7586147E3,2.4664192E3,1.1392412E5,1.9132678E4,2.8238889E4,1.1467411E3,1.3919214E3],"tree_param":{"num_deleted":"0","num_feature":"39","num_nodes":"55","size_leaf_vector":"1"}},{"base_weights":[2.6405236E-5,1.7612548E0,-1.7125512E0,2.60208E-1,1.7951237E0,-1.7274923E0,3.6319548E-1,8.912568E-1,-9.129826E-2,1.8055141E0,-1.155116E0,-1.0336783E0,-1.7563587E0,1.7706574E0,-9.122503E-2,1.2282786E0,-9.11352E-2,1.8087784E0,-9.084471E-2,9.501427E-1,-9.120754E-2,4.0049505E-1,-9.137386E-2,-1.7754368E0,-1.3297526E0,1.8058509E0,-8.204841E-2,-9.096097E-2,1.4715462E0,1.8144637E0,1.580045E0,-8.859815E-2,1.5162884E0,-9.108453E-2,6.684206E-1,-1.8172799E0,-1.6726913E0,-9.137459E-2,-3.9803788E-1,-6.2250026E-2,9.076944E-2,-8.911087E-2,7.60477E-2,4.399293E-2,9.076341E-2,8.224078E-2,-1.07527636E-1,-7.791346E-2,8.382126E-2,4.3598756E-2,-2.9739505E-2,-8.307681E-2,-9.103204E-2,-7.2214104E-2,-9.138922E-2,2.4771444E-2,-7.534174E-2],"categories":[],"categories_nodes":[],"categories_segments":[],"categories_sizes":[],"default_left":[0,0,0,0,0,0,0,0,0,0,0,0,0,0,0,0,0,0,0,0,0,0,0,0,0,0,0,0,0,0,0,0,0,0,0,0,0,0,1,0,0,0,0,0,0,0,0,0,0,0,0,0,0,0,0,0,0],"id":2,"left_children":[1,3,5,7,9,11,13,15,-1,17,19,21,23,25,-1,27,-1,29,-1,31,-1,33,-1,35,37,39,-1,-1,41,43,45,-1,47,-1,49,51,53,-1,55,-1,-1,-1,-1,-1,-1,-1,-1,-1,-1,-1,-1,-1,-1,-1,-1,-1,-1],"loss_changes":[1.06104E6,8.81625E3,5.532E3,5.0409487E3,5.201E3,3.5446875E3,3.9303687E3,2.690954E3,0E0,2.0016875E3,8.409399E2,8.0557905E3,1.3813125E3,9.6208984E1,0E0,1.9416587E3,0E0,2.1675E2,0E0,2.251341E2,0E0,1.502606E3,0E0,6.9653125E2,3.3759102E3,2.4641846E1,0E0,0E0,3.9218115E2,1.2225E2,9.9491797E2,0E0,6.17088E1,0E0,5.793578E2,5.75E1,1.6659844E3,0E0,2.5136772E3,0E0,0E0,0E0,0E0,0E0,0E0,0E0,0E0,0E0,0E0,0E0,0E0,0E0,0E0,0E0,0E0,0E0,0E0],"parents":[2147483647,0,0,1,1,2,2,3,3,4,4,5,5,6,6,7,7,9,9,10,10,11,11,12,12,13,13,15,15,17,17,19,19,21,21,23,23,24,24,25,25,28,28,29,29,30,30,32,32,34,34,35,35,36,36,38,38],"right_children":[2,4,6,8,10,12,14,16,-1,18,20,22,24,26,-1,28,-1,30,-1,32,-1,34,-1,36,38,40,-1,-1,42,44,46,-1,48,-1,50,52,54,-1,56,-1,-1,-1,-1,-1,-1,-1,-1,-1,-1,-1,-1,-1,-1,-1,-1,-1,-1],"split_conditions":[2.5540745E0,9.99825E-1,1E0,6.02E2,1E0,2E3,6E0,8.388E-3,-9.129826E-2,5E0,3E0,2E0,9.95811E-1,2E2,-9.122503E-2,6.21E-3,-9.11352E-2,1.9838103E0,-9.084471E-2,1.2E1,-9.120754E-2,3.85207E-1,-9.137386E-2,1E0,1.48E2,9.63706E-1,-8.204841E-2,-9.096097E-2,1E0,2.657E-3,8E3,-8.859815E-2,1.48E2,-9.108453E-2,8.54E2,-4.7259658E-7,2E0,-9.137459E-2,5E3,-6.2250026E-2,9.076944E-2,-8.911087E-2,7.60477E-2,4.399293E-2,9.076341E-2,8.224078E-2,-1.07527636E-1,-7.791346E-2,8.382126E-2,4.3598756E-2,-2.9739505E-2,-8.307681E-2,-9.103204E-2,-7.2214104E-2,-9.138922E-2,2.4771444E-2,-7.534174E-2],"split_indices":[18,5,24,31,34,35,24,16,0,6,2,6,5,38,0,16,0,18,0,1,0,4,0,34,31,5,0,0,26,0,35,0,31,0,31,14,6,0,35,0,0,0,0,0,0,0,0,0,0,0,0,0,0,0,0,0,0],"split_type":[0,0,0,0,0,0,0,0,0,0,0,0,0,0,0,0,0,0,0,0,0,0,0,0,0,0,0,0,0,0,0,0,0,0,0,0,0,0,0,0,0,0,0,0,0,0,0,0,0,0,0,0,0,0,0,0,0],"sum_hessian":[3.5177366E5,1.7342352E5,1.7835016E5,3.8268835E3,1.6959662E5,1.7707573E5,1.274418E3,2.9385662E3,8.883173E2,1.6900181E5,5.948196E2,7.0744907E3,1.7000125E5,7.756144E2,4.9880356E2,2.6144492E3,3.24117E2,1.6885016E5,1.5166046E2,1.433424E2,4.5147717E2,2.52073E3,4.5537607E3,1.6272111E5,7.2801416E3,7.681609E2,7.4534793E0,1.9279234E2,2.4216567E3,1.6474831E5,4.1018394E3,2.4312885E1,1.19029526E2,2.70596E2,2.2501338E3,1.1561867E5,4.7102426E4,4.7445527E3,2.535589E3,1.9903318E0,7.6617053E2,3.569782E1,2.385959E3,1.4262184E2,1.6460569E5,4.0323884E3,6.945117E1,5.460441E0,1.13569084E2,1.9381318E3,3.1200204E2,2.4527654E3,1.1316591E5,1.9052959E4,2.8049467E4,1.4044437E3,1.1311454E3],"tree_param":{"num_deleted":"0","num_feature":"39","num_nodes":"57","size_leaf_vector":"1"}},{"base_weights":[3.9084323E-5,1.6921878E0,-1.6435915E0,2.493404E-1,1.7248136E0,-1.6579188E0,3.488085E-1,8.5390437E-1,-8.768883E-2,1.7348026E0,-1.1093208E0,-9.9013156E-1,-1.6857604E0,1.70125E0,-8.7620124E-2,1.17655E0,-8.753581E-2,1.7379404E0,-8.7263234E-2,9.107276E-1,-8.760371E-2,3.8157165E-1,-8.775977E-2,-1.704234E0,-1.2735938E0,1.7352252E0,-7.898788E-2,-8.7372325E-2,1.40935E0,1.738296E0,-8.859028E-2,-8.512961E-2,1.4543213E0,-8.7488286E-2,6.363761E-1,-1.7451771E0,-1.6038506E0,-8.776046E-2,-3.7924555E-1,-6.0394924E-2,8.7224886E-2,-8.5636534E-2,7.283303E-2,8.7180465E-2,7.622089E-2,-7.5146355E-2,8.0434136E-2,-1.0473182E-1,3.6336318E-2,-7.9639874E-2,-8.742357E-2,-6.9071785E-2,-8.7774195E-2,3.3671625E-2,-6.2476672E-2],"categories":[],"categories_nodes":[],"categories_segments":[],"categories_sizes":[],"default_left":[0,0,0,0,0,0,0,0,0,0,0,0,0,0,0,0,0,0,0,0,0,0,0,0,0,0,0,0,0,0,0,0,0,0,0,0,0,0,0,0,0,0,0,0,0,0,0,0,0,0,0,0,0,0,0],"id":3,"left_children":[1,3,5,7,9,11,13,15,-1,17,19,21,23,25,-1,27,-1,29,-1,31,-1,33,-1,35,37,39,-1,-1,41,43,-1,-1,45,-1,47,49,51,-1,53,-1,-1,-1,-1,-1,-1,-1,-1,-1,-1,-1,-1,-1,-1,-1,-1],"loss_changes":[9.681914E5,8.0739062E3,5.0413438E3,4.595981E3,4.750375E3,3.258E3,3.5881313E3,2.4517456E3,0E0,1.82825E3,7.672688E2,7.3673516E3,1.2794062E3,8.835962E1,0E0,1.7684294E3,0E0,2.1146875E2,0E0,2.0562411E2,0E0,1.3665001E3,0E0,6.5925E2,3.1109658E3,2.2865723E1,0E0,0E0,3.575166E2,1.8709375E2,0E0,0E0,5.6702286E1,0E0,5.558255E2,5.4625E1,1.571875E3,0E0,2.3185142E3,0E0,0E0,0E0,0E0,0E0,0E0,0E0,0E0,0E0,0E0,0E0,0E0,0E0,0E0,0E0,0E0],"parents":[2147483647,0,0,1,1,2,2,3,3,4,4,5,5,6,6,7,7,9,9,10,10,11,11,12,12,13,13,15,15,17,17,19,19,21,21,23,23,24,24,25,25,28,28,29,29,32,32,34,34,35,35,36,36,38,38],"right_children":[2,4,6,8,10,12,14,16,-1,18,20,22,24,26,-1,28,-1,30,-1,32,-1,34,-1,36,38,40,-1,-1,42,44,-1,-1,46,-1,48,50,52,-1,54,-1,-1,-1,-1,-1,-1,-1,-1,-1,-1,-1,-1,-1,-1,-1,-1],"split_conditions":[2.5540745E0,9.99825E-1,1E0,6.02E2,1E0,2E3,6E0,8.388E-3,-8.768883E-2,5E0,3E0,2E0,9.95811E-1,2E2,-8.7620124E-2,6.21E-3,-8.753581E-2,1.111E3,-8.7263234E-2,1.2E1,-8.760371E-2,3.85207E-1,-8.775977E-2,1E0,1.48E2,9.63706E-1,-7.898788E-2,-8.7372325E-2,1E0,1.9838103E0,-8.859028E-2,-8.512961E-2,1.48E2,-8.7488286E-2,4.566E-3,-4.7259658E-7,2E0,-8.776046E-2,1.54E2,-6.0394924E-2,8.7224886E-2,-8.5636534E-2,7.283303E-2,8.7180465E-2,7.622089E-2,-7.5146355E-2,8.0434136E-2,-1.0473182E-1,3.6336318E-2,-7.9639874E-2,-8.742357E-2,-6.9071785E-2,-8.7774195E-2,3.3671625E-2,-6.2476672E-2],"split_indices":[18,5,24,31,34,35,24,16,0,6,2,6,5,38,0,16,0,31,0,1,0,4,0,34,31,5,0,0,26,18,0,0,31,0,0,14,6,0,31,0,0,0,0,0,0,0,0,0,0,0,0,0,0,0,0],"split_type":[0,0,0,0,0,0,0,0,0,0,0,0,0,0,0,0,0,0,0,0,0,0,0,0,0,0,0,0,0,0,0,0,0,0,0,0,0,0,0,0,0,0,0,0,0,0,0,0,0,0,0,0,0,0,0],"sum_hessian":[3.4810956E5,1.7152319E5,1.7658639E5,3.7929192E3,1.6773027E5,1.753258E5,1.2605929E3,2.9140107E3,8.7890857E2,1.6714156E5,5.887082E2,7.0186274E3,1.6830717E5,7.670637E2,4.9352914E2,2.593314E3,3.2069672E2,1.6699148E5,1.5007053E2,1.4200316E2,4.4670502E2,2.5131807E3,4.505447E3,1.6108411E5,7.223057E3,7.596684E2,7.3953166E0,1.9076585E2,2.402548E3,1.6697508E5,1.6411736E1,2.4084604E1,1.1791855E2,2.6774377E2,2.245437E3,1.14405445E5,4.667866E4,4.694214E3,2.5288433E3,1.9798634E0,7.5768854E2,3.5338146E1,2.36721E3,1.6292056E5,4.0545173E3,5.4163322E0,1.1250221E2,7.1196655E1,2.1742402E3,2.431255E3,1.11974195E5,1.892689E4,2.775177E4,1.1445957E3,1.3842476E3],"tree_param":{"num_deleted":"0","num_feature":"39","num_nodes":"55","size_leaf_vector":"1"}},{"base_weights":[5.1066454E-5,1.6313878E0,-1.5825613E0,2.3957823E-1,1.6629461E0,-1.5963423E0,3.3615255E-1,8.2023466E-1,-8.451857E-2,1.6725824E0,-1.0689583E0,-9.507557E-1,-1.6233379E0,1.640194E0,-8.4453225E-2,1.1298032E0,-8.437306E-2,1.6756089E0,-8.4113896E-2,8.755338E-1,-8.4437616E-2,3.6365828E-1,-8.458603E-2,-1.6413515E0,-1.2227148E0,1.6731149E0,-7.623954E-2,-8.421761E-2,1.353041E0,1.6811184E0,1.4552455E0,-8.206137E-2,1.3989305E0,-8.432787E-2,6.058954E-1,-1.5501486E0,-1.6852989E0,-8.4586695E-2,-3.6142465E-1,-5.8665145E-2,8.4108405E-2,-8.256817E-2,6.9921724E-2,3.8359225E-2,8.409561E-2,7.592644E-2,-1.0554105E-1,-7.264056E-2,7.740909E-2,-1.0499769E-1,3.4783863E-2,-6.6346765E-2,-8.460966E-2,-7.618949E-2,-8.444189E-2,2.4049206E-2,-7.076632E-2],"categories":[],"categories_nodes":[],"categories_segments":[],"categories_sizes":[],"default_left":[0,0,0,0,0,0,0,0,0,0,0,0,0,0,0,0,0,0,0,0,0,0,0,1,0,0,0,0,0,0,0,0,0,0,0,0,0,0,1,0,0,0,0,0,0,0,0,0,0,0,0,0,0,0,0,0,0],"id":4,"left_children":[1,3,5,7,9,11,13,15,-1,17,19,21,23,25,-1,27,-1,29,-1,31,-1,33,-1,35,37,39,-1,-1,41,43,45,-1,47,-1,49,51,53,-1,55,-1,-1,-1,-1,-1,-1,-1,-1,-1,-1,-1,-1,-1,-1,-1,-1,-1,-1],"loss_changes":[8.864999E5,7.42625E3,4.6090625E3,4.2037446E3,4.3542188E3,3.0142812E3,3.2873652E3,2.2402583E3,0E0,1.6756875E3,7.0258417E2,6.767445E3,1.1966562E3,8.143298E1,0E0,1.6150063E3,0E0,1.97375E2,0E0,1.8838168E2,0E0,1.2453762E3,0E0,6.345E2,2.8880898E3,2.1293701E1,0E0,0E0,3.2675684E2,1.1521875E2,9.1094727E2,0E0,5.2254303E1,0E0,5.460105E2,1.6369141E3,5.86875E1,0E0,2.2401365E3,0E0,0E0,0E0,0E0,0E0,0E0,0E0,0E0,0E0,0E0,0E0,0E0,0E0,0E0,0E0,0E0,0E0,0E0],"parents":[2147483647,0,0,1,1,2,2,3,3,4,4,5,5,6,6,7,7,9,9,10,10,11,11,12,12,13,13,15,15,17,17,19,19,21,21,23,23,24,24,25,25,28,28,29,29,30,30,32,32,34,34,35,35,36,36,38,38],"right_children":[2,4,6,8,10,12,14,16,-1,18,20,22,24,26,-1,28,-1,30,-1,32,-1,34,-1,36,38,40,-1,-1,42,44,46,-1,48,-1,50,52,54,-1,56,-1,-1,-1,-1,-1,-1,-1,-1,-1,-1,-1,-1,-1,-1,-1,-1,-1,-1],"split_conditions":[2.5540745E0,9.99825E-1,1E0,6.02E2,1E0,2E3,6E0,8.388E-3,-8.451857E-2,5E0,3E0,2E0,9.95811E-1,2E2,-8.4453225E-2,6.21E-3,-8.437306E-2,1.9838103E0,-8.4113896E-2,1.2E1,-8.4437616E-2,3.85207E-1,-8.458603E-2,5E3,1.48E2,9.63706E-1,-7.623954E-2,-8.421761E-2,1E0,2.657E-3,8E3,-8.206137E-2,1.48E2,-8.432787E-2,1.48E2,2E0,-4.7259658E-7,-8.4586695E-2,5E3,-5.8665145E-2,8.4108405E-2,-8.256817E-2,6.9921724E-2,3.8359225E-2,8.409561E-2,7.592644E-2,-1.0554105E-1,-7.264056E-2,7.740909E-2,-1.0499769E-1,3.4783863E-2,-6.6346765E-2,-8.460966E-2,-7.618949E-2,-8.444189E-2,2.4049206E-2,-7.076632E-2],"split_indices":[18,5,24,31,34,35,24,16,0,6,2,6,5,38,0,16,0,18,0,1,0,4,0,35,31,5,0,0,26,0,35,0,31,0,31,6,14,0,35,0,0,0,0,0,0,0,0,0,0,0,0,0,0,0,0,0,0],"split_type":[0,0,0,0,0,0,0,0,0,0,0,0,0,0,0,0,0,0,0,0,0,0,0,0,0,0,0,0,0,0,0,0,0,0,0,0,0,0,0,0,0,0,0,0,0,0,0,0,0,0,0,0,0,0,0,0,0],"sum_hessian":[3.433666E5,1.6908052E5,1.7428608E5,3.7489705E3,1.6533153E5,1.7304336E5,1.2427091E3,2.8823452E3,8.6662506E2,1.647508E5,5.8074115E2,6.9469297E3,1.6609644E5,7.5606647E2,4.8664267E2,2.5661145E3,3.162307E2,1.646028E5,1.4799394E2,1.4026677E2,4.4047437E2,2.5045544E3,4.442375E3,1.589465E5,7.1499307E3,7.4874963E2,7.3168015E0,1.8811942E2,2.377995E3,1.605814E5,4.021399E3,2.3780785E1,1.1648599E2,2.6401932E2,2.2405352E3,5.169721E4,1.0724929E5,4.6284985E3,2.5214324E3,1.9661525E0,7.467835E2,3.486764E1,2.3431274E3,1.4020093E2,1.604412E5,3.951844E3,6.955495E1,5.3589325E0,1.1112706E2,7.123584E1,2.1692993E3,2.0108477E4,3.1588736E4,2.3087957E3,1.049405E5,1.4016241E3,1.1198081E3],"tree_param":{"num_deleted":"0","num_feature":"39","num_nodes":"57","size_leaf_vector":"1"}},{"base_weights":[6.319709E-5,1.5775112E0,-1.5281837E0,2.3074372E-1,1.6081493E0,-7.9255986E-1,-1.5617583E0,7.8966254E-1,-8.17147E-2,1.6174738E0,-1.0331339E0,4.5028552E-1,-8.1781045E-2,1.2812515E0,-1.5658305E0,1.0872536E0,-8.157471E-2,1.6204017E0,-8.132543E-2,8.438787E-1,-8.1636816E-2,9.370753E-2,1.425706E0,-7.878284E-2,8.034205E-2,-1.5854785E0,-1.1399312E0,-8.1425175E-2,1.301698E0,1.6207513E0,-8.69854E-2,-7.932893E-2,1.3490583E0,3.8166246E-1,-1.9383433E0,-9.592342E-2,1.5105708E0,-1.625679E0,-1.4874926E0,-1.563055E0,-3.451872E-1,-7.984008E-2,6.726637E-2,6.736585E-2,8.1243E-2,-7.035953E-2,7.468775E-2,-8.145709E-2,3.1377513E-2,-8.061471E-2,-1.01628624E-1,-8.722197E-2,7.7158E-2,-7.380795E-2,-8.144638E-2,-6.358127E-2,-8.17928E-2,-8.1780255E-2,2.1633783E-2,3.241908E-2,-5.861605E-2],"categories":[],"categories_nodes":[],"categories_segments":[],"categories_sizes":[],"default_left":[0,0,0,0,0,0,0,0,0,0,0,0,0,0,0,0,0,0,0,0,0,0,0,0,0,0,0,0,0,0,0,0,0,0,0,0,0,0,0,0,0,0,0,0,0,0,0,0,0,0,0,0,0,0,0,0,0,0,0,0,0],"id":5,"left_children":[1,3,5,7,9,11,13,15,-1,17,19,21,-1,23,25,27,-1,29,-1,31,-1,33,35,-1,-1,37,39,-1,41,43,-1,-1,45,47,49,-1,51,53,55,57,59,-1,-1,-1,-1,-1,-1,-1,-1,-1,-1,-1,-1,-1,-1,-1,-1,-1,-1,-1,-1],"loss_changes":[8.14157E5,6.856875E3,4.235375E3,3.8557893E3,4.0035312E3,7.848058E3,1.9013125E3,2.0521807E3,0E0,1.5405938E3,6.453964E2,1.0529636E3,0E0,2.213024E2,1.3689688E3,1.4783691E3,0E0,1.9278125E2,0E0,1.7305072E2,0E0,1.2987522E3,2.3291052E2,0E0,0E0,6.14375E2,2.4299023E3,0E0,2.9931592E2,1.7953125E2,0E0,0E0,4.8279358E1,9.621008E2,5.1870117E0,0E0,8.659595E1,5.153125E1,1.4572266E3,6.835674E2,2.0654434E3,0E0,0E0,0E0,0E0,0E0,0E0,0E0,0E0,0E0,0E0,0E0,0E0,0E0,0E0,0E0,0E0,0E0,0E0,0E0,0E0],"parents":[2147483647,0,0,1,1,2,2,3,3,4,4,5,5,6,6,7,7,9,9,10,10,11,11,13,13,14,14,15,15,17,17,19,19,21,21,22,22,25,25,26,26,28,28,29,29,32,32,33,33,34,34,36,36,37,37,38,38,39,39,40,40],"right_children":[2,4,6,8,10,12,14,16,-1,18,20,22,-1,24,26,28,-1,30,-1,32,-1,34,36,-1,-1,38,40,-1,42,44,-1,-1,46,48,50,-1,52,54,56,58,60,-1,-1,-1,-1,-1,-1,-1,-1,-1,-1,-1,-1,-1,-1,-1,-1,-1,-1,-1,-1],"split_conditions":[2.5540745E0,9.99825E-1,2E3,6.02E2,1E0,5E0,2E-1,8.388E-3,-8.17147E-2,5E0,3E0,9.99053E-1,-8.1781045E-2,2.0335598E0,9.95811E-1,6.21E-3,-8.157471E-2,1.111E3,-8.132543E-2,1.2E1,-8.1636816E-2,9.5671986E-8,1.48E2,-7.878284E-2,8.034205E-2,1E0,1.48E2,-8.1425175E-2,1E0,4E0,-8.69854E-2,-7.932893E-2,1.48E2,3.85207E-1,3.7858E-1,-9.592342E-2,-3.2461872E-7,-4.7259658E-7,2E0,4E0,1.54E2,-7.984008E-2,6.726637E-2,6.736585E-2,8.1243E-2,-7.035953E-2,7.468775E-2,-8.145709E-2,3.1377513E-2,-8.061471E-2,-1.01628624E-1,-8.722197E-2,7.7158E-2,-7.380795E-2,-8.144638E-2,-6.358127E-2,-8.17928E-2,-8.1780255E-2,2.1633783E-2,3.241908E-2,-5.861605E-2],"split_indices":[18,5,35,31,34,6,23,16,0,6,2,5,0,17,5,16,0,31,0,1,0,14,31,0,0,34,31,0,26,2,0,0,31,4,4,0,14,14,6,23,31,0,0,0,0,0,0,0,0,0,0,0,0,0,0,0,0,0,0,0,0],"split_type":[0,0,0,0,0,0,0,0,0,0,0,0,0,0,0,0,0,0,0,0,0,0,0,0,0,0,0,0,0,0,0,0,0,0,0,0,0,0,0,0,0,0,0,0,0,0,0,0,0,0,0,0,0,0,0,0,0,0,0,0,0],"sum_hessian":[3.377202E5,1.6618495E5,1.7153522E5,3.6966992E3,1.6248825E5,7.488372E3,1.6404686E5,2.8447534E3,8.5194574E2,1.6191703E5,5.712263E2,3.0267642E3,4.461608E3,2.3419188E2,1.6381266E5,2.5338606E3,3.1089288E2,1.6177152E5,1.4551141E2,1.3819849E2,4.3302783E2,2.2172976E3,8.094667E2,2.35665E1,2.1062538E2,1.5658612E5,7.226541E3,1.8495592E2,2.3489048E3,1.617552E5,1.630525E1,2.3413542E1,1.14784935E2,1.942802E3,2.744956E2,1.9498638E1,7.89968E2,1.1102195E5,4.5564168E4,4.7151934E3,2.5113477E3,3.4304382E1,2.3146003E3,2.3995083E3,1.593557E5,5.2901745E0,1.0949477E2,2.1107358E2,1.7317284E3,6.560418E1,2.0889142E2,7.310026E0,7.82658E2,2.3705544E3,1.086514E5,1.8563729E4,2.700044E4,4.54997E3,1.6522299E2,1.1409877E3,1.37036E3],"tree_param":{"num_deleted":"0","num_feature":"39","num_nodes":"61","size_leaf_vector":"1"}},{"base_weights":[7.494014E-5,1.5294491E0,-1.4793568E0,2.2269408E-1,1.5592903E0,-3.695548E-1,-1.5004927E0,7.617163E-1,-7.921975E-2,1.5683372E0,-1.0011382E0,5.2262944E-1,-1.3679446E0,-1.3733768E0,-7.9371594E-2,1.0482674E0,-7.908367E-2,1.5711772E0,-7.884144E-2,8.152152E-1,-7.9144046E-2,-1.6181626E0,1.2509488E0,-1.4513834E-1,-8.2195856E-2,1.21016234E-1,-1.4233804E0,-7.893835E-2,1.2545761E0,1.5767503E0,1.349942E0,-7.688084E-2,1.3038559E0,-9.131456E-2,-7.908631E-2,-9.142414E-2,1.3548397E0,1.1627198E0,-8.2440585E-2,3.7498334E-1,-1.8440956E0,-1.4377747E0,1.3540205E0,-7.73999E-2,6.482862E-2,3.340863E-2,7.887758E-2,-1.2838341E-1,7.0294775E-2,-6.827298E-2,7.2223336E-2,7.061956E-2,-9.1242455E-2,-8.426982E-2,9.334959E-2,-7.8970455E-2,3.0557102E-2,-7.815368E-2,-9.663003E-2,-5.8200665E-2,-7.846164E-2,-7.643725E-2,7.8626655E-2],"categories":[],"categories_nodes":[],"categories_segments":[],"categories_sizes":[],"default_left":[0,0,0,0,0,0,0,0,0,0,0,0,0,0,0,0,0,0,0,0,0,0,0,0,0,0,0,0,0,0,0,0,0,0,0,0,0,1,0,0,0,1,0,0,0,0,0,0,0,0,0,0,0,0,0,0,0,0,0,0,0,0,0],"id":6,"left_children":[1,3,5,7,9,11,13,15,-1,17,19,21,23,25,-1,27,-1,29,-1,31,-1,33,35,37,-1,39,41,-1,43,45,47,-1,49,-1,-1,-1,51,53,-1,55,57,59,61,-1,-1,-1,-1,-1,-1,-1,-1,-1,-1,-1,-1,-1,-1,-1,-1,-1,-1,-1,-1],"loss_changes":[7.496912E5,6.3527188E3,3.9500312E3,3.5453884E3,3.6912188E3,2.8055913E3,1.8242812E3,1.8840581E3,0E0,1.42025E3,5.94529E2,2.5959094E3,5.0132275E2,5.0166953E3,0E0,1.3560837E3,0E0,1.93375E2,0E0,1.5934613E2,0E0,3.1726074E-1,3.9978516E2,5.422735E2,0E0,1.0859359E3,2.5989375E3,0E0,2.7472046E2,1.1159375E2,8.5926416E2,0E0,4.4708664E1,0E0,0E0,0E0,2.2252368E2,2.9908713E2,0E0,8.901261E2,3.1731567E0,2.3239219E3,2.1370654E2,0E0,0E0,0E0,0E0,0E0,0E0,0E0,0E0,0E0,0E0,0E0,0E0,0E0,0E0,0E0,0E0,0E0,0E0,0E0,0E0],"parents":[2147483647,0,0,1,1,2,2,3,3,4,4,5,5,6,6,7,7,9,9,10,10,11,11,12,12,13,13,15,15,17,17,19,19,21,21,22,22,23,23,25,25,26,26,28,28,29,29,30,30,32,32,36,36,37,37,39,39,40,40,41,41,42,42],"right_children":[2,4,6,8,10,12,14,16,-1,18,20,22,24,26,-1,28,-1,30,-1,32,-1,34,36,38,-1,40,42,-1,44,46,48,-1,50,-1,-1,-1,52,54,-1,56,58,60,62,-1,-1,-1,-1,-1,-1,-1,-1,-1,-1,-1,-1,-1,-1,-1,-1,-1,-1,-1,-1],"split_conditions":[2.5540745E0,9.99825E-1,3.2751887E0,6.02E2,1E0,5E3,5E0,8.388E-3,-7.921975E-2,5E0,3E0,1.48E2,1.6E1,2E3,-7.9371594E-2,6.21E-3,-7.908367E-2,1.9838103E0,-7.884144E-2,1.2E1,-7.9144046E-2,2E0,-3.2461872E-7,1.25E-1,-8.2195856E-2,9.5671986E-8,1E0,-7.893835E-2,1E0,2.657E-3,1.9E1,-7.688084E-2,1.48E2,-9.131456E-2,-7.908631E-2,-9.142414E-2,1.012E3,1.67E2,-8.2440585E-2,3.85207E-1,3.7858E-1,5E3,9.44846E-1,-7.73999E-2,6.482862E-2,3.340863E-2,7.887758E-2,-1.2838341E-1,7.0294775E-2,-6.827298E-2,7.2223336E-2,7.061956E-2,-9.1242455E-2,-8.426982E-2,9.334959E-2,-7.8970455E-2,3.0557102E-2,-7.815368E-2,-9.663003E-2,-5.8200665E-2,-7.846164E-2,-7.643725E-2,7.8626655E-2],"split_indices":[18,5,18,31,34,35,6,16,0,6,2,31,1,35,0,16,0,18,0,1,0,6,14,0,0,14,24,0,26,0,1,0,31,0,0,0,31,38,0,4,4,35,5,0,0,0,0,0,0,0,0,0,0,0,0,0,0,0,0,0,0,0,0],"split_type":[0,0,0,0,0,0,0,0,0,0,0,0,0,0,0,0,0,0,0,0,0,0,0,0,0,0,0,0,0,0,0,0,0,0,0,0,0,0,0,0,0,0,0,0,0,0,0,0,0,0,0,0,0,0,0,0,0,0,0,0,0,0,0],"sum_hessian":[3.3133788E5,1.6291903E5,1.6841886E5,3.6375615E3,1.5928147E5,3.1479014E3,1.6527095E5,2.8022725E3,8.3528906E2,1.5872103E5,5.604333E2,1.6626211E3,1.4852802E3,6.713211E4,9.813885E4,2.497437E3,3.0483542E2,1.5857834E5,1.4269362E2,1.3585547E2,4.245778E2,4.217436E2,1.2408776E3,2.7376797E2,1.2115122E3,2.1735166E3,6.495859E4,1.8136545E2,2.3160715E3,1.5467588E5,3.9024626E3,2.2993547E1,1.12861916E2,5.5514744E1,3.6622882E2,3.9955517E1,1.200922E3,1.4653883E2,1.2722915E2,1.9254806E3,2.4803607E2,6.462415E4,3.3444302E2,3.366424E1,2.2824075E3,1.3704233E2,1.5453883E5,5.432015E1,3.8481426E3,5.211792E0,1.0765012E2,1.180118E3,2.0803982E1,2.8775589E1,1.1776325E2,2.0696881E2,1.7185118E3,6.387624E1,1.8415984E2,2.0968057E4,4.365609E4,2.3142012E1,3.1130103E2],"tree_param":{"num_deleted":"0","num_feature":"39","num_nodes":"63","size_leaf_vector":"1"}},{"base_weights":[8.875382E-5,1.4863582E0,-1.4351902E0,2.1531318E-1,1.5155087E0,-7.386772E-1,-1.467238E0,7.360117E-1,-7.698768E-2,1.5243075E0,-9.7240126E-1,4.143408E-1,-7.712673E-2,1.2057844E0,-1.4710579E0,1.0123272E0,-7.685419E-2,1.5270687E0,-7.661667E-2,7.890996E-1,-7.69134E-2,8.922362E-2,1.313722E0,-7.445264E-2,7.571369E-2,-1.4905303E0,-1.053079E0,-7.671169E-2,1.2110664E0,1.5326912E0,1.3050675E0,-7.4688695E-2,1.2630695E0,3.536136E-1,-1.7849517E0,-8.570609E-2,1.4102352E0,-1.4213535E0,-1.5511631E0,-1.4723439E0,-2.8990296E-1,-7.520544E-2,6.257712E-2,3.1991538E-2,7.6674536E-2,6.845858E-2,-1.0751968E-1,7.412312E-2,-8.7643504E-2,-7.6721966E-2,2.8145025E-2,-7.598956E-2,-9.289239E-2,-7.995399E-2,7.222561E-2,-7.628935E-2,7.4361905E-2,-7.716276E-2,-7.866483E-2,-7.709061E-2,1.9999763E-2,2.4526633E-2,-6.460938E-2],"categories":[],"categories_nodes":[],"categories_segments":[],"categories_sizes":[],"default_left":[0,0,0,0,0,0,0,0,0,0,0,0,0,0,0,0,0,0,0,0,0,0,0,0,0,0,0,0,0,0,0,0,0,0,0,0,0,0,0,0,1,0,0,0,0,0,0,0,0,0,0,0,0,0,0,0,0,0,0,0,0,0,0],"id":7,"left_children":[1,3,5,7,9,11,13,15,-1,17,19,21,-1,23,25,27,-1,29,-1,31,-1,33,35,-1,-1,37,39,-1,41,43,45,-1,47,49,51,-1,53,55,57,59,61,-1,-1,-1,-1,-1,-1,-1,-1,-1,-1,-1,-1,-1,-1,-1,-1,-1,-1,-1,-1,-1,-1],"loss_changes":[6.919366E5,5.903875E3,3.68225E3,3.2671172E3,3.4115625E3,6.7301406E3,1.6125312E3,1.7330852E3,0E0,1.3125625E3,5.4903906E2,8.7221533E2,0E0,1.8985852E2,1.2805625E3,1.246169E3,0E0,1.9159375E2,0E0,1.4718811E2,0E0,1.0869363E3,2.338689E2,0E0,0E0,6.2909375E2,2.244355E3,0E0,2.5258447E2,1.0696875E2,8.530088E2,0E0,7.653575E1,7.603661E2,2.418457E0,0E0,8.154065E1,2.1360906E4,1.1625E1,5.8953125E2,1.9474066E3,0E0,0E0,0E0,0E0,0E0,0E0,0E0,0E0,0E0,0E0,0E0,0E0,0E0,0E0,0E0,0E0,0E0,0E0,0E0,0E0,0E0,0E0],"parents":[2147483647,0,0,1,1,2,2,3,3,4,4,5,5,6,6,7,7,9,9,10,10,11,11,13,13,14,14,15,15,17,17,19,19,21,21,22,22,25,25,26,26,28,28,29,29,30,30,32,32,33,33,34,34,36,36,37,37,38,38,39,39,40,40],"right_children":[2,4,6,8,10,12,14,16,-1,18,20,22,-1,24,26,28,-1,30,-1,32,-1,34,36,-1,-1,38,40,-1,42,44,46,-1,48,50,52,-1,54,56,58,60,62,-1,-1,-1,-1,-1,-1,-1,-1,-1,-1,-1,-1,-1,-1,-1,-1,-1,-1,-1,-1,-1,-1],"split_conditions":[2.5540745E0,9.99825E-1,2E3,6.02E2,1E0,7E0,2E-1,8.388E-3,-7.698768E-2,5E0,3E0,9.99053E-1,-7.712673E-2,2.0335598E0,9.95811E-1,6.21E-3,-7.685419E-2,1.9838103E0,-7.661667E-2,1.5E2,-7.69134E-2,9.5671986E-8,1.48E2,-7.445264E-2,7.571369E-2,6.02E2,1.48E2,-7.671169E-2,1E0,2.657E-3,8E3,-7.4688695E-2,1.54E2,3.85207E-1,3.7858E-1,-8.570609E-2,-3.2461872E-7,5.99E2,1E0,4E0,5E3,-7.520544E-2,6.257712E-2,3.1991538E-2,7.6674536E-2,6.845858E-2,-1.0751968E-1,7.412312E-2,-8.7643504E-2,-7.6721966E-2,2.8145025E-2,-7.598956E-2,-9.289239E-2,-7.995399E-2,7.222561E-2,-7.628935E-2,7.4361905E-2,-7.716276E-2,-7.866483E-2,-7.709061E-2,1.9999763E-2,2.4526633E-2,-6.460938E-2],"split_indices":[18,5,35,31,34,7,23,16,0,6,2,5,0,17,5,16,0,18,0,31,0,14,31,0,0,31,31,0,26,0,35,0,31,4,4,0,14,31,34,23,35,0,0,0,0,0,0,0,0,0,0,0,0,0,0,0,0,0,0,0,0,0,0],"split_type":[0,0,0,0,0,0,0,0,0,0,0,0,0,0,0,0,0,0,0,0,0,0,0,0,0,0,0,0,0,0,0,0,0,0,0,0,0,0,0,0,0,0,0,0,0,0,0,0,0,0,0,0,0,0,0,0,0,0,0,0,0,0,0],"sum_hessian":[3.243618E5,1.5935031E5,1.650115E5,3.5728318E3,1.5577748E5,7.259522E3,1.5775198E5,2.7558103E3,8.170214E2,1.5522889E5,5.4859784E2,2.98231E3,4.277212E3,2.2466739E2,1.5752731E5,2.457619E3,2.9819135E2,1.5508928E5,1.3960236E2,1.3328795E2,4.153099E2,2.1912827E3,7.910273E2,2.2683811E1,2.0198357E2,1.5051278E5,7.014533E3,1.7742683E2,2.2801921E3,1.5125267E5,3.8366072E3,2.2545591E1,1.1074235E2,1.9210864E3,2.7019638E2,2.391753E1,7.6710974E2,7.03144E4,8.019839E4,4.5267495E3,2.4877834E3,3.2961163E1,2.247231E3,1.3602765E2,1.5111664E5,3.7673213E3,6.928577E1,1.0370672E2,7.035634E0,1.9106729E2,1.730019E3,6.2974556E1,2.0722183E2,8.125071E0,7.589847E2,6.787771E4,2.4366887E3,5.9139465E4,2.1058922E4,4.364975E3,1.6177472E2,1.3989736E3,1.0888097E3],"tree_param":{"num_deleted":"0","num_feature":"39","num_nodes":"63","size_leaf_vector":"1"}},{"base_weights":[8.177064E-5,1.4475524E0,-1.3952987E0,2.0850582E-1,1.4761047E0,-7.1507436E-1,-1.4267428E0,7.1223205E-1,-7.4981146E-2,1.4846808E0,-9.464994E-1,3.9724642E-1,-7.5112514E-2,1.1736878E0,-1.4304551E0,9.790061E-1,-7.484917E-2,1.4873712E0,-7.4614435E-2,7.651688E-1,-7.490771E-2,8.5076004E-2,1.2709559E0,-7.252314E-2,7.3737286E-2,-1.4497637E0,-1.0183845E0,-7.470832E-2,1.1706662E0,1.4930512E0,1.2643133E0,-7.2953016E-2,1.2267234E0,3.376107E-1,-1.7186395E0,-8.2603455E-2,1.3646628E0,-1.3811079E0,-1.5100534E0,-1.432771E0,-2.7721506E-1,-7.322225E-2,6.048599E-2,3.0640114E-2,7.4692644E-2,-1.2380113E-1,6.602365E-2,6.712222E-2,-9.148958E-2,3.214481E-2,-4.425666E-2,-7.4002944E-2,-8.91298E-2,-7.724842E-2,6.990113E-2,-7.4233495E-2,6.9389455E-2,-7.514559E-2,-7.650039E-2,-7.507944E-2,1.9039147E-2,3.2943647E-2,-5.368474E-2],"categories":[],"categories_nodes":[],"categories_segments":[],"categories_sizes":[],"default_left":[0,0,0,0,0,0,0,0,0,0,0,0,0,0,0,0,0,0,0,0,0,0,0,0,0,0,0,0,0,0,0,0,0,0,0,0,0,0,0,0,0,0,0,0,0,0,0,0,0,0,0,0,0,0,0,0,0,0,0,0,0,0,0],"id":8,"left_children":[1,3,5,7,9,11,13,15,-1,17,19,21,-1,23,25,27,-1,29,-1,31,-1,33,35,-1,-1,37,39,-1,41,43,45,-1,47,49,51,-1,53,55,57,59,61,-1,-1,-1,-1,-1,-1,-1,-1,-1,-1,-1,-1,-1,-1,-1,-1,-1,-1,-1,-1,-1,-1],"loss_changes":[6.4003244E5,5.5023125E3,3.4499688E3,3.0165496E3,3.160125E3,6.2442905E3,1.490375E3,1.596962E3,0E0,1.2155938E3,5.0812738E2,8.061017E2,0E0,1.7624701E2,1.2238125E3,1.1469939E3,0E0,1.89875E2,0E0,1.3681644E2,0E0,9.930524E2,2.1536462E2,0E0,0E0,6.0678125E2,2.1176445E3,0E0,2.3258667E2,1.0328125E2,7.94167E2,0E0,4.117543E1,7.143302E2,1.4472656E0,0E0,7.538733E1,1.9727781E4,8.859375E0,5.5258105E2,1.8454475E3,0E0,0E0,0E0,0E0,0E0,0E0,0E0,0E0,0E0,0E0,0E0,0E0,0E0,0E0,0E0,0E0,0E0,0E0,0E0,0E0,0E0,0E0],"parents":[2147483647,0,0,1,1,2,2,3,3,4,4,5,5,6,6,7,7,9,9,10,10,11,11,13,13,14,14,15,15,17,17,19,19,21,21,22,22,25,25,26,26,28,28,29,29,30,30,32,32,33,33,34,34,36,36,37,37,38,38,39,39,40,40],"right_children":[2,4,6,8,10,12,14,16,-1,18,20,22,-1,24,26,28,-1,30,-1,32,-1,34,36,-1,-1,38,40,-1,42,44,46,-1,48,50,52,-1,54,56,58,60,62,-1,-1,-1,-1,-1,-1,-1,-1,-1,-1,-1,-1,-1,-1,-1,-1,-1,-1,-1,-1,-1,-1],"split_conditions":[2.5540745E0,9.99825E-1,2E3,6.02E2,1E0,7E0,2E-1,8.388E-3,-7.4981146E-2,5E0,3E0,9.99053E-1,-7.5112514E-2,9.44846E-1,9.95811E-1,6.21E-3,-7.484917E-2,1.9838103E0,-7.4614435E-2,1.2E1,-7.490771E-2,9.5671986E-8,1.48E2,-7.252314E-2,7.3737286E-2,6.02E2,1.48E2,-7.470832E-2,1E0,2.657E-3,1.9E1,-7.2953016E-2,1.54E2,5.2083335E-3,3.7858E-1,-8.2603455E-2,-3.2461872E-7,5.99E2,1E0,4E0,1.54E2,-7.322225E-2,6.048599E-2,3.0640114E-2,7.4692644E-2,-1.2380113E-1,6.602365E-2,6.712222E-2,-9.148958E-2,3.214481E-2,-4.425666E-2,-7.4002944E-2,-8.91298E-2,-7.724842E-2,6.990113E-2,-7.4233495E-2,6.9389455E-2,-7.514559E-2,-7.650039E-2,-7.507944E-2,1.9039147E-2,3.2943647E-2,-5.368474E-2],"split_indices":[18,5,35,31,34,7,23,16,0,6,2,5,0,5,5,16,0,18,0,1,0,14,31,0,0,31,31,0,26,0,1,0,31,19,4,0,14,31,34,23,31,0,0,0,0,0,0,0,0,0,0,0,0,0,0,0,0,0,0,0,0,0,0],"split_type":[0,0,0,0,0,0,0,0,0,0,0,0,0,0,0,0,0,0,0,0,0,0,0,0,0,0,0,0,0,0,0,0,0,0,0,0,0,0,0,0,0,0,0,0,0,0,0,0,0,0,0,0,0,0,0,0,0,0,0,0,0,0,0],"sum_hessian":[3.1688147E5,1.5553756E5,1.6134389E5,3.5036245E3,1.5203394E5,7.1298247E3,1.5421406E5,2.7061619E3,7.9746265E2,1.5149802E5,5.3591394E2,2.9548967E3,4.174928E3,2.1938383E2,1.5399469E5,2.415085E3,2.91077E2,1.5136173E5,1.3629169E2,1.3052753E2,4.0538638E2,2.1778599E3,7.770369E2,2.218571E1,1.9719812E2,1.4709945E5,6.895225E3,1.7320898E2,2.241876E3,1.4759756E5,3.7641746E3,2.2059881E1,1.0846764E2,1.9111028E3,2.6675696E2,2.3620024E1,7.5341693E2,6.878902E4,7.831044E4,4.421974E3,2.4732507E3,3.220736E1,2.2096687E3,1.3499672E2,1.4746256E5,5.5044136E1,3.7091304E3,1.05051155E2,3.4164913E0,1.5296625E3,3.8144037E2,6.1496105E1,2.0526085E2,8.02664E0,7.453903E2,6.630939E4,2.4796328E3,5.77264E4,2.058404E4,4.2604766E3,1.6149782E2,1.1370591E3,1.3361918E3],"tree_param":{"num_deleted":"0","num_feature":"39","num_nodes":"63","size_leaf_vector":"1"}},{"base_weights":[7.529866E-5,1.4124173E0,-1.3590478E0,2.0219217E-1,1.4404508E0,-3.2617226E-1,-1.3791105E0,6.9011384E-1,-7.316958E-2,1.4488289E0,-9.224801E-1,4.9524277E-1,-1.2547219E0,-1.2522622E0,-7.334077E-2,9.4794863E-1,-7.303819E-2,1.4514552E0,-7.280459E-2,7.41101E-1,-7.309647E-2,-7.449419E-2,1.1485482E0,-6.169804E-2,-1.5320207E0,1.09410994E-1,-1.2999442E0,-7.289801E-2,1.1329564E0,1.4572338E0,1.2259805E0,-7.176181E-2,1.1955005E0,-8.559266E-2,1.246635E0,1.1599098E0,-7.681708E-2,-7.3083E-2,-1.5613596E0,3.3129114E-1,-1.6497922E0,-1.0249738E0,-1.4352567E0,4.3215796E-2,7.6024495E-2,2.9349616E-2,7.290207E-2,6.4522356E-2,-1.05169825E-1,7.034561E-2,-8.1185296E-2,6.5113984E-2,-8.779373E-2,-7.930205E-2,9.041696E-2,-7.371663E-2,-8.275778E-2,-7.482078E-2,2.7228674E-2,-7.2167076E-2,-8.549868E-2,-3.1232497E-2,-7.635474E-2,-7.244263E-2,6.347087E-2],"categories":[],"categories_nodes":[],"categories_segments":[],"categories_sizes":[],"default_left":[0,0,0,0,0,0,0,0,0,0,0,0,0,0,0,0,0,0,0,0,0,0,0,0,0,0,1,0,0,0,0,0,0,0,0,1,0,0,0,0,0,0,0,0,0,0,0,0,0,0,0,0,0,0,0,0,0,0,0,0,0,0,0,0,0],"id":9,"left_children":[1,3,5,7,9,11,13,15,-1,17,19,21,23,25,-1,27,-1,29,-1,31,-1,-1,33,35,37,39,41,-1,43,45,47,-1,49,-1,51,53,-1,-1,55,57,59,61,63,-1,-1,-1,-1,-1,-1,-1,-1,-1,-1,-1,-1,-1,-1,-1,-1,-1,-1,-1,-1,-1,-1],"loss_changes":[5.9316156E5,5.1409688E3,3.2627188E3,2.790037E3,2.9334062E3,2.2901562E3,1.7166875E3,1.4737825E3,0E0,1.1280625E3,4.7123853E2,2.0683054E3,4.6613208E2,4.1004062E3,0E0,1.0572021E3,0E0,1.9028125E2,0E0,1.2923672E2,0E0,0E0,3.3867285E2,4.8245926E2,7.8125E-2,8.348817E2,2.2687266E3,0E0,2.2799756E2,1.001875E2,7.948804E2,0E0,6.618982E1,0E0,1.9614246E2,2.637291E2,0E0,0E0,4.0273438E0,7.410526E2,5.083618E-1,4.0446973E3,1.5054297E3,0E0,0E0,0E0,0E0,0E0,0E0,0E0,0E0,0E0,0E0,0E0,0E0,0E0,0E0,0E0,0E0,0E0,0E0,0E0,0E0,0E0,0E0],"parents":[2147483647,0,0,1,1,2,2,3,3,4,4,5,5,6,6,7,7,9,9,10,10,11,11,12,12,13,13,15,15,17,17,19,19,22,22,23,23,24,24,25,25,26,26,28,28,29,29,30,30,32,32,34,34,35,35,38,38,39,39,40,40,41,41,42,42],"right_children":[2,4,6,8,10,12,14,16,-1,18,20,22,24,26,-1,28,-1,30,-1,32,-1,-1,34,36,38,40,42,-1,44,46,48,-1,50,-1,52,54,-1,-1,56,58,60,62,64,-1,-1,-1,-1,-1,-1,-1,-1,-1,-1,-1,-1,-1,-1,-1,-1,-1,-1,-1,-1,-1,-1],"split_conditions":[2.5540745E0,9.99825E-1,3.2751887E0,6.02E2,1E0,5E3,5E0,8.388E-3,-7.316958E-2,5E0,3E0,1.48E2,1.6E1,2E3,-7.334077E-2,6.21E-3,-7.303819E-2,1.9838103E0,-7.280459E-2,1.5E2,-7.309647E-2,-7.449419E-2,-3.2461872E-7,1.25E-1,1.403E-3,9.5671986E-8,5E3,-7.289801E-2,1E0,2.657E-3,8E3,-7.176181E-2,1.54E2,-8.559266E-2,1.012E3,1.67E2,-7.681708E-2,-7.3083E-2,1.48E2,3.85207E-1,3.7858E-1,6.02E2,5E0,4.3215796E-2,7.6024495E-2,2.9349616E-2,7.290207E-2,6.4522356E-2,-1.05169825E-1,7.034561E-2,-8.1185296E-2,6.5113984E-2,-8.779373E-2,-7.930205E-2,9.041696E-2,-7.371663E-2,-8.275778E-2,-7.482078E-2,2.7228674E-2,-7.2167076E-2,-8.549868E-2,-3.1232497E-2,-7.635474E-2,-7.244263E-2,6.347087E-2],"split_indices":[18,5,18,31,34,35,6,16,0,6,2,31,1,35,0,16,0,18,0,31,0,0,14,0,0,14,35,0,24,0,35,0,31,0,31,38,0,0,31,4,4,31,7,0,0,0,0,0,0,0,0,0,0,0,0,0,0,0,0,0,0,0,0,0,0],"split_type":[0,0,0,0,0,0,0,0,0,0,0,0,0,0,0,0,0,0,0,0,0,0,0,0,0,0,0,0,0,0,0,0,0,0,0,0,0,0,0,0,0,0,0,0,0,0,0,0,0,0,0,0,0,0,0,0,0,0,0,0,0,0,0,0,0],"sum_hessian":[3.0900928E5,1.5153775E5,1.5747152E5,3.4309126E3,1.4810683E5,3.0007842E3,1.5447073E5,2.6540205E3,7.76892E2,1.4758394E5,5.2289777E2,1.5924951E3,1.408289E3,6.3150754E4,9.1319984E4,2.3704268E3,2.835938E2,1.4745112E5,1.3280882E2,1.2794881E2,3.949489E2,3.9400262E2,1.1984926E3,2.6583002E2,1.142459E3,2.1364998E3,6.1014254E4,1.6877208E2,2.2016545E3,1.4376134E5,3.6897832E3,2.1727386E1,1.0622142E2,3.918979E1,1.1593027E3,1.4550543E2,1.2032458E2,3.511502E2,7.913088E2,1.8979338E3,2.3856593E2,2.0125521E4,4.088873E4,1.3021954E3,8.994592E2,1.3395677E2,1.4362739E5,3.6202961E3,6.948723E1,9.927757E1,6.9438524E0,1.1387646E3,2.0538122E1,2.7519718E1,1.1798572E2,4.1913745E2,3.721713E2,1.9770447E2,1.7002294E3,5.948553E1,1.790804E2,1.11991045E4,8.926417E3,4.0684684E4,2.040475E2],"tree_param":{"num_deleted":"0","num_feature":"39","num_nodes":"65","size_leaf_vector":"1"}},{"base_weights":[8.419649E-5,1.3804921E0,-1.325571E0,1.962144E-1,1.4081001E0,-6.723921E-1,-1.3561009E0,6.6887075E-1,-7.1527675E-2,1.4162961E0,-9.011503E-1,3.6729082E-1,-7.168536E-2,1.1094112E0,-1.3596345E0,9.1796035E-1,-7.1396075E-2,1.4188643E0,-7.11622E-2,7.2092944E-1,-7.145444E-2,-5.9151953E-1,6.193472E-1,-7.144442E-2,7.051274E-2,-1.3791221E0,-9.4939667E-1,-7.1255706E-2,1.0964175E0,1.4247448E0,1.1908691E0,-7.002974E-2,1.1636283E0,6.298706E-1,-1.8814164E0,-1.8391857E0,7.4150205E-1,-1.4218565E0,-1.2766508E0,-1.3632338E0,-2.3623733E-1,5.6132462E-2,-1.393335E-1,2.8115869E-2,7.127809E-2,-1.1952627E-1,6.238069E-2,6.8567686E-2,-7.844278E-2,-8.4196076E-2,8.3007336E-2,-7.100432E-2,-9.9840485E-2,-7.127203E-2,-1.0032703E-1,2.0459263E-2,6.259971E-2,-6.279762E-2,-7.127573E-2,-5.3007282E-2,-7.160976E-2,-7.169758E-2,2.0479506E-2,2.4206199E-2,-5.971938E-2],"categories":[],"categories_nodes":[],"categories_segments":[],"categories_sizes":[],"default_left":[0,0,0,0,0,0,0,0,0,0,0,0,0,0,0,0,0,0,0,0,0,0,0,0,0,0,0,0,1,0,0,0,0,0,0,0,0,0,0,0,1,0,0,0,0,0,0,0,0,0,0,0,0,0,0,0,0,0,0,0,0,0,0,0,0],"id":10,"left_children":[1,3,5,7,9,11,13,15,-1,17,19,21,-1,23,25,27,-1,29,-1,31,-1,33,35,-1,-1,37,39,-1,41,43,45,-1,47,49,51,53,55,57,59,61,63,-1,-1,-1,-1,-1,-1,-1,-1,-1,-1,-1,-1,-1,-1,-1,-1,-1,-1,-1,-1,-1,-1,-1,-1],"loss_changes":[5.5059475E5,4.8189688E3,3.0597812E3,2.5837056E3,2.7274062E3,5.426914E3,1.279E3,1.3610671E3,0E0,1.0486875E3,4.3779187E2,7.0092816E2,0E0,1.6268341E2,1.16925E3,9.7483167E2,0E0,1.905625E2,0E0,1.198755E2,0E0,9.526542E2,6.908592E2,0E0,0E0,6.1028125E2,1.9602949E3,0E0,2.2349878E2,9.76875E1,7.369756E2,0E0,6.158612E1,7.440539E2,1.2814087E1,4.6844482E0,3.7065344E2,5.80625E1,1.3841484E3,5.2758984E2,1.6851241E3,0E0,0E0,0E0,0E0,0E0,0E0,0E0,0E0,0E0,0E0,0E0,0E0,0E0,0E0,0E0,0E0,0E0,0E0,0E0,0E0,0E0,0E0,0E0,0E0],"parents":[2147483647,0,0,1,1,2,2,3,3,4,4,5,5,6,6,7,7,9,9,10,10,11,11,13,13,14,14,15,15,17,17,19,19,21,21,22,22,25,25,26,26,28,28,29,29,30,30,32,32,33,33,34,34,35,35,36,36,37,37,38,38,39,39,40,40],"right_children":[2,4,6,8,10,12,14,16,-1,18,20,22,-1,24,26,28,-1,30,-1,32,-1,34,36,-1,-1,38,40,-1,42,44,46,-1,48,50,52,54,56,58,60,62,64,-1,-1,-1,-1,-1,-1,-1,-1,-1,-1,-1,-1,-1,-1,-1,-1,-1,-1,-1,-1,-1,-1,-1,-1],"split_conditions":[2.5540745E0,9.99825E-1,2E3,6.02E2,1E0,7E0,2E-1,8.388E-3,-7.1527675E-2,5E0,3E0,1.0510705E0,-7.168536E-2,2.0335598E0,9.95811E-1,6.21E-3,-7.1396075E-2,1.9838103E0,-7.11622E-2,1.5E2,-7.145444E-2,1.5E2,4.566E-3,-7.144442E-2,7.051274E-2,1E0,1.48E2,-7.1255706E-2,2E2,2.657E-3,1.9E1,-7.002974E-2,1.54E2,1.48E2,3.80463E-1,3.71247E-1,5.181E-3,-4.7259658E-7,2E0,4E0,5E3,5.6132462E-2,-1.393335E-1,2.8115869E-2,7.127809E-2,-1.1952627E-1,6.238069E-2,6.8567686E-2,-7.844278E-2,-8.4196076E-2,8.3007336E-2,-7.100432E-2,-9.9840485E-2,-7.127203E-2,-1.0032703E-1,2.0459263E-2,6.259971E-2,-6.279762E-2,-7.127573E-2,-5.3007282E-2,-7.160976E-2,-7.169758E-2,2.0479506E-2,2.4206199E-2,-5.971938E-2],"split_indices":[18,5,35,31,34,7,23,16,0,6,2,17,0,17,5,16,0,18,0,31,0,31,0,0,0,34,31,0,38,0,1,0,31,31,4,4,0,14,6,23,35,0,0,0,0,0,0,0,0,0,0,0,0,0,0,0,0,0,0,0,0,0,0,0,0],"split_type":[0,0,0,0,0,0,0,0,0,0,0,0,0,0,0,0,0,0,0,0,0,0,0,0,0,0,0,0,0,0,0,0,0,0,0,0,0,0,0,0,0,0,0,0,0,0,0,0,0,0,0,0,0,0,0,0,0,0,0,0,0,0,0,0,0],"sum_hessian":[3.008785E5,1.4739534E5,1.5348317E5,3.358008E3,1.4403733E5,6.8546E3,1.4662858E5,2.6024553E3,7.555529E2,1.4352831E5,5.09022E2,2.8977847E3,3.9568157E3,2.0940042E2,1.4641917E5,2.3266248E3,2.7583044E2,1.4339912E5,1.2919496E2,1.24900955E2,3.8412106E2,6.029283E2,2.2948564E3,2.1791336E1,1.8760909E2,1.3977698E5,6.6421895E3,1.6416855E2,2.1624563E3,1.3978839E5,3.6107288E3,2.1189894E1,1.0371106E2,3.0995074E2,2.929775E2,1.07959885E2,2.1868965E3,9.863115E4,4.1145832E4,4.2025767E3,2.4396128E3,2.148652E3,1.3804087E1,1.3291405E2,1.3965547E5,5.56756E1,3.555053E3,9.6846825E1,6.864237E0,9.529746E1,2.1465329E2,6.1282627E1,2.3169487E2,3.3833076E1,7.412681E1,1.3257015E3,8.61195E2,2.1352842E3,9.649587E4,1.7205287E4,2.3940547E4,4.0415508E3,1.6102574E2,1.3928945E3,1.0467183E3],"tree_param":{"num_deleted":"0","num_feature":"39","num_nodes":"65","size_leaf_vector":"1"}},{"base_weights":[9.832212E-5,1.3513566E0,-1.294759E0,1.9052309E-1,1.3786064E0,-6.5286225E-1,-1.3249549E0,6.487229E-1,-7.003431E-2,1.3866365E0,-8.8169855E-1,3.533315E-1,-7.016175E-2,-1.21462E0,-7.021447E-2,8.8948166E-1,-6.990178E-2,1.3891517E0,-6.96664E-2,7.023311E-1,-6.996054E-2,-1.8127456E0,4.6102285E-1,-9.206089E-1,-1.3638853E0,-7.0494187E-1,1.1378608E0,1.3951714E0,1.1574662E0,-6.8444334E-2,1.1342624E0,-6.9758765E-2,-1.9640894E0,1.9496742E-1,1.2021111E0,-5.387104E-1,-1.4211646E0,-1.3765807E0,1.2056696E0,-8.378183E-2,7.224732E-2,6.1979752E-2,2.2221973E-2,2.6935214E-2,6.980003E-2,6.1135013E-2,-1.0284465E-1,6.693039E-2,-7.594338E-2,-1.0638417E-1,-7.52895E-2,2.2714883E-2,-7.9350315E-2,-7.624485E-2,6.376817E-2,-5.3337734E-2,1.14186406E-1,-7.313796E-2,4.471506E-2,-6.92872E-2,-6.259245E-3,-6.879719E-2,6.900595E-2],"categories":[],"categories_nodes":[],"categories_segments":[],"categories_sizes":[],"default_left":[0,0,0,0,0,0,0,0,0,0,0,0,0,1,0,0,0,0,0,0,0,0,0,0,0,0,0,0,0,0,0,0,0,0,0,0,0,0,0,0,0,0,0,0,0,0,0,0,0,0,0,0,0,0,0,0,0,0,0,0,0,0,0],"id":11,"left_children":[1,3,5,7,9,11,13,15,-1,17,19,21,-1,23,-1,25,-1,27,-1,29,-1,31,33,35,37,39,41,43,45,-1,47,-1,49,51,53,55,57,59,61,-1,-1,-1,-1,-1,-1,-1,-1,-1,-1,-1,-1,-1,-1,-1,-1,-1,-1,-1,-1,-1,-1,-1,-1],"loss_changes":[5.118568E5,4.528E3,2.8946719E3,2.395621E3,2.5399062E3,5.069499E3,1.2471875E3,1.2582426E3,0E0,9.765E2,4.073829E2,6.7002954E2,0E0,2.6180938E3,0E0,9.049166E2,0E0,1.925625E2,0E0,1.1136602E2,0E0,5.859253E0,5.3877167E2,3.8417988E3,1.293E3,6.4586414E2,1.3882178E2,9.565625E1,7.431904E2,0E0,5.7394806E1,0E0,4.1004944E0,9.3084784E2,1.461643E2,1.699805E4,8.3906836E2,4.5153125E2,8.978769E1,0E0,0E0,0E0,0E0,0E0,0E0,0E0,0E0,0E0,0E0,0E0,0E0,0E0,0E0,0E0,0E0,0E0,0E0,0E0,0E0,0E0,0E0,0E0,0E0],"parents":[2147483647,0,0,1,1,2,2,3,3,4,4,5,5,6,6,7,7,9,9,10,10,11,11,13,13,15,15,17,17,19,19,21,21,22,22,23,23,24,24,25,25,26,26,27,27,28,28,30,30,32,32,33,33,34,34,35,35,36,36,37,37,38,38],"right_children":[2,4,6,8,10,12,14,16,-1,18,20,22,-1,24,-1,26,-1,28,-1,30,-1,32,34,36,38,40,42,44,46,-1,48,-1,50,52,54,56,58,60,62,-1,-1,-1,-1,-1,-1,-1,-1,-1,-1,-1,-1,-1,-1,-1,-1,-1,-1,-1,-1,-1,-1,-1,-1],"split_conditions":[2.5540745E0,9.99825E-1,2E3,6.02E2,1E0,5E0,5E0,8.388E-3,-7.003431E-2,5E0,3E0,-3.4739455E-7,-7.016175E-2,5E3,-7.021447E-2,6.568E-3,-6.990178E-2,1.9838103E0,-6.96664E-2,1.5E2,-6.996054E-2,3.75143E-1,9.99053E-1,6.02E2,5E0,4E0,2E2,2.657E-3,8E3,-6.8444334E-2,1.54E2,-6.9758765E-2,2E0,9.5671986E-8,1.48E2,5.99E2,4.4656266E-3,2E-1,1.166E-3,-8.378183E-2,7.224732E-2,6.1979752E-2,2.2221973E-2,2.6935214E-2,6.980003E-2,6.1135013E-2,-1.0284465E-1,6.693039E-2,-7.594338E-2,-1.0638417E-1,-7.52895E-2,2.2714883E-2,-7.9350315E-2,-7.624485E-2,6.376817E-2,-5.3337734E-2,1.14186406E-1,-7.313796E-2,4.471506E-2,-6.92872E-2,-6.259245E-3,-6.879719E-2,6.900595E-2],"split_indices":[18,5,35,31,34,6,6,16,0,6,2,14,0,35,0,8,0,18,0,31,0,4,5,31,7,23,38,0,35,0,31,0,7,14,31,31,15,16,0,0,0,0,0,0,0,0,0,0,0,0,0,0,0,0,0,0,0,0,0,0,0,0,0],"split_type":[0,0,0,0,0,0,0,0,0,0,0,0,0,0,0,0,0,0,0,0,0,0,0,0,0,0,0,0,0,0,0,0,0,0,0,0,0,0,0,0,0,0,0,0,0,0,0,0,0,0,0,0,0,0,0,0,0,0,0,0,0,0,0],"sum_hessian":[2.9253997E5,1.4315227E5,1.4938769E5,3.2835144E3,1.3986875E5,6.7127305E3,1.4267497E5,2.5498574E3,7.33657E2,1.39374E5,4.9475824E2,2.8677803E3,3.8449502E3,5.968462E4,8.299034E4,2.2819937E3,2.678639E2,1.3924852E5,1.2548596E2,1.21748055E2,3.7301016E2,1.3507533E2,2.7327048E3,2.0100129E4,3.9584492E4,3.0732697E2,1.9746666E3,1.357172E5,3.5313147E3,2.0633947E1,1.0111411E2,3.8651413E1,9.642392E1,2.0117404E3,7.209646E2,1.1402602E4,8.697526E3,3.939034E4,1.941518E2,2.1188121E2,9.5445755E1,1.7213357E3,2.5333086E2,1.3187389E2,1.3558533E5,3.461681E3,6.963368E1,9.4343216E1,6.7708955E0,6.837448E1,2.8049437E1,1.7568163E3,2.5492406E2,1.8341398E1,7.0262317E2,9.606048E3,1.796554E3,8.544405E3,1.5312123E2,3.9103895E4,2.8644662E2,1.1853198E1,1.822986E2],"tree_param":{"num_deleted":"0","num_feature":"39","num_nodes":"63","size_leaf_vector":"1"}},{"base_weights":[9.11133E-5,1.3247482E0,-1.266453E0,1.8547687E-1,1.3516598E0,-2.8804034E-1,-1.2859249E0,6.307501E-1,-6.8671696E-2,1.3595387E0,-8.638975E-1,4.7188923E-1,-1.1578493E0,-1.1566788E0,-6.883327E-2,-1.3896687E0,8.621778E-1,1.3620055E0,-6.829961E-2,6.851051E-1,-6.859706E-2,-6.973987E-2,1.0600505E0,1.4946809E-2,-1.4422557E0,-8.253024E-1,-1.3440943E0,-6.855189E-2,-1.1643646E-1,1.1103967E0,-7.024209E-1,1.3681655E0,1.1266451E0,-6.742295E-2,1.1054926E0,-8.263852E-2,1.1553919E0,1.1805992E0,-7.300052E-2,-7.0839465E-2,-1.5424241E0,-1.0519767E0,-2.7882385E-3,-1.3568743E0,1.1806474E0,6.0630333E-2,2.1278027E-2,-8.1278265E-2,7.06399E-2,2.5804413E-2,6.845049E-2,-1.1555219E-1,5.921347E-2,-6.0861375E-2,6.1784364E-2,6.0520437E-2,-8.629182E-2,-7.530827E-2,8.921584E-2,-6.8562746E-2,-8.886553E-2,-3.344852E-2,-7.157191E-2,-5.8556326E-2,1.8243862E-2,-4.666653E-2,-6.837696E-2,-6.7511365E-2,6.7647934E-2],"categories":[],"categories_nodes":[],"categories_segments":[],"categories_sizes":[],"default_left":[0,0,0,0,0,0,0,0,0,0,0,0,0,1,0,0,0,0,0,0,0,0,0,0,0,0,0,0,0,0,0,0,0,0,0,0,0,1,0,0,0,0,0,0,0,0,0,0,0,0,0,0,0,0,0,0,0,0,0,0,0,0,0,0,0,0,0,0,0],"id":12,"left_children":[1,3,5,7,9,11,13,15,-1,17,19,21,23,25,-1,27,29,31,-1,33,-1,-1,35,37,39,41,43,-1,-1,45,47,49,51,-1,53,-1,55,57,-1,-1,59,61,63,65,67,-1,-1,-1,-1,-1,-1,-1,-1,-1,-1,-1,-1,-1,-1,-1,-1,-1,-1,-1,-1,-1,-1,-1,-1],"loss_changes":[4.7655122E5,4.2564375E3,2.7660625E3,2.2256292E3,2.3687812E3,1.8742944E3,1.668125E3,1.1671904E3,0E0,9.105469E2,3.7964853E2,1.6633278E3,4.4100928E2,3.6464922E3,0E0,1.2976685E0,8.699387E2,1.9421875E2,0E0,1.0366625E2,0E0,0E0,2.9975293E2,4.4706714E2,5.288086E-1,3.9563105E3,1.2120391E3,0E0,0E0,1.3471533E2,6.0185895E2,9.39375E1,6.86103E2,0E0,3.1621956E1,0E0,1.7852441E2,2.3826933E2,0E0,0E0,5.7813416E0,2.4167754E3,1.9701729E3,1.6732812E2,8.445517E1,0E0,0E0,0E0,0E0,0E0,0E0,0E0,0E0,0E0,0E0,0E0,0E0,0E0,0E0,0E0,0E0,0E0,0E0,0E0,0E0,0E0,0E0,0E0,0E0],"parents":[2147483647,0,0,1,1,2,2,3,3,4,4,5,5,6,6,7,7,9,9,10,10,11,11,12,12,13,13,15,15,16,16,17,17,19,19,22,22,23,23,24,24,25,25,26,26,29,29,30,30,31,31,32,32,34,34,36,36,37,37,40,40,41,41,42,42,43,43,44,44],"right_children":[2,4,6,8,10,12,14,16,-1,18,20,22,24,26,-1,28,30,32,-1,34,-1,-1,36,38,40,42,44,-1,-1,46,48,50,52,-1,54,-1,56,58,-1,-1,60,62,64,66,68,-1,-1,-1,-1,-1,-1,-1,-1,-1,-1,-1,-1,-1,-1,-1,-1,-1,-1,-1,-1,-1,-1,-1,-1],"split_conditions":[2.5540745E0,9.99825E-1,3.2751887E0,6.02E2,1E0,5E3,5E0,1.073E3,-6.8671696E-2,5E0,3E0,1.48E2,1.6E1,5E3,-6.883327E-2,1.072E3,1.16E3,1.9838103E0,-6.829961E-2,1.2E1,-6.859706E-2,-6.973987E-2,-3.2461872E-7,1.25E-1,1E0,4.566E-3,5E0,-6.855189E-2,-1.1643646E-1,2E2,4E0,2.657E-3,1.9E1,-6.742295E-2,1.48E2,-8.263852E-2,1.012E3,1.67E2,-7.300052E-2,-7.0839465E-2,1.48E2,6.02E2,1.48E2,-4.7259658E-7,2.0335598E0,6.0630333E-2,2.1278027E-2,-8.1278265E-2,7.06399E-2,2.5804413E-2,6.845049E-2,-1.1555219E-1,5.921347E-2,-6.0861375E-2,6.1784364E-2,6.0520437E-2,-8.629182E-2,-7.530827E-2,8.921584E-2,-6.8562746E-2,-8.886553E-2,-3.344852E-2,-7.157191E-2,-5.8556326E-2,1.8243862E-2,-4.666653E-2,-6.837696E-2,-6.7511365E-2,6.7647934E-2],"split_indices":[18,5,18,31,34,35,6,1,0,6,2,31,1,35,0,1,1,18,0,1,0,0,14,0,34,0,7,0,0,38,23,0,1,0,31,0,31,38,0,0,31,31,31,14,17,0,0,0,0,0,0,0,0,0,0,0,0,0,0,0,0,0,0,0,0,0,0,0,0],"split_type":[0,0,0,0,0,0,0,0,0,0,0,0,0,0,0,0,0,0,0,0,0,0,0,0,0,0,0,0,0,0,0,0,0,0,0,0,0,0,0,0,0,0,0,0,0,0,0,0,0,0,0,0,0,0,0,0,0,0,0,0,0,0,0,0,0,0,0,0,0],"sum_hessian":[2.8404212E5,1.3883592E5,1.4520619E5,3.2040579E3,1.3563188E5,2.8337449E3,1.4237244E5,2.4926694E3,7.113883E2,1.3515164E5,4.802292E2,1.5126442E3,1.3211006E3,5.873168E4,8.3640766E4,2.5566331E2,2.237006E3,1.3502992E5,1.2171298E2,1.1851963E2,3.6170956E2,3.6208844E2,1.1505558E3,2.5802792E2,1.0630726E3,2.1218979E4,3.7512703E4,2.5310178E2,2.5615275E0,1.930956E3,3.060502E2,1.3158123E5,3.4486985E3,1.9925457E1,9.859418E1,3.850854E1,1.1120472E3,1.4423735E2,1.1379059E2,8.596598E2,2.034129E2,1.6634457E4,4.5845215E3,3.732423E4,1.8847188E2,1.6795216E3,2.514344E2,2.1322427E2,9.282593E1,1.308409E2,1.3145039E5,5.6211132E1,3.3924875E3,4.7899747E0,9.38042E1,1.0917797E3,2.02675E1,2.618953E1,1.1804782E2,1.2162151E2,8.179138E1,8.279934E3,8.354522E3,1.0968507E3,3.4876707E3,9.18912E2,3.6405316E4,1.1578162E1,1.7689372E2],"tree_param":{"num_deleted":"0","num_feature":"39","num_nodes":"69","size_leaf_vector":"1"}},{"base_weights":[9.570104E-5,1.3003126E0,-1.240132E0,1.8071087E-1,1.3269323E0,-2.8050154E-1,-1.2593617E0,6.1381656E-1,-6.742477E-2,1.3346741E0,-8.4728265E-1,4.571867E-1,-1.1302665E0,-1.1287416E0,-6.75811E-2,-1.3636888E0,8.384373E-1,1.3370966E0,-6.704692E-2,6.6823524E-1,-6.734894E-2,-6.841122E-2,1.0238091E0,1.3610174E-2,-1.4117671E0,-7.978003E-1,-1.3186707E0,-6.730125E-2,-1.08835675E-1,1.078956E0,-6.865892E-1,1.3434322E0,1.0970192E0,-6.567293E-2,1.0804948E0,-7.996051E-2,1.1159387E0,1.125626E0,-7.138064E-2,-6.9423996E-2,-1.5021015E0,-1.0204285E0,-2.804457E-3,-1.3312124E0,1.1575794E0,4.313056E-2,7.0439026E-2,-7.941075E-2,6.917392E-2,2.4720563E-2,6.721471E-2,5.8166828E-2,-1.0057189E-1,6.420569E-2,-7.4671894E-2,5.8604844E-2,-8.513242E-2,-7.33933E-2,8.4732085E-2,-6.729057E-2,-8.554187E-2,-3.213502E-2,-7.008391E-2,-5.6734394E-2,1.7324025E-2,-4.52432E-2,-6.710385E-2,-6.606259E-2,6.637715E-2],"categories":[],"categories_nodes":[],"categories_segments":[],"categories_sizes":[],"default_left":[0,0,0,0,0,0,0,0,0,0,0,0,0,1,0,0,0,0,0,0,0,0,0,0,0,0,0,0,0,0,0,0,0,0,0,0,0,1,0,0,0,0,0,0,0,0,0,0,0,0,0,0,0,0,0,0,0,0,0,0,0,0,0,0,0,0,0,0,0],"id":13,"left_children":[1,3,5,7,9,11,13,15,-1,17,19,21,23,25,-1,27,29,31,-1,33,-1,-1,35,37,39,41,43,-1,-1,45,47,49,51,-1,53,-1,55,57,-1,-1,59,61,63,65,67,-1,-1,-1,-1,-1,-1,-1,-1,-1,-1,-1,-1,-1,-1,-1,-1,-1,-1,-1,-1,-1,-1,-1,-1],"loss_changes":[4.4421906E5,4.0078594E3,2.601375E3,2.0701438E3,2.2122344E3,1.7375631E3,1.6641562E3,1.0829636E3,0E0,8.501875E2,3.5432343E2,1.5363728E3,4.1475098E2,3.5956172E3,0E0,6.43219E-1,8.031802E2,1.9745312E2,0E0,9.650629E1,0E0,0E0,2.7560083E2,4.1085645E2,8.862305E-2,3.6933154E3,1.1305781E3,0E0,0E0,1.3365112E2,5.595837E2,9.259375E1,6.9661914E2,0E0,5.270053E1,0E0,1.7535425E2,2.1602602E2,0E0,0E0,4.209961E0,2.3467754E3,1.8056614E3,1.6633594E2,7.9163605E1,0E0,0E0,0E0,0E0,0E0,0E0,0E0,0E0,0E0,0E0,0E0,0E0,0E0,0E0,0E0,0E0,0E0,0E0,0E0,0E0,0E0,0E0,0E0,0E0],"parents":[2147483647,0,0,1,1,2,2,3,3,4,4,5,5,6,6,7,7,9,9,10,10,11,11,12,12,13,13,15,15,16,16,17,17,19,19,22,22,23,23,24,24,25,25,26,26,29,29,30,30,31,31,32,32,34,34,36,36,37,37,40,40,41,41,42,42,43,43,44,44],"right_children":[2,4,6,8,10,12,14,16,-1,18,20,22,24,26,-1,28,30,32,-1,34,-1,-1,36,38,40,42,44,-1,-1,46,48,50,52,-1,54,-1,56,58,-1,-1,60,62,64,66,68,-1,-1,-1,-1,-1,-1,-1,-1,-1,-1,-1,-1,-1,-1,-1,-1,-1,-1,-1,-1,-1,-1,-1,-1],"split_conditions":[2.5540745E0,9.99825E-1,3.2751887E0,6.02E2,1E0,5E3,5E0,1.073E3,-6.742477E-2,5E0,3E0,1.48E2,1.6E1,5E3,-6.75811E-2,1.072E3,1.16E3,1.9838103E0,-6.704692E-2,1.5E2,-6.734894E-2,-6.841122E-2,-3.2461872E-7,1.25E-1,1E0,4.566E-3,5E0,-6.730125E-2,-1.08835675E-1,5.99E2,4E0,2.657E-3,8E3,-6.567293E-2,1.54E2,-7.996051E-2,7E0,1.67E2,-7.138064E-2,-6.9423996E-2,1.48E2,6.02E2,1.48E2,-4.7259658E-7,1.166E-3,4.313056E-2,7.0439026E-2,-7.941075E-2,6.917392E-2,2.4720563E-2,6.721471E-2,5.8166828E-2,-1.0057189E-1,6.420569E-2,-7.4671894E-2,5.8604844E-2,-8.513242E-2,-7.33933E-2,8.4732085E-2,-6.729057E-2,-8.554187E-2,-3.213502E-2,-7.008391E-2,-5.6734394E-2,1.7324025E-2,-4.52432E-2,-6.710385E-2,-6.606259E-2,6.637715E-2],"split_indices":[18,5,18,31,34,35,6,1,0,6,2,31,1,35,0,1,1,18,0,31,0,0,14,0,34,0,7,0,0,31,23,0,35,0,31,0,7,38,0,0,31,31,31,14,0,0,0,0,0,0,0,0,0,0,0,0,0,0,0,0,0,0,0,0,0,0,0,0,0],"split_type":[0,0,0,0,0,0,0,0,0,0,0,0,0,0,0,0,0,0,0,0,0,0,0,0,0,0,0,0,0,0,0,0,0,0,0,0,0,0,0,0,0,0,0,0,0,0,0,0,0,0,0,0,0,0,0,0,0,0,0,0,0,0,0,0,0,0,0,0,0],"sum_hessian":[2.754716E5,1.3448333E5,1.4098827E5,3.1234023E3,1.3135992E5,2.7700205E3,1.3821825E5,2.4344966E3,6.8890576E2,1.3089423E5,4.656896E2,1.4830415E3,1.286979E3,5.7220254E4,8.099799E4,2.4780571E2,2.186691E3,1.3077633E5,1.1790298E2,1.15389626E2,3.503E2,3.509662E2,1.1320753E3,2.5435594E2,1.032623E3,2.0866568E4,3.6353688E4,2.4513544E2,2.6702766E0,1.8890525E3,2.9763837E2,1.274094E5,3.366927E3,1.9494648E1,9.589497E1,3.7858166E1,1.0942172E3,1.4369954E2,1.1065641E2,8.3399884E2,1.986242E2,1.6301314E4,4.5652544E3,3.617095E4,1.8273518E2,1.1429574E3,7.460951E2,2.0749564E2,9.014274E1,1.2981897E2,1.2727958E5,3.2972085E3,6.971838E1,8.932941E1,6.565573E0,1.0734143E3,2.0802814E1,2.5570986E1,1.18128555E2,1.1783962E2,8.0784584E1,8.1898247E3,8.11149E3,1.0760352E3,3.4892192E3,9.009231E2,3.5270027E4,1.1290801E1,1.7144438E2],"tree_param":{"num_deleted":"0","num_feature":"39","num_nodes":"69","size_leaf_vector":"1"}},{"base_weights":[1.00071746E-4,1.2778352E0,-1.2156609E0,1.7619024E-1,1.3042115E0,-6.0468316E-1,-1.2451034E0,5.976892E-1,-6.6280656E-2,1.3118265E0,-8.322074E-1,3.040932E-1,-6.652096E-2,-1.1304433E0,-6.644359E-2,-1.3398328E0,8.1577945E-1,1.3142083E0,-6.58956E-2,6.531594E-1,-6.620335E-2,-5.971663E-1,5.401417E-1,-8.3354926E-1,-1.2871715E0,-6.615303E-2,-1.0227936E-1,1.048818E0,-6.72064E-1,1.3207189E0,1.0695084E0,-6.519736E-2,1.0569273E0,6.060231E-1,-1.8252479E0,-1.6814287E0,6.499599E-1,-4.7386613E-1,-1.3325073E0,-1.2991588E0,1.1362548E0,5.7715494E-2,1.763643E-2,-7.769688E-2,6.783255E-2,2.3681121E-2,6.608008E-2,5.673793E-2,-9.568836E-2,5.868212E-2,-7.66807E-2,-7.691503E-2,7.7024415E-2,-6.958155E-2,-9.6621394E-2,-6.680204E-2,-9.042194E-2,-2.4161907E-2,3.9572716E-2,-5.005893E-2,1.1067446E-1,-6.866824E-2,3.8405027E-2,-6.541877E-2,-5.5920994E-3,-6.5001905E-2,6.5229274E-2],"categories":[],"categories_nodes":[],"categories_segments":[],"categories_sizes":[],"default_left":[0,0,0,0,0,0,0,0,0,0,0,0,0,1,0,0,0,0,0,0,0,0,0,0,0,0,0,0,0,0,0,0,0,0,0,0,0,0,0,0,0,0,0,0,0,0,0,0,0,0,0,0,0,0,0,0,0,0,0,0,0,0,0,0,0,0,0],"id":14,"left_children":[1,3,5,7,9,11,13,15,-1,17,19,21,-1,23,-1,25,27,29,-1,31,-1,33,35,37,39,-1,-1,41,43,45,47,-1,49,51,53,55,57,59,61,63,65,-1,-1,-1,-1,-1,-1,-1,-1,-1,-1,-1,-1,-1,-1,-1,-1,-1,-1,-1,-1,-1,-1,-1,-1,-1,-1],"loss_changes":[4.1456106E5,3.7806562E3,2.4592188E3,1.9274736E3,2.0684688E3,4.148131E3,1.2515781E3,1.00565015E3,0E0,7.948281E2,3.310548E2,5.945361E2,0E0,2.5620234E3,0E0,1.4517212E-1,7.418085E2,2.00125E2,0E0,9.0749725E1,0E0,8.584033E2,5.412258E2,3.4153828E3,1.0487461E3,0E0,0E0,1.3532275E2,5.210415E2,9.1515625E1,6.4144385E2,0E0,3.0314224E1,5.911166E2,1.0666565E1,2.170868E0,3.3876276E2,1.5678459E4,6.8533105E2,3.9241016E2,7.4683975E1,0E0,0E0,0E0,0E0,0E0,0E0,0E0,0E0,0E0,0E0,0E0,0E0,0E0,0E0,0E0,0E0,0E0,0E0,0E0,0E0,0E0,0E0,0E0,0E0,0E0,0E0],"parents":[2147483647,0,0,1,1,2,2,3,3,4,4,5,5,6,6,7,7,9,9,10,10,11,11,13,13,15,15,16,16,17,17,19,19,21,21,22,22,23,23,24,24,27,27,28,28,29,29,30,30,32,32,33,33,34,34,35,35,36,36,37,37,38,38,39,39,40,40],"right_children":[2,4,6,8,10,12,14,16,-1,18,20,22,-1,24,-1,26,28,30,-1,32,-1,34,36,38,40,-1,-1,42,44,46,48,-1,50,52,54,56,58,60,62,64,66,-1,-1,-1,-1,-1,-1,-1,-1,-1,-1,-1,-1,-1,-1,-1,-1,-1,-1,-1,-1,-1,-1,-1,-1,-1,-1],"split_conditions":[2.5540745E0,9.99825E-1,2E3,6.02E2,1E0,7E0,5E0,1.073E3,-6.6280656E-2,5E0,3E0,1.0510705E0,-6.652096E-2,5E3,-6.644359E-2,1.072E3,1.16E3,1.9838103E0,-6.58956E-2,1.2E1,-6.620335E-2,1.5E2,4.566E-3,6.02E2,5E0,-6.615303E-2,-1.0227936E-1,2E2,4E0,2.657E-3,8E3,-6.519736E-2,1.54E2,1.48E2,3.80463E-1,3.71247E-1,3.85207E-1,5.99E2,4.4656266E-3,2E-1,2.0335598E0,5.7715494E-2,1.763643E-2,-7.769688E-2,6.783255E-2,2.3681121E-2,6.608008E-2,5.673793E-2,-9.568836E-2,5.868212E-2,-7.66807E-2,-7.691503E-2,7.7024415E-2,-6.958155E-2,-9.6621394E-2,-6.680204E-2,-9.042194E-2,-2.4161907E-2,3.9572716E-2,-5.005893E-2,1.1067446E-1,-6.866824E-2,3.8405027E-2,-6.541877E-2,-5.5920994E-3,-6.5001905E-2,6.5229274E-2],"split_indices":[18,5,35,31,34,7,6,1,0,6,2,17,0,35,0,1,1,18,0,1,0,31,0,31,7,0,0,38,23,0,35,0,31,31,4,4,4,31,15,16,17,0,0,0,0,0,0,0,0,0,0,0,0,0,0,0,0,0,0,0,0,0,0,0,0,0,0],"split_type":[0,0,0,0,0,0,0,0,0,0,0,0,0,0,0,0,0,0,0,0,0,0,0,0,0,0,0,0,0,0,0,0,0,0,0,0,0,0,0,0,0,0,0,0,0,0,0,0,0,0,0,0,0,0,0,0,0,0,0,0,0,0,0,0,0,0,0],"sum_hessian":[2.668678E5,1.3011747E5,1.3675033E5,3.042689E3,1.2707478E5,6.2878955E3,1.3046244E5,2.3763423E3,6.663467E2,1.2662383E5,4.5094864E2,2.7921316E3,3.4957637E3,5.508208E4,7.538036E4,2.3990181E2,2.1364404E3,1.2650975E5,1.1407923E2,1.1209748E2,3.3885114E2,5.7918994E2,2.2129417E3,1.903324E4,3.604884E4,2.371408E2,2.7610114E0,1.8473829E3,2.8905756E2,1.23226695E5,3.2830605E3,1.8790154E1,9.330733E1,2.928158E2,2.8637415E2,1.0356478E2,2.109377E3,1.1061386E4,7.971854E3,3.5871863E4,1.7697476E2,1.603687E3,2.4369598E2,2.0163968E2,8.741788E1,1.2881143E2,1.2309788E5,3.213397E3,6.966364E1,8.9808044E1,3.499288E0,8.867848E1,2.0413733E2,5.9527725E1,2.2684642E2,3.0941738E1,7.262305E1,2.3387854E2,1.8754984E3,9.247475E3,1.8139106E3,7.8200967E3,1.5175742E2,3.559545E4,2.7641464E2,1.1002967E1,1.659718E2],"tree_param":{"num_deleted":"0","num_feature":"39","num_nodes":"67","size_leaf_vector":"1"}},{"base_weights":[9.086928E-5,1.2570947E0,-1.1929975E0,1.7192906E-1,1.2832626E0,-2.5142562E-1,-1.2122511E0,5.824887E-1,-6.5228336E-2,1.2907654E0,-8.175925E-1,4.5688835E-1,-1.0803455E0,-1.0789996E0,-6.537746E-2,-6.58937E-2,7.9441017E-1,1.2931097E0,-6.483471E-2,6.3657594E-1,-6.5149255E-2,-6.605484E-2,9.8695105E-1,2.9479032E-2,-6.816416E-2,-7.49891E-1,-1.273528E0,1.0203362E0,-6.586822E-1,1.299809E0,1.0434556E0,-6.394675E-2,1.0383816E0,-7.735359E-2,1.0759968E0,1.0924429E0,-6.9476806E-2,-9.710812E-1,1.8782945E-2,-1.2856469E0,1.1164689E0,-1.3807102E-1,5.1987138E-2,-7.611706E-2,6.66015E-2,2.2683743E-2,6.503572E-2,-1.1550939E-1,5.5208016E-2,6.1853506E-2,-7.047116E-2,5.6516327E-2,-8.49469E-2,-7.064743E-2,8.107895E-2,-3.0544281E-2,-6.748205E-2,-5.347575E-2,1.7233219E-2,-4.1906983E-2,-6.48619E-2,-6.374204E-2,6.41441E-2],"categories":[],"categories_nodes":[],"categories_segments":[],"categories_sizes":[],"default_left":[0,0,0,0,0,0,0,0,0,0,0,0,0,1,0,0,0,0,0,0,0,0,0,0,0,0,0,0,0,0,0,0,0,0,0,1,0,0,0,0,0,0,0,0,0,0,0,0,0,0,0,0,0,0,0,0,0,0,0,0,0,0,0],"id":15,"left_children":[1,3,5,7,9,11,13,15,-1,17,19,21,23,25,-1,-1,27,29,-1,31,-1,-1,33,35,-1,37,39,41,43,45,47,-1,49,-1,51,53,-1,55,57,59,61,-1,-1,-1,-1,-1,-1,-1,-1,-1,-1,-1,-1,-1,-1,-1,-1,-1,-1,-1,-1,-1,-1],"loss_changes":[3.8732088E5,3.5709844E3,2.4017656E3,1.796541E3,1.9366719E3,1.5601472E3,1.6474219E3,9.34803E2,0E0,7.4390625E2,3.0971375E2,1.3519164E3,3.8447815E2,3.465586E3,0E0,0E0,6.8567993E2,2.03125E2,0E0,8.613549E1,0E0,0E0,2.5089893E2,3.7814056E2,0E0,3.420497E3,9.8710156E2,1.3543054E2,4.857951E2,9.0625E1,6.540066E2,0E0,4.630979E1,0E0,1.6287903E2,1.92282E2,0E0,2.1293691E3,1.5950411E3,1.7453906E2,7.017059E1,0E0,0E0,0E0,0E0,0E0,0E0,0E0,0E0,0E0,0E0,0E0,0E0,0E0,0E0,0E0,0E0,0E0,0E0,0E0,0E0,0E0,0E0],"parents":[2147483647,0,0,1,1,2,2,3,3,4,4,5,5,6,6,7,7,9,9,10,10,11,11,12,12,13,13,16,16,17,17,19,19,22,22,23,23,25,25,26,26,27,27,28,28,29,29,30,30,32,32,34,34,35,35,37,37,38,38,39,39,40,40],"right_children":[2,4,6,8,10,12,14,16,-1,18,20,22,24,26,-1,-1,28,30,-1,32,-1,-1,34,36,-1,38,40,42,44,46,48,-1,50,-1,52,54,-1,56,58,60,62,-1,-1,-1,-1,-1,-1,-1,-1,-1,-1,-1,-1,-1,-1,-1,-1,-1,-1,-1,-1,-1,-1],"split_conditions":[2.5540745E0,9.99825E-1,3.2751887E0,6.02E2,1E0,5E3,5E0,1.073E3,-6.5228336E-2,5E0,3E0,1.48E2,1.6E1,5E3,-6.537746E-2,-6.58937E-2,1.16E3,1.9838103E0,-6.483471E-2,1.5E2,-6.5149255E-2,-6.605484E-2,-3.2461872E-7,1.25E-1,-6.816416E-2,4.566E-3,5E0,2.35053E-1,4E0,2.657E-3,1.9E1,-6.394675E-2,1.54E2,-7.735359E-2,1.012E3,1.67E2,-6.9476806E-2,6.02E2,1.48E2,-4.7259658E-7,1.166E-3,-1.3807102E-1,5.1987138E-2,-7.611706E-2,6.66015E-2,2.2683743E-2,6.503572E-2,-1.1550939E-1,5.5208016E-2,6.1853506E-2,-7.047116E-2,5.6516327E-2,-8.49469E-2,-7.064743E-2,8.107895E-2,-3.0544281E-2,-6.748205E-2,-5.347575E-2,1.7233219E-2,-4.1906983E-2,-6.48619E-2,-6.374204E-2,6.41441E-2],"split_indices":[18,5,18,31,34,35,6,1,0,6,2,31,1,35,0,0,1,18,0,31,0,0,14,0,0,0,7,4,23,0,1,0,31,0,31,38,0,31,31,14,0,0,0,0,0,0,0,0,0,0,0,0,0,0,0,0,0,0,0,0,0,0,0],"split_type":[0,0,0,0,0,0,0,0,0,0,0,0,0,0,0,0,0,0,0,0,0,0,0,0,0,0,0,0,0,0,0,0,0,0,0,0,0,0,0,0,0,0,0,0,0,0,0,0,0,0,0,0,0,0,0,0,0,0,0,0,0,0,0],"sum_hessian":[2.5826072E5,1.257617E5,1.3249902E5,2.9614087E3,1.228003E5,2.6553774E3,1.2984363E5,2.3175796E3,6.43829E2,1.2236369E5,4.366107E2,1.4320964E3,1.223281E3,5.4145957E4,7.569767E4,2.3199477E2,2.085585E3,1.2225342E5,1.10261795E2,1.0918779E2,3.2742288E2,3.2855032E2,1.1035461E3,2.4868982E2,9.7459125E2,2.011673E4,3.4029227E4,1.8052097E3,2.8037515E2,1.1905445E5,3.198969E3,1.855385E1,9.063394E1,3.6906433E1,1.0666398E3,1.4231433E2,1.0637548E2,1.562134E4,4.4953916E3,3.3858004E4,1.7122261E2,8.49501E0,1.7967147E3,1.9570496E2,8.467018E1,1.2782101E2,1.1892663E5,5.6216576E1,3.1427524E3,8.428698E1,6.346959E0,1.0467386E3,1.990113E1,2.4524355E1,1.1778998E2,8.006167E3,7.6151724E3,1.0353856E3,3.460006E3,8.5667285E2,3.3001332E4,1.0706881E1,1.6051572E2],"tree_param":{"num_deleted":"0","num_feature":"39","num_nodes":"63","size_leaf_vector":"1"}},{"base_weights":[9.432729E-5,1.2378849E0,-1.1715976E0,1.6783607E-1,1.2638814E0,-1.0147347E0,-6.441462E-2,5.6794214E-1,-6.425823E-2,1.2712768E0,-8.046848E-1,3.3176247E-2,-1.1070546E0,-6.489436E-2,7.7386E-1,1.2735864E0,-6.3854754E-2,6.232488E-1,-6.4177126E-2,-1.0031034E0,4.053063E-1,-3.8889298E-1,-1.1614592E0,9.9287736E-1,-6.463074E-1,1.2805145E0,1.0178884E0,-6.282898E-2,1.0173286E0,9.103747E-2,-1.3551528E0,1.1390557E-1,9.757481E-1,-1.1858076E0,1.147932E0,-9.9620247E-1,-1.299903E0,6.736643E-2,3.8499698E-2,-7.4654914E-2,6.546854E-2,2.1726383E-2,6.407228E-2,5.4226723E-2,-9.385437E-2,6.0686287E-2,-6.862664E-2,-6.6389814E-2,1.10009186E-1,-8.14737E-2,-6.603106E-2,1.6764535E-2,-9.596767E-2,-1.1260676E-1,5.3531438E-2,3.902252E-2,-6.661566E-2,-6.934597E-2,9.1837406E-2,-6.4450845E-2,8.474308E-2,-6.44795E-2,-6.6403426E-2],"categories":[],"categories_nodes":[],"categories_segments":[],"categories_sizes":[],"default_left":[0,0,0,0,0,0,0,0,0,0,0,0,0,0,0,0,0,0,0,0,0,0,0,0,0,0,0,0,0,0,0,0,0,0,0,0,0,0,0,0,0,0,0,0,0,0,0,0,0,0,0,0,0,0,0,0,0,0,0,0,0,0,0],"id":16,"left_children":[1,3,5,7,9,11,-1,13,-1,15,17,19,21,-1,23,25,-1,27,-1,29,31,33,35,37,39,41,43,-1,45,47,49,51,53,55,57,59,61,-1,-1,-1,-1,-1,-1,-1,-1,-1,-1,-1,-1,-1,-1,-1,-1,-1,-1,-1,-1,-1,-1,-1,-1,-1,-1],"loss_changes":[3.6218238E5,3.3779062E3,2.3470312E3,1.6759017E3,1.8147188E3,5.29484E3,0E0,8.693307E2,0E0,6.969219E2,2.9000903E2,1.7096318E3,1.9648086E3,0E0,6.339336E2,2.0778125E2,0E0,8.046408E1,0E0,4.5133142E2,5.4210486E2,4.3412983E3,1.0684414E3,1.3835156E2,4.5347397E2,8.996875E1,6.0372217E2,0E0,4.340129E1,8.590542E2,6.2437744E0,9.729934E2,3.4014648E2,6.7340576E2,2.1162544E3,1.6800879E4,5.6796875E0,0E0,0E0,0E0,0E0,0E0,0E0,0E0,0E0,0E0,0E0,0E0,0E0,0E0,0E0,0E0,0E0,0E0,0E0,0E0,0E0,0E0,0E0,0E0,0E0,0E0,0E0],"parents":[2147483647,0,0,1,1,2,2,3,3,4,4,5,5,7,7,9,9,10,10,11,11,12,12,14,14,15,15,17,17,19,19,20,20,21,21,22,22,23,23,24,24,25,25,26,26,28,28,29,29,30,30,31,31,32,32,33,33,34,34,35,35,36,36],"right_children":[2,4,6,8,10,12,-1,14,-1,16,18,20,22,-1,24,26,-1,28,-1,30,32,34,36,38,40,42,44,-1,46,48,50,52,54,56,58,60,62,-1,-1,-1,-1,-1,-1,-1,-1,-1,-1,-1,-1,-1,-1,-1,-1,-1,-1,-1,-1,-1,-1,-1,-1,-1,-1],"split_conditions":[2.5540745E0,9.99825E-1,5E0,6.02E2,1E0,5E3,-6.441462E-2,1.073E3,-6.425823E-2,5E0,3E0,4.566E-3,1.54E2,-6.489436E-2,1.16E3,1.9838103E0,-6.3854754E-2,1.5E2,-6.4177126E-2,3.46472E-1,1.0578529E0,1.5E2,6.02E2,2E-1,4E0,2.657E-3,8E3,-6.282898E-2,1.54E2,3.44649E-1,2E3,8.54E2,2E0,2.654692E0,1E0,5.99E2,1E0,6.736643E-2,3.8499698E-2,-7.4654914E-2,6.546854E-2,2.1726383E-2,6.407228E-2,5.4226723E-2,-9.385437E-2,6.0686287E-2,-6.862664E-2,-6.6389814E-2,1.10009186E-1,-8.14737E-2,-6.603106E-2,1.6764535E-2,-9.596767E-2,-1.1260676E-1,5.3531438E-2,3.902252E-2,-6.661566E-2,-6.934597E-2,9.1837406E-2,-6.4450845E-2,8.474308E-2,-6.44795E-2,-6.6403426E-2],"split_indices":[18,5,6,31,34,35,0,1,0,6,2,16,31,0,1,18,0,31,0,4,17,31,31,23,23,0,35,0,31,4,35,31,26,18,34,31,34,0,0,0,0,0,0,0,0,0,0,0,0,0,0,0,0,0,0,0,0,0,0,0,0,0,0],"split_type":[0,0,0,0,0,0,0,0,0,0,0,0,0,0,0,0,0,0,0,0,0,0,0,0,0,0,0,0,0,0,0,0,0,0,0,0,0,0,0,0,0,0,0,0,0,0,0,0,0,0,0,0,0,0,0,0,0,0,0,0,0,0,0],"sum_hessian":[2.497257E5,1.2143749E5,1.282882E5,2.8804985E3,1.18557E5,5.4729633E4,7.355857E4,2.259045E3,6.214537E2,1.1813504E5,4.2195822E2,4.4312837E3,5.029835E4,2.2400691E2,2.0350381E3,1.1802857E5,1.0646777E2,1.0589181E2,3.1606644E2,1.1703859E3,3.2608977E3,3.5426208E3,4.675573E4,1.76339E3,2.7164807E2,1.1491103E5,3.1175415E3,1.7972286E1,8.791952E1,2.850902E2,8.852957E2,2.1591377E3,1.10176E3,2.3330535E3,1.2095674E3,2.1317625E4,2.5438105E4,6.7881934E2,1.0845707E3,1.8973225E2,8.191582E1,1.2685002E2,1.1478418E5,3.047998E3,6.9543335E1,8.169779E1,6.221726E0,1.7065808E2,1.1443212E2,9.381749E1,7.914782E2,1.9478834E3,2.112542E2,3.081124E1,1.0709489E3,1.6148122E2,2.1715723E3,2.5823737E2,9.5133E2,1.922615E4,2.091474E3,1.8654371E4,6.7837334E3],"tree_param":{"num_deleted":"0","num_feature":"39","num_nodes":"63","size_leaf_vector":"1"}},{"base_weights":[6.7017856E-5,1.2200899E0,-1.152103E0,1.6400188E-1,1.2459493E0,-9.942191E-1,-6.351599E-2,5.541102E-1,-6.336208E-2,1.2532456E0,-7.927018E-1,3.16493E-2,-1.0863339E0,-6.397031E-2,7.542674E-1,1.2555231E0,-6.294752E-2,6.1066455E-1,-6.32787E-2,-9.811125E-1,3.877625E-1,-1.2257544E0,-8.0638003E-1,9.6660876E-1,-6.3482386E-1,1.2626729E0,9.9411434E-1,-6.270643E-2,9.936762E-1,8.646113E-2,-1.3321973E0,-1.724967E0,4.6196556E-1,-1.2381994E0,1.1283981E0,-4.6636716E-1,-6.534878E-2,3.652255E-2,6.6330224E-2,-7.329675E-2,6.44231E-2,2.0807138E-2,6.31816E-2,-1.1157938E-1,5.281198E-2,5.5447496E-2,-6.9118306E-2,-6.5311104E-2,1.02309786E-1,-7.9118714E-2,-6.500541E-2,-6.7655966E-2,-9.127854E-2,-3.6506545E-2,2.922056E-2,-6.2386185E-2,-4.839064E-3,-6.16569E-2,6.418561E-2,-5.0398536E-2,9.9571906E-2],"categories":[],"categories_nodes":[],"categories_segments":[],"categories_sizes":[],"default_left":[0,0,0,0,0,0,0,0,0,0,0,0,0,0,0,0,0,0,0,0,0,0,0,0,0,0,0,0,0,0,0,0,0,0,0,0,0,0,0,0,0,0,0,0,0,0,0,0,0,0,0,0,0,0,0,0,0,0,0,0,0],"id":17,"left_children":[1,3,5,7,9,11,-1,13,-1,15,17,19,21,-1,23,25,-1,27,-1,29,31,33,35,37,39,41,43,-1,45,47,49,51,53,55,57,59,-1,-1,-1,-1,-1,-1,-1,-1,-1,-1,-1,-1,-1,-1,-1,-1,-1,-1,-1,-1,-1,-1,-1,-1,-1],"loss_changes":[3.3907062E5,3.1993438E3,2.3142188E3,1.5647863E3,1.7020312E3,5.019926E3,0E0,8.090821E2,0E0,6.535469E2,2.7181873E2,1.5792954E3,1.9015898E3,0E0,5.863806E2,2.1154688E2,0E0,7.525148E1,0E0,4.2709338E2,5.086859E2,9.546758E2,2.758162E3,1.4551208E2,4.2376282E2,8.9421875E1,6.106936E2,0E0,2.5229591E1,7.7468414E2,4.8253174E0,1.6498108E0,4.573841E2,3.5175E2,6.453229E1,1.2852667E4,0E0,0E0,0E0,0E0,0E0,0E0,0E0,0E0,0E0,0E0,0E0,0E0,0E0,0E0,0E0,0E0,0E0,0E0,0E0,0E0,0E0,0E0,0E0,0E0,0E0],"parents":[2147483647,0,0,1,1,2,2,3,3,4,4,5,5,7,7,9,9,10,10,11,11,12,12,14,14,15,15,17,17,19,19,20,20,21,21,22,22,23,23,24,24,25,25,26,26,28,28,29,29,30,30,31,31,32,32,33,33,34,34,35,35],"right_children":[2,4,6,8,10,12,-1,14,-1,16,18,20,22,-1,24,26,-1,28,-1,30,32,34,36,38,40,42,44,-1,46,48,50,52,54,56,58,60,-1,-1,-1,-1,-1,-1,-1,-1,-1,-1,-1,-1,-1,-1,-1,-1,-1,-1,-1,-1,-1,-1,-1,-1,-1],"split_conditions":[2.5540745E0,9.99825E-1,5E0,6.02E2,1E0,5E3,-6.351599E-2,1.073E3,-6.336208E-2,5E0,3E0,4.566E-3,1E0,-6.397031E-2,1.16E3,1.9838103E0,-6.294752E-2,1.2E1,-6.32787E-2,3.46472E-1,-3.4739455E-7,5E0,6.02E2,5.99E2,4E0,2.657E-3,1.9E1,-6.270643E-2,1.54E2,3.44649E-1,2E3,3.75143E-1,3.85207E-1,1.1111111E-1,2.0335598E0,5.99E2,-6.534878E-2,3.652255E-2,6.6330224E-2,-7.329675E-2,6.44231E-2,2.0807138E-2,6.31816E-2,-1.1157938E-1,5.281198E-2,5.5447496E-2,-6.9118306E-2,-6.5311104E-2,1.02309786E-1,-7.9118714E-2,-6.500541E-2,-6.7655966E-2,-9.127854E-2,-3.6506545E-2,2.922056E-2,-6.2386185E-2,-4.839064E-3,-6.16569E-2,6.418561E-2,-5.0398536E-2,9.9571906E-2],"split_indices":[18,5,6,31,34,35,0,1,0,6,2,16,34,0,1,18,0,1,0,4,14,7,31,31,23,0,1,0,31,4,35,4,4,19,17,31,0,0,0,0,0,0,0,0,0,0,0,0,0,0,0,0,0,0,0,0,0,0,0,0,0],"split_type":[0,0,0,0,0,0,0,0,0,0,0,0,0,0,0,0,0,0,0,0,0,0,0,0,0,0,0,0,0,0,0,0,0,0,0,0,0,0,0,0,0,0,0,0,0,0,0,0,0,0,0,0,0,0,0,0,0,0,0,0,0],"sum_hessian":[2.4121373E5,1.1715706E5,1.2405667E5,2.8003115E3,1.1435675E5,5.312087E4,7.0935805E4,2.2010051E3,5.993064E2,1.1394931E5,4.0743967E2,4.3768755E3,4.8743996E4,2.1609552E2,1.9849097E3,1.138466E5,1.02711754E2,1.026144E2,3.0482526E2,1.1381887E3,3.2386868E3,3.2536852E4,1.62071455E4,1.7219851E3,2.629246E2,1.1081195E5,3.034647E3,1.70973E1,8.5517105E1,2.8186166E2,8.56327E2,1.091345E2,3.1295522E3,3.2366225E4,1.7062703E2,9.652761E3,6.554384E3,1.0416741E3,6.8031104E2,1.8375581E2,7.916876E1,1.25900345E2,1.10686055E5,5.668143E1,2.9779656E3,8.206881E1,3.4482915E0,1.649638E2,1.16897865E2,9.1858765E1,7.6446826E2,2.6316057E1,8.281844E1,2.9104614E2,2.838506E3,3.2098295E4,2.6792914E2,1.0101101E1,1.6052594E2,7.9102446E3,1.7425166E3],"tree_param":{"num_deleted":"0","num_feature":"39","num_nodes":"61","size_leaf_vector":"1"}},{"base_weights":[5.721469E-5,1.2035171E0,-1.1335772E0,1.6030075E-1,1.2292739E0,-9.742883E-1,-6.268476E-2,5.4073274E-1,-6.253263E-2,1.2364831E0,-7.8081805E-1,-1.1153487E0,-3.0602786E-1,-6.311404E-2,7.3529494E-1,1.2387308E0,-6.21058E-2,5.962494E-1,-6.2446743E-2,-9.2440695E-1,-1.2637513E0,5.85458E-2,-1.156492E0,9.4109756E-1,-6.2413394E-1,1.246142E0,9.706056E-1,-6.1467063E-2,9.825544E-1,-1.2386476E0,1.5093634E0,-6.275685E-2,-6.437703E-2,-1.0371847E0,2.8981766E-1,4.2508805E-1,-1.2759248E0,6.564037E-2,3.5456E-2,-7.203101E-2,6.345605E-2,1.9924292E-2,6.235658E-2,5.194081E-2,-9.206756E-2,5.873962E-2,-6.527991E-2,-6.3123226E-2,5.3564787E-2,-6.969663E-2,9.4028056E-2,-6.661381E-2,8.2776874E-2,7.482921E-2,-6.499452E-3,7.247617E-2,-6.741056E-2,-6.268525E-2,-6.534631E-2],"categories":[],"categories_nodes":[],"categories_segments":[],"categories_sizes":[],"default_left":[0,0,0,0,0,0,0,0,0,0,0,0,1,0,0,0,0,0,0,0,0,0,0,0,0,0,0,0,0,0,0,0,0,0,0,0,0,0,0,0,0,0,0,0,0,0,0,0,0,0,0,0,0,0,0,0,0,0,0],"id":18,"left_children":[1,3,5,7,9,11,-1,13,-1,15,17,19,21,-1,23,25,-1,27,-1,29,31,33,35,37,39,41,43,-1,45,47,49,-1,-1,51,53,55,57,-1,-1,-1,-1,-1,-1,-1,-1,-1,-1,-1,-1,-1,-1,-1,-1,-1,-1,-1,-1,-1,-1],"loss_changes":[3.176555E5,3.0345E3,2.2928125E3,1.4620059E3,1.5981406E3,4.858875E3,0E0,7.533835E2,0E0,6.134219E2,2.5504753E2,1.2049219E3,2.7862407E3,0E0,5.424238E2,2.1682812E2,0E0,7.226662E1,0E0,1.4240444E4,3.2929688E0,1.5944363E3,5.098557E2,1.4414368E2,3.9639044E2,8.90625E1,5.68865E2,0E0,3.835853E1,9.0851953E2,2.2974858E3,0E0,0E0,8.7353906E2,2.6320908E3,3.4723312E2,8.8378906E-2,0E0,0E0,0E0,0E0,0E0,0E0,0E0,0E0,0E0,0E0,0E0,0E0,0E0,0E0,0E0,0E0,0E0,0E0,0E0,0E0,0E0,0E0],"parents":[2147483647,0,0,1,1,2,2,3,3,4,4,5,5,7,7,9,9,10,10,11,11,12,12,14,14,15,15,17,17,19,19,20,20,21,21,22,22,23,23,24,24,25,25,26,26,28,28,29,29,30,30,33,33,34,34,35,35,36,36],"right_children":[2,4,6,8,10,12,-1,14,-1,16,18,20,22,-1,24,26,-1,28,-1,30,32,34,36,38,40,42,44,-1,46,48,50,-1,-1,52,54,56,58,-1,-1,-1,-1,-1,-1,-1,-1,-1,-1,-1,-1,-1,-1,-1,-1,-1,-1,-1,-1,-1,-1],"split_conditions":[2.5540745E0,9.99825E-1,5E0,6.02E2,1E0,1.2618E-2,-6.268476E-2,1.073E3,-6.253263E-2,5E0,3E0,6.02E2,5E3,-6.311404E-2,1.16E3,1.9838103E0,-6.21058E-2,1.5E2,-6.2446743E-2,5.99E2,1E0,1.48E2,2.654692E0,2E-1,4E0,2.657E-3,8E3,-6.1467063E-2,1.54E2,5E0,2E2,-6.275685E-2,-6.437703E-2,4E0,1.54E2,1.25E-1,9.95811E-1,6.564037E-2,3.5456E-2,-7.203101E-2,6.345605E-2,1.9924292E-2,6.235658E-2,5.194081E-2,-9.206756E-2,5.873962E-2,-6.527991E-2,-6.3123226E-2,5.3564787E-2,-6.969663E-2,9.4028056E-2,-6.661381E-2,8.2776874E-2,7.482921E-2,-6.499452E-3,7.247617E-2,-6.741056E-2,-6.268525E-2,-6.534631E-2],"split_indices":[18,5,6,31,34,8,0,1,0,6,2,31,35,0,1,18,0,31,0,31,34,31,18,23,23,0,35,0,31,7,38,0,0,23,31,0,5,0,0,0,0,0,0,0,0,0,0,0,0,0,0,0,0,0,0,0,0,0,0],"split_type":[0,0,0,0,0,0,0,0,0,0,0,0,0,0,0,0,0,0,0,0,0,0,0,0,0,0,0,0,0,0,0,0,0,0,0,0,0,0,0,0,0,0,0,0,0,0,0,0,0,0,0,0,0,0,0,0,0,0,0],"sum_hessian":[2.3283486E5,1.12939195E5,1.19895664E5,2.7214404E3,1.1021775E5,5.154746E4,6.83482E4,2.1439807E3,5.7745966E2,1.0982426E5,3.9349533E2,4.2562453E4,8.985008E3,2.0828738E2,1.9356935E3,1.0972525E5,9.900609E1,9.975895E1,2.937364E2,1.8616639E4,2.3945814E4,6.289697E3,2.6953115E3,1.6814484E3,2.5424513E2,1.06770375E5,2.9548735E3,1.7041649E1,8.27173E1,1.6488223E4,2.1284155E3,1.7619367E4,6.3264473E3,1.0955698E3,5.194127E3,1.8906557E2,2.5062458E3,6.4433575E2,1.0371125E3,1.7780424E2,7.644089E1,1.2497349E2,1.0664541E5,2.8855093E3,6.9364235E1,7.675532E1,5.9619846E0,1.6320403E4,1.6781998E2,2.4096559E2,1.8874498E3,9.878212E2,1.0774859E2,1.3399043E3,3.8542224E3,1.19951904E2,6.911366E1,1.4840267E3,1.0222192E3],"tree_param":{"num_deleted":"0","num_feature":"39","num_nodes":"59","size_leaf_vector":"1"}},{"base_weights":[3.3953507E-5,1.1881043E0,-1.116427E0,1.567688E-1,1.2137864E0,-9.559113E-1,-6.1914515E-2,5.279437E-1,-6.1763573E-2,1.2209108E0,-7.704039E-1,-1.0981584E0,-2.9545358E-1,-6.2318977E-2,7.1714747E-1,1.223131E0,-6.132328E-2,5.8489627E-1,-6.167492E-2,-9.070747E-1,-1.2475988E0,5.579394E-2,-1.1395016E0,9.1666204E-1,-6.1415386E-1,1.2307967E0,9.48633E-1,-6.0515653E-2,9.6459824E-1,-1.220324E0,1.4320631E0,-6.198069E-2,-6.34798E-2,-1.0188887E0,2.7541134E-1,4.1037992E-1,-6.294675E-2,3.3593994E-2,6.4586185E-2,-7.084792E-2,6.255945E-2,1.907626E-2,6.159096E-2,-1.079757E-1,5.061517E-2,5.774636E-2,-6.378E-2,-6.2196076E-2,5.222569E-2,-6.834879E-2,8.88669E-2,-6.5555826E-2,7.998303E-2,7.116246E-2,-6.1744032E-3,6.942887E-2,-6.6210546E-2],"categories":[],"categories_nodes":[],"categories_segments":[],"categories_sizes":[],"default_left":[0,0,0,0,0,0,0,0,0,0,0,0,1,0,0,0,0,0,0,0,0,0,0,0,0,0,0,0,0,0,0,0,0,0,0,0,0,0,0,0,0,0,0,0,0,0,0,0,0,0,0,0,0,0,0,0,0],"id":19,"left_children":[1,3,5,7,9,11,-1,13,-1,15,17,19,21,-1,23,25,-1,27,-1,29,31,33,35,37,39,41,43,-1,45,47,49,-1,-1,51,53,55,-1,-1,-1,-1,-1,-1,-1,-1,-1,-1,-1,-1,-1,-1,-1,-1,-1,-1,-1,-1,-1],"loss_changes":[2.9786275E5,2.8813438E3,2.2633594E3,1.3669921E3,1.5014531E3,4.693832E3,0E0,7.0199896E2,0E0,5.7621875E2,2.3946101E2,1.1728125E3,2.6255164E3,0E0,5.019967E2,2.2117188E2,0E0,6.766249E1,0E0,1.3224113E4,2.4765625E0,1.4764249E3,4.822356E2,1.4989856E2,3.7112308E2,8.8796875E1,5.71187E2,0E0,3.604226E1,8.518496E2,2.0625088E3,0E0,0E0,8.143345E2,2.378313E3,3.190409E2,0E0,0E0,0E0,0E0,0E0,0E0,0E0,0E0,0E0,0E0,0E0,0E0,0E0,0E0,0E0,0E0,0E0,0E0,0E0,0E0,0E0],"parents":[2147483647,0,0,1,1,2,2,3,3,4,4,5,5,7,7,9,9,10,10,11,11,12,12,14,14,15,15,17,17,19,19,20,20,21,21,22,22,23,23,24,24,25,25,26,26,28,28,29,29,30,30,33,33,34,34,35,35],"right_children":[2,4,6,8,10,12,-1,14,-1,16,18,20,22,-1,24,26,-1,28,-1,30,32,34,36,38,40,42,44,-1,46,48,50,-1,-1,52,54,56,-1,-1,-1,-1,-1,-1,-1,-1,-1,-1,-1,-1,-1,-1,-1,-1,-1,-1,-1,-1,-1],"split_conditions":[2.5540745E0,9.99825E-1,5E0,6.02E2,1E0,1.2618E-2,-6.1914515E-2,1.073E3,-6.1763573E-2,5E0,3E0,6.02E2,5E3,-6.2318977E-2,1.16E3,1.9838103E0,-6.132328E-2,1.5E2,-6.167492E-2,5.99E2,1E0,1.48E2,2.654692E0,5.99E2,4E0,2.657E-3,1.9E1,-6.0515653E-2,1.54E2,5E0,2E2,-6.198069E-2,-6.34798E-2,4E0,1.54E2,1.25E-1,-6.294675E-2,3.3593994E-2,6.4586185E-2,-7.084792E-2,6.255945E-2,1.907626E-2,6.159096E-2,-1.079757E-1,5.061517E-2,5.774636E-2,-6.378E-2,-6.2196076E-2,5.222569E-2,-6.834879E-2,8.88669E-2,-6.5555826E-2,7.998303E-2,7.116246E-2,-6.1744032E-3,6.942887E-2,-6.6210546E-2],"split_indices":[18,5,6,31,34,8,0,1,0,6,2,31,35,0,1,18,0,31,0,31,34,31,18,31,23,0,1,0,31,7,38,0,0,23,31,0,0,0,0,0,0,0,0,0,0,0,0,0,0,0,0,0,0,0,0,0,0],"split_type":[0,0,0,0,0,0,0,0,0,0,0,0,0,0,0,0,0,0,0,0,0,0,0,0,0,0,0,0,0,0,0,0,0,0,0,0,0,0,0,0,0,0,0,0,0,0,0,0,0,0,0,0,0,0,0,0,0],"sum_hessian":[2.2455706E5,1.0878963E5,1.1576743E5,2.6434075E3,1.0614622E5,4.9964387E4,6.580304E4,2.087433E3,5.5597424E2,1.0576684E5,3.793814E2,4.1109668E4,8.854719E3,2.0060489E2,1.8868282E3,1.0567148E5,9.53611E1,9.6550896E1,2.828305E2,1.8044258E4,2.3065408E4,6.2533457E3,2.601373E3,1.6411846E3,2.4564362E2,1.0279724E5,2.8742405E3,1.6474215E1,8.007668E1,1.5913637E4,2.1306218E3,1.6964604E4,6.100804E3,1.0604528E3,5.192893E3,1.8594444E2,2.4154287E3,9.947543E2,6.4643036E2,1.7190128E2,7.374233E1,1.2407063E2,1.0267317E5,5.7036076E1,2.8172043E3,7.425258E1,5.824102E0,1.5749987E4,1.636493E2,2.3363708E2,1.8969847E3,9.5443774E2,1.0601506E2,1.3385708E3,3.854322E3,1.1902276E2,6.6921684E1],"tree_param":{"num_deleted":"0","num_feature":"39","num_nodes":"57","size_leaf_vector":"1"}},{"base_weights":[1.2660062E-5,1.1736876E0,-1.1003387E0,1.5333664E-1,1.1993264E0,-9.385631E-1,-6.119966E-2,5.154983E-1,-6.10493E-2,1.2063721E0,-7.606671E-1,-1.0821725E0,-2.8535318E-1,-6.1579324E-2,6.994716E-1,1.2085665E0,-6.0594406E-2,5.740663E-1,-6.0957648E-2,-8.909491E-1,-1.232623E0,5.320924E-2,-1.1237378E0,8.9280677E-1,-6.048117E-1,1.2165269E0,9.267603E-1,-5.9621777E-2,9.474857E-1,-1.2032075E0,1.3640504E0,-6.126046E-2,-6.264984E-2,-1.0020454E0,2.618804E-1,3.968041E-1,-6.2161334E-2,6.415006E-2,3.2565713E-2,-6.973915E-2,6.172634E-2,1.8261595E-2,6.087924E-2,4.983315E-2,-9.0334184E-2,5.6800433E-2,-6.237142E-2,-6.1330765E-2,5.0923556E-2,-6.711403E-2,8.435499E-2,-6.457973E-2,7.74826E-2,6.7817375E-2,-5.8656875E-3,6.6644125E-2,-6.510351E-2],"categories":[],"categories_nodes":[],"categories_segments":[],"categories_sizes":[],"default_left":[0,0,0,0,0,0,0,0,0,0,0,0,1,0,0,0,0,0,0,0,0,0,0,0,0,0,0,0,0,0,0,0,0,0,0,0,0,0,0,0,0,0,0,0,0,0,0,0,0,0,0,0,0,0,0,0,0],"id":20,"left_children":[1,3,5,7,9,11,-1,13,-1,15,17,19,21,-1,23,25,-1,27,-1,29,31,33,35,37,39,41,43,-1,45,47,49,-1,-1,51,53,55,-1,-1,-1,-1,-1,-1,-1,-1,-1,-1,-1,-1,-1,-1,-1,-1,-1,-1,-1,-1,-1],"loss_changes":[2.7950538E5,2.7394531E3,2.233375E3,1.2788424E3,1.4116406E3,4.5396016E3,0E0,6.543665E2,0E0,5.416406E2,2.2499744E2,1.1402969E3,2.4762515E3,0E0,4.645551E2,2.2701562E2,0E0,6.339524E1,0E0,1.2305259E4,1.8164062E0,1.3688574E3,4.5644385E2,1.5021204E2,3.4775723E2,8.8640625E1,5.3643384E2,0E0,3.389057E1,7.994375E2,1.8607651E3,0E0,0E0,7.6029175E2,2.1540396E3,2.9370508E2,0E0,0E0,0E0,0E0,0E0,0E0,0E0,0E0,0E0,0E0,0E0,0E0,0E0,0E0,0E0,0E0,0E0,0E0,0E0,0E0,0E0],"parents":[2147483647,0,0,1,1,2,2,3,3,4,4,5,5,7,7,9,9,10,10,11,11,12,12,14,14,15,15,17,17,19,19,20,20,21,21,22,22,23,23,24,24,25,25,26,26,28,28,29,29,30,30,33,33,34,34,35,35],"right_children":[2,4,6,8,10,12,-1,14,-1,16,18,20,22,-1,24,26,-1,28,-1,30,32,34,36,38,40,42,44,-1,46,48,50,-1,-1,52,54,56,-1,-1,-1,-1,-1,-1,-1,-1,-1,-1,-1,-1,-1,-1,-1,-1,-1,-1,-1,-1,-1],"split_conditions":[2.5540745E0,9.99825E-1,5E0,6.02E2,1E0,1.2618E-2,-6.119966E-2,1.073E3,-6.10493E-2,5E0,3E0,6.02E2,5E3,-6.1579324E-2,1.16E3,1.9838103E0,-6.0594406E-2,1.5E2,-6.0957648E-2,5.99E2,1E0,1.48E2,2.654692E0,2E-1,4E0,2.657E-3,8E3,-5.9621777E-2,1.54E2,5E0,2E2,-6.126046E-2,-6.264984E-2,4E0,1.54E2,1.25E-1,-6.2161334E-2,6.415006E-2,3.2565713E-2,-6.973915E-2,6.172634E-2,1.8261595E-2,6.087924E-2,4.983315E-2,-9.0334184E-2,5.6800433E-2,-6.237142E-2,-6.1330765E-2,5.0923556E-2,-6.711403E-2,8.435499E-2,-6.457973E-2,7.74826E-2,6.7817375E-2,-5.8656875E-3,6.6644125E-2,-6.510351E-2],"split_indices":[18,5,6,31,34,8,0,1,0,6,2,31,35,0,1,18,0,31,0,31,34,31,18,23,23,0,35,0,31,7,38,0,0,23,31,0,0,0,0,0,0,0,0,0,0,0,0,0,0,0,0,0,0,0,0,0,0],"split_type":[0,0,0,0,0,0,0,0,0,0,0,0,0,0,0,0,0,0,0,0,0,0,0,0,0,0,0,0,0,0,0,0,0,0,0,0,0,0,0,0,0,0,0,0,0,0,0,0,0,0,0,0,0,0,0,0,0],"sum_hessian":[2.1642472E5,1.0472314E5,1.11701586E5,2.5671008E3,1.0215604E5,4.839525E4,6.3306336E4,2.0322001E3,5.349007E2,1.01790516E5,3.6552548E2,3.967252E4,8.7227295E3,1.930667E2,1.8391334E3,1.0169873E5,9.178539E1,9.339218E1,2.721333E2,1.7472188E4,2.2200334E4,6.214202E3,2.5085269E3,1.6019851E3,2.3714832E2,9.89017E4,2.797027E3,1.5914341E1,7.7477844E1,1.5347436E4,2.1247524E3,1.6322135E4,5.8781987E3,1.0253224E3,5.18888E3,1.825964E2,2.3259304E3,6.107866E2,9.911985E2,1.6606662E2,7.1081696E1,1.231927E2,9.877851E4,2.7279014E3,6.912555E1,7.1793846E1,5.6839943E0,1.5187863E4,1.5957227E2,2.2624458E2,1.8985078E3,9.2127606E2,1.0404634E2,1.3345101E3,3.8543699E3,1.1786715E2,6.472926E1],"tree_param":{"num_deleted":"0","num_feature":"39","num_nodes":"57","size_leaf_vector":"1"}},{"base_weights":[-7.715254E-6,1.160223E0,-1.0852025E0,1.5004216E-1,1.1858432E0,-9.221255E-1,-6.05352E-2,5.035337E-1,-6.0384877E-2,1.1928159E0,-7.515431E-1,-1.0672686E0,-2.7568266E-1,-6.0889978E-2,6.824742E-1,1.1949865E0,-5.991423E-2,5.637007E-1,-6.0289986E-2,-8.7589514E-1,-1.2187161E0,5.0773904E-2,-1.1090486E0,9.607661E-1,-1.9429323E-1,1.2032348E0,9.062231E-1,-6.0503453E-2,9.2667735E-1,-1.1871778E0,1.3036197E0,-6.0591128E-2,-6.1880738E-2,-9.8650104E-1,2.4914294E-1,3.8420177E-1,-6.143209E-2,-1.7542866E-1,5.0377782E-2,-9.625719E-2,4.4997558E-2,1.7478961E-2,6.0216542E-2,-1.0466019E-1,4.8576508E-2,-5.4140717E-2,5.2900195E-2,-6.0521174E-2,4.9653955E-2,-6.5979816E-2,8.036845E-2,-6.367735E-2,7.5231776E-2,6.4745456E-2,-5.572475E-3,6.408253E-2,-6.40796E-2],"categories":[],"categories_nodes":[],"categories_segments":[],"categories_sizes":[],"default_left":[0,0,0,0,0,0,0,0,0,0,0,0,1,0,0,0,0,0,0,0,0,0,0,0,0,0,0,0,0,0,0,0,0,0,0,0,0,0,0,0,0,0,0,0,0,0,0,0,0,0,0,0,0,0,0,0,0],"id":21,"left_children":[1,3,5,7,9,11,-1,13,-1,15,17,19,21,-1,23,25,-1,27,-1,29,31,33,35,37,39,41,43,-1,45,47,49,-1,-1,51,53,55,-1,-1,-1,-1,-1,-1,-1,-1,-1,-1,-1,-1,-1,-1,-1,-1,-1,-1,-1,-1,-1],"loss_changes":[2.624588E5,2.6071875E3,2.2033047E3,1.1971296E3,1.3281719E3,4.395176E3,0E0,6.1031366E2,0E0,5.0951562E2,2.1155629E2,1.1077227E3,2.337313E3,0E0,4.376853E2,2.3189062E2,0E0,5.9897507E1,0E0,1.1470076E4,1.2851562E0,1.270599E3,4.323147E2,2.8818958E2,8.215123E2,8.8546875E1,5.349158E2,0E0,2.1294075E1,7.508867E2,1.6857898E3,0E0,0E0,7.1079926E2,1.9548229E3,2.7084143E2,0E0,0E0,0E0,0E0,0E0,0E0,0E0,0E0,0E0,0E0,0E0,0E0,0E0,0E0,0E0,0E0,0E0,0E0,0E0,0E0,0E0],"parents":[2147483647,0,0,1,1,2,2,3,3,4,4,5,5,7,7,9,9,10,10,11,11,12,12,14,14,15,15,17,17,19,19,20,20,21,21,22,22,23,23,24,24,25,25,26,26,28,28,29,29,30,30,33,33,34,34,35,35],"right_children":[2,4,6,8,10,12,-1,14,-1,16,18,20,22,-1,24,26,-1,28,-1,30,32,34,36,38,40,42,44,-1,46,48,50,-1,-1,52,54,56,-1,-1,-1,-1,-1,-1,-1,-1,-1,-1,-1,-1,-1,-1,-1,-1,-1,-1,-1,-1,-1],"split_conditions":[2.5540745E0,9.99825E-1,5E0,6.02E2,1E0,1.2618E-2,-6.05352E-2,1.073E3,-6.0384877E-2,5E0,3E0,6.02E2,5E3,-6.0889978E-2,8E3,1.9838103E0,-5.991423E-2,1.2E1,-6.0289986E-2,5.99E2,1E0,1.48E2,2.654692E0,1.082E3,5.49E2,2.657E-3,1.9E1,-6.0503453E-2,1.48E2,5E0,2E2,-6.0591128E-2,-6.1880738E-2,4E0,1.54E2,1.25E-1,-6.143209E-2,-1.7542866E-1,5.0377782E-2,-9.625719E-2,4.4997558E-2,1.7478961E-2,6.0216542E-2,-1.0466019E-1,4.8576508E-2,-5.4140717E-2,5.2900195E-2,-6.0521174E-2,4.9653955E-2,-6.5979816E-2,8.036845E-2,-6.367735E-2,7.5231776E-2,6.4745456E-2,-5.572475E-3,6.408253E-2,-6.40796E-2],"split_indices":[18,5,6,31,34,8,0,1,0,6,2,31,35,0,35,18,0,1,0,31,34,31,18,1,31,0,1,0,31,7,38,0,0,23,31,0,0,0,0,0,0,0,0,0,0,0,0,0,0,0,0,0,0,0,0,0,0],"split_type":[0,0,0,0,0,0,0,0,0,0,0,0,0,0,0,0,0,0,0,0,0,0,0,0,0,0,0,0,0,0,0,0,0,0,0,0,0,0,0,0,0,0,0,0,0,0,0,0,0,0,0,0,0,0,0,0,0],"sum_hessian":[2.0845147E5,1.00742766E5,1.0770871E5,2.4920154E3,9.825075E4,4.6845676E4,6.0863035E4,1.9777352E3,5.1428015E2,9.78988E4,3.519562E2,3.8255645E4,8.59003E3,1.8568802E2,1.7920472E3,9.781051E4,8.828601E1,9.0290436E1,2.6166574E2,1.6903135E4,2.135251E4,6.1728594E3,2.4171711E3,1.3602113E3,4.3183594E2,9.50911E4,2.7194019E3,1.4941517E1,7.534892E1,1.4791096E4,2.1120383E3,1.5693257E4,5.6592524E3,9.9034686E2,5.1825127E3,1.7907037E2,2.2381008E3,1.3326006E1,1.3468854E3,1.6696896E2,2.6486697E2,1.2234036E2,9.4968766E4,5.728661E1,2.6621152E3,4.177761E0,7.117116E1,1.4635499E4,1.5559724E2,2.1883224E2,1.8932062E3,8.88461E2,1.0188583E2,1.3281395E3,3.854373E3,1.16523674E2,6.2546703E1],"tree_param":{"num_deleted":"0","num_feature":"39","num_nodes":"57","size_leaf_vector":"1"}},{"base_weights":[-2.7805974E-5,1.1475825E0,-1.070921E0,1.4682625E-1,1.1732017E0,-9.0649533E-1,-5.991673E-2,4.9203068E-1,-5.9765935E-2,1.180109E0,-7.4252117E-1,5.356486E-2,-1.0049462E0,-6.0246415E-2,6.661683E-1,1.182257E0,-5.927837E-2,5.523605E-1,-5.9667565E-2,-9.1124326E-1,3.686378E-1,-2.9598638E-1,-1.0624169E0,9.3894964E-1,-1.8925191E-1,1.1908343E0,8.856609E-1,-5.9679564E-2,9.0842533E-1,1.6504908E-1,-1.2836318E0,6.8895824E-2,9.4617814E-1,-1.090517E0,9.979733E-1,-8.982503E-1,-1.2058257E0,-1.5695262E-1,4.9284134E-2,-9.4222896E-2,4.3600317E-2,1.6727082E-2,5.9598543E-2,4.7867306E-2,-8.865759E-2,5.1407527E-2,-6.291103E-2,-6.2829465E-2,9.7278155E-2,-7.636886E-2,-6.247857E-2,1.3966071E-2,-9.1515735E-2,-1.0545132E-1,5.188142E-2,3.3969E-2,-6.208213E-2,-6.34686E-2,7.5018525E-2,-5.9293367E-2,6.25827E-2,-5.9966076E-2,-6.11669E-2],"categories":[],"categories_nodes":[],"categories_segments":[],"categories_sizes":[],"default_left":[0,0,0,0,0,0,0,0,0,0,0,0,0,0,0,0,0,0,0,0,0,0,0,0,0,0,0,0,0,0,0,0,0,0,0,0,0,0,0,0,0,0,0,0,0,0,0,0,0,0,0,0,0,0,0,0,0,0,0,0,0,0,0],"id":22,"left_children":[1,3,5,7,9,11,-1,13,-1,15,17,19,21,-1,23,25,-1,27,-1,29,31,33,35,37,39,41,43,-1,45,47,49,51,53,55,57,59,61,-1,-1,-1,-1,-1,-1,-1,-1,-1,-1,-1,-1,-1,-1,-1,-1,-1,-1,-1,-1,-1,-1,-1,-1,-1,-1],"loss_changes":[2.4660214E5,2.483164E3,2.1735E3,1.1212686E3,1.2505859E3,4.283758E3,0E0,5.695563E2,0E0,4.7959375E2,1.9908907E2,1.2820048E3,1.6745273E3,0E0,4.0764215E2,2.3810938E2,0E0,5.608075E1,0E0,4.1632587E2,5.502637E2,3.1714302E3,8.9409766E2,2.5545044E2,7.6270935E2,8.853906E1,5.0608887E2,0E0,2.0501827E1,6.802165E2,4.496216E0,8.3732886E2,3.0564362E2,5.120044E2,1.3388416E3,1.0966358E4,8.417969E-1,0E0,0E0,0E0,0E0,0E0,0E0,0E0,0E0,0E0,0E0,0E0,0E0,0E0,0E0,0E0,0E0,0E0,0E0,0E0,0E0,0E0,0E0,0E0,0E0,0E0,0E0],"parents":[2147483647,0,0,1,1,2,2,3,3,4,4,5,5,7,7,9,9,10,10,11,11,12,12,14,14,15,15,17,17,19,19,20,20,21,21,22,22,23,23,24,24,25,25,26,26,28,28,29,29,30,30,31,31,32,32,33,33,34,34,35,35,36,36],"right_children":[2,4,6,8,10,12,-1,14,-1,16,18,20,22,-1,24,26,-1,28,-1,30,32,34,36,38,40,42,44,-1,46,48,50,52,54,56,58,60,62,-1,-1,-1,-1,-1,-1,-1,-1,-1,-1,-1,-1,-1,-1,-1,-1,-1,-1,-1,-1,-1,-1,-1,-1,-1,-1],"split_conditions":[2.5540745E0,9.99825E-1,5E0,6.02E2,1E0,5E3,-5.991673E-2,1.073E3,-5.9765935E-2,5E0,3E0,4.566E-3,1.54E2,-6.0246415E-2,8E3,1.9838103E0,-5.927837E-2,1.2E1,-5.9667565E-2,3.46472E-1,1.0578529E0,1.5E2,6.02E2,1.082E3,5.49E2,2.657E-3,8E3,-5.9679564E-2,1.54E2,3.44649E-1,2E3,8.54E2,2E0,2.654692E0,1E0,5.99E2,1E0,-1.5695262E-1,4.9284134E-2,-9.4222896E-2,4.3600317E-2,1.6727082E-2,5.9598543E-2,4.7867306E-2,-8.865759E-2,5.1407527E-2,-6.291103E-2,-6.2829465E-2,9.7278155E-2,-7.636886E-2,-6.247857E-2,1.3966071E-2,-9.1515735E-2,-1.0545132E-1,5.188142E-2,3.3969E-2,-6.208213E-2,-6.34686E-2,7.5018525E-2,-5.9293367E-2,6.25827E-2,-5.9966076E-2,-6.11669E-2],"split_indices":[18,5,6,31,34,35,0,1,0,6,2,16,31,0,35,18,0,1,0,4,17,31,31,1,31,0,35,0,31,4,35,31,26,18,34,31,34,0,0,0,0,0,0,0,0,0,0,0,0,0,0,0,0,0,0,0,0,0,0,0,0,0,0],"split_type":[0,0,0,0,0,0,0,0,0,0,0,0,0,0,0,0,0,0,0,0,0,0,0,0,0,0,0,0,0,0,0,0,0,0,0,0,0,0,0,0,0,0,0,0,0,0,0,0,0,0,0,0,0,0,0,0,0,0,0,0,0,0,0],"sum_hessian":[2.0065589E5,9.6858516E4,1.03797375E5,2.4178335E3,9.444068E4,4.5320254E4,5.8477125E4,1.9236876E3,4.9414587E2,9.410177E4,3.389102E2,4.2152246E3,4.110503E4,1.7848119E2,1.7452064E3,9.401691E4,8.4868645E1,8.74654E1,2.514448E2,1.0372113E3,3.1780134E3,3.0827183E3,3.8022312E4,1.323169E3,4.2203748E2,9.137153E4,2.6453718E3,1.4417502E1,7.30479E1,2.6676196E2,7.7044934E2,2.092915E3,1.0850984E3,1.9100479E3,1.1726703E3,1.7731504E4,2.0290809E4,1.42417145E1,1.3089272E3,1.6218877E2,2.598487E2,1.2151404E2,9.1250016E4,2.5765447E3,6.882719E1,6.972071E1,3.3271847E0,1.4849304E2,1.1826893E2,8.908591E1,6.813634E2,1.8849252E3,2.0798993E2,3.0894712E1,1.0542036E3,1.4998723E2,1.7600607E3,2.1243105E2,9.6023926E2,1.5639658E4,2.0918452E3,1.4846323E4,5.4444844E3],"tree_param":{"num_deleted":"0","num_feature":"39","num_nodes":"63","size_leaf_vector":"1"}},{"base_weights":[-5.2098472E-5,1.1357304E0,-1.0574929E0,1.4370768E-1,1.1613717E0,-8.9174837E-1,-5.9340324E-2,4.808889E-1,-5.9188563E-2,1.1682209E0,-7.336702E-1,5.1323213E-2,-9.9067223E-1,-5.9644617E-2,6.5037704E-1,1.170348E0,-5.8682915E-2,5.4023784E-1,-5.9086468E-2,-8.943532E-1,3.5288638E-1,-2.8935057E-1,-1.0481308E0,9.17882E-1,-1.843471E-1,1.1792483E0,8.66275E-1,-5.7821583E-2,9.0138066E-1,1.5853189E-1,-1.2662747E0,6.557003E-2,9.135938E-1,-1.0750806E0,9.5763004E-1,-8.826505E-1,-1.1937792E0,-1.4255127E-1,4.8223507E-2,-9.22596E-2,4.2238135E-2,1.6004795E-2,5.902141E-2,-1.0159965E-1,4.666401E-2,5.4557174E-2,-6.0508814E-2,-6.202075E-2,9.147942E-2,-7.4490175E-2,-6.1722662E-2,1.3294699E-2,-8.816649E-2,-1.0022252E-1,5.012366E-2,3.2297518E-2,-6.139018E-2,-6.264839E-2,7.157978E-2,-5.8493365E-2,5.961982E-2,-5.9385743E-2,-6.0503352E-2],"categories":[],"categories_nodes":[],"categories_segments":[],"categories_sizes":[],"default_left":[0,0,0,0,0,0,0,0,0,0,0,0,0,0,0,0,0,0,0,0,0,0,0,0,0,0,0,0,0,0,0,0,0,0,0,0,0,0,0,0,0,0,0,0,0,0,0,0,0,0,0,0,0,0,0,0,0,0,0,0,0,0,0],"id":23,"left_children":[1,3,5,7,9,11,-1,13,-1,15,17,19,21,-1,23,25,-1,27,-1,29,31,33,35,37,39,41,43,-1,45,47,49,51,53,55,57,59,61,-1,-1,-1,-1,-1,-1,-1,-1,-1,-1,-1,-1,-1,-1,-1,-1,-1,-1,-1,-1,-1,-1,-1,-1,-1,-1],"loss_changes":[2.3184716E5,2.3673203E3,2.1415625E3,1.0507452E3,1.1784375E3,4.0878086E3,0E0,5.317533E2,0E0,4.5172656E2,1.874831E2,1.186889E3,1.5977422E3,0E0,3.7982343E2,2.4341406E2,0E0,5.3653687E1,0E0,3.942555E2,5.0828888E2,2.9447073E3,8.823672E2,2.288656E2,7.082661E2,8.8578125E1,5.0142505E2,0E0,2.9912327E1,6.1840875E2,3.4510498E0,7.652557E2,2.7926422E2,4.8535034E2,1.2191257E3,1.0229994E4,4.8828125E-1,0E0,0E0,0E0,0E0,0E0,0E0,0E0,0E0,0E0,0E0,0E0,0E0,0E0,0E0,0E0,0E0,0E0,0E0,0E0,0E0,0E0,0E0,0E0,0E0,0E0,0E0],"parents":[2147483647,0,0,1,1,2,2,3,3,4,4,5,5,7,7,9,9,10,10,11,11,12,12,14,14,15,15,17,17,19,19,20,20,21,21,22,22,23,23,24,24,25,25,26,26,28,28,29,29,30,30,31,31,32,32,33,33,34,34,35,35,36,36],"right_children":[2,4,6,8,10,12,-1,14,-1,16,18,20,22,-1,24,26,-1,28,-1,30,32,34,36,38,40,42,44,-1,46,48,50,52,54,56,58,60,62,-1,-1,-1,-1,-1,-1,-1,-1,-1,-1,-1,-1,-1,-1,-1,-1,-1,-1,-1,-1,-1,-1,-1,-1,-1,-1],"split_conditions":[2.5540745E0,9.99825E-1,5E0,6.02E2,1E0,5E3,-5.9340324E-2,1.073E3,-5.9188563E-2,5E0,3E0,4.566E-3,1.54E2,-5.9644617E-2,8E3,1.9838103E0,-5.8682915E-2,1.5E2,-5.9086468E-2,3.46472E-1,1.0578529E0,1.5E2,6.02E2,1.082E3,5.49E2,2.657E-3,1.9E1,-5.7821583E-2,1.54E2,3.44649E-1,2E3,8.54E2,2E0,2.654692E0,1E0,5.99E2,1E0,-1.4255127E-1,4.8223507E-2,-9.22596E-2,4.2238135E-2,1.6004795E-2,5.902141E-2,-1.0159965E-1,4.666401E-2,5.4557174E-2,-6.0508814E-2,-6.202075E-2,9.147942E-2,-7.4490175E-2,-6.1722662E-2,1.3294699E-2,-8.816649E-2,-1.0022252E-1,5.012366E-2,3.2297518E-2,-6.139018E-2,-6.264839E-2,7.157978E-2,-5.8493365E-2,5.961982E-2,-5.9385743E-2,-6.0503352E-2],"split_indices":[18,5,6,31,34,35,0,1,0,6,2,16,31,0,35,18,0,31,0,4,17,31,31,1,31,0,1,0,31,4,35,31,26,18,34,31,34,0,0,0,0,0,0,0,0,0,0,0,0,0,0,0,0,0,0,0,0,0,0,0,0,0,0],"split_type":[0,0,0,0,0,0,0,0,0,0,0,0,0,0,0,0,0,0,0,0,0,0,0,0,0,0,0,0,0,0,0,0,0,0,0,0,0,0,0,0,0,0,0,0,0,0,0,0,0,0,0,0,0,0,0,0,0,0,0,0,0,0,0],"sum_hessian":[1.9303944E5,9.307201E4,9.996743E4,2.3452322E3,9.072677E4,4.3815668E4,5.6151758E4,1.8707079E3,4.7452432E2,9.040043E4,3.2634616E2,4.1597705E3,3.96559E4,1.714559E2,1.6992521E3,9.031889E4,8.153781E1,8.4862366E1,2.4148378E2,1.00529266E3,3.1544778E3,3.0033958E3,3.6652504E4,1.2867775E3,4.124746E2,8.774763E4,2.571253E3,1.4506738E1,7.035563E1,2.6256427E2,7.427284E2,2.0864573E3,1.0680205E3,1.8425388E3,1.160857E3,1.7161416E4,1.9491088E4,1.4976835E1,1.2718005E3,1.5749916E2,2.5497546E2,1.2071401E2,8.762692E4,5.743894E1,2.513814E3,6.499763E1,5.3580003E0,1.430586E2,1.1950567E2,8.684801E1,6.558804E2,1.8812535E3,2.0520375E2,3.0931765E1,1.0370887E3,1.4991539E2,1.6926234E3,2.046616E2,9.561955E2,1.5075221E4,2.0861943E3,1.425677E4,5.2343184E3],"tree_param":{"num_deleted":"0","num_feature":"39","num_nodes":"63","size_leaf_vector":"1"}},{"base_weights":[-7.5599724E-5,1.1245602E0,-1.0447644E0,1.4067523E-1,1.1502446E0,-8.776509E-1,-5.8802474E-2,4.700677E-1,-5.864928E-2,1.1570349E0,-7.260498E-1,-1.025606E0,-2.539959E-1,-5.9080977E-2,6.3504404E-1,1.1591424E0,-5.8124363E-2,5.309444E-1,-5.8543213E-2,-8.314156E-1,-1.1825013E0,4.0572368E-2,-1.0671653E0,8.974787E-1,-1.7956656E-1,1.1684073E0,8.4677124E-1,-5.7078212E-2,8.866836E-1,-1.1409187E0,1.1356437E0,-5.8845516E-2,-5.98857E-2,-9.4088316E-1,2.1586335E-1,3.539135E-1,-5.953139E-2,-1.3100782E-1,4.719214E-2,-9.036002E-2,4.090861E-2,1.5310976E-2,5.8481663E-2,4.6014767E-2,-8.7039046E-2,5.374765E-2,-5.9285086E-2,-5.838585E-2,5.137493E-2,-6.6879265E-2,7.1807854E-2,-6.1793175E-2,7.259007E-2,5.7262745E-2,-5.3725834E-3,5.990806E-2,-6.256975E-2],"categories":[],"categories_nodes":[],"categories_segments":[],"categories_sizes":[],"default_left":[0,0,0,0,0,0,0,0,0,0,0,0,1,0,0,0,0,0,0,0,0,0,0,0,0,0,0,0,0,0,0,0,0,0,0,0,0,0,0,0,0,0,0,0,0,0,0,0,0,0,0,0,0,0,0,0,0],"id":24,"left_children":[1,3,5,7,9,11,-1,13,-1,15,17,19,21,-1,23,25,-1,27,-1,29,31,33,35,37,39,41,43,-1,45,47,49,-1,-1,51,53,55,-1,-1,-1,-1,-1,-1,-1,-1,-1,-1,-1,-1,-1,-1,-1,-1,-1,-1,-1,-1,-1],"loss_changes":[2.1808788E5,2.258789E3,2.1102578E3,9.851109E2,1.11075E3,3.9068281E3,0E0,4.966532E2,0E0,4.2567188E2,1.7660725E2,1.0417188E3,1.9451761E3,0E0,3.5402997E2,2.5E2,0E0,5.0369358E1,0E0,9.314445E3,2.0117188E-1,1.0259181E3,3.7929297E2,2.0668347E2,6.578176E2,8.866406E1,4.775652E2,0E0,2.8184109E1,7.692969E2,1.5480007E3,0E0,0E0,6.395965E2,1.5204025E3,2.3648322E2,0E0,0E0,0E0,0E0,0E0,0E0,0E0,0E0,0E0,0E0,0E0,0E0,0E0,0E0,0E0,0E0,0E0,0E0,0E0,0E0,0E0],"parents":[2147483647,0,0,1,1,2,2,3,3,4,4,5,5,7,7,9,9,10,10,11,11,12,12,14,14,15,15,17,17,19,19,20,20,21,21,22,22,23,23,24,24,25,25,26,26,28,28,29,29,30,30,33,33,34,34,35,35],"right_children":[2,4,6,8,10,12,-1,14,-1,16,18,20,22,-1,24,26,-1,28,-1,30,32,34,36,38,40,42,44,-1,46,48,50,-1,-1,52,54,56,-1,-1,-1,-1,-1,-1,-1,-1,-1,-1,-1,-1,-1,-1,-1,-1,-1,-1,-1,-1,-1],"split_conditions":[2.5540745E0,9.99825E-1,5E0,6.02E2,1E0,1.2618E-2,-5.8802474E-2,1.073E3,-5.864928E-2,5E0,3E0,6.02E2,5E3,-5.9080977E-2,8E3,1.9838103E0,-5.8124363E-2,1.5E2,-5.8543213E-2,5.99E2,1E0,1.48E2,2.654692E0,1.082E3,5.49E2,2.657E-3,8E3,-5.7078212E-2,1.54E2,5E0,2E2,-5.8845516E-2,-5.98857E-2,4E0,1.54E2,1.25E-1,-5.953139E-2,-1.3100782E-1,4.719214E-2,-9.036002E-2,4.090861E-2,1.5310976E-2,5.8481663E-2,4.6014767E-2,-8.7039046E-2,5.374765E-2,-5.9285086E-2,-5.838585E-2,5.137493E-2,-6.6879265E-2,7.1807854E-2,-6.1793175E-2,7.259007E-2,5.7262745E-2,-5.3725834E-3,5.990806E-2,-6.256975E-2],"split_indices":[18,5,6,31,34,8,0,1,0,6,2,31,35,0,35,18,0,31,0,31,34,31,18,1,31,0,35,0,31,7,38,0,0,23,31,0,0,0,0,0,0,0,0,0,0,0,0,0,0,0,0,0,0,0,0,0,0],"split_type":[0,0,0,0,0,0,0,0,0,0,0,0,0,0,0,0,0,0,0,0,0,0,0,0,0,0,0,0,0,0,0,0,0,0,0,0,0,0,0,0,0,0,0,0,0,0,0,0,0,0,0,0,0,0,0,0,0],"sum_hessian":[1.8562136E5,8.939025E4,9.623112E4,2.2743337E3,8.711592E4,4.2341758E4,5.388936E4,1.8188983E3,4.5543558E2,8.680217E4,3.137494E2,3.4222266E4,8.11949E3,1.6461963E2,1.6542787E3,8.6723875E4,7.829694E1,8.195642E1,2.3179297E2,1.5296271E4,1.8925994E4,5.9610625E3,2.1584275E3,1.2511174E3,4.031613E2,8.422306E4,2.5008108E3,1.398709E1,6.796934E1,1.3217075E4,2.0791953E3,1.38969E4,5.029095E3,9.026653E2,5.058397E3,1.7238423E2,1.9860433E3,1.5553643E1,1.2355637E3,1.5290788E2,2.502534E2,1.1994038E2,8.4103125E4,2.432341E3,6.8469505E1,6.275E1,5.2193336E0,1.3056184E4,1.6089212E2,2.2489062E2,1.8543048E3,8.0402515E2,9.864014E1,1.3048817E3,3.7535156E3,1.1313764E2,5.9246586E1],"tree_param":{"num_deleted":"0","num_feature":"39","num_nodes":"57","size_leaf_vector":"1"}},{"base_weights":[-9.435975E-5,1.1140503E0,-1.0325639E0,1.377189E-1,1.1398001E0,-8.639334E-1,-5.8300044E-2,4.5953193E-1,-5.8144946E-2,1.1465355E0,-7.18848E-1,5.4731373E-2,-9.6564174E-1,9.095652E-2,1.1956799E0,1.1486247E0,-5.759957E-2,5.2194273E-1,-5.803466E-2,