{"learner":{"attributes":{"scikit_learn":"{\"_estimator_type\": \"classifier\"}"},"feature_names":[],"feature_types":[],"gradient_booster":{"model":{"cats":{"enc":[],"feature_segments":[],"sorted_idx":[]},"gbtree_model_param":{"num_parallel_tree":"1","num_trees":"500"},"iteration_indptr":[0,1,2,3,4,5,6,7,8,9,10,11,12,13,14,15,16,17,18,19,20,21,22,23,24,25,26,27,28,29,30,31,32,33,34,35,36,37,38,39,40,41,42,43,44,45,46,47,48,49,50,51,52,53,54,55,56,57,58,59,60,61,62,63,64,65,66,67,68,69,70,71,72,73,74,75,76,77,78,79,80,81,82,83,84,85,86,87,88,89,90,91,92,93,94,95,96,97,98,99,100,101,102,103,104,105,106,107,108,109,110,111,112,113,114,115,116,117,118,119,120,121,122,123,124,125,126,127,128,129,130,131,132,133,134,135,136,137,138,139,140,141,142,143,144,145,146,147,148,149,150,151,152,153,154,155,156,157,158,159,160,161,162,163,164,165,166,167,168,169,170,171,172,173,174,175,176,177,178,179,180,181,182,183,184,185,186,187,188,189,190,191,192,193,194,195,196,197,198,199,200,201,202,203,204,205,206,207,208,209,210,211,212,213,214,215,216,217,218,219,220,221,222,223,224,225,226,227,228,229,230,231,232,233,234,235,236,237,238,239,240,241,242,243,244,245,246,247,248,249,250,251,252,253,254,255,256,257,258,259,260,261,262,263,264,265,266,267,268,269,270,271,272,273,274,275,276,277,278,279,280,281,282,283,284,285,286,287,288,289,290,291,292,293,294,295,296,297,298,299,300,301,302,303,304,305,306,307,308,309,310,311,312,313,314,315,316,317,318,319,320,321,322,323,324,325,326,327,328,329,330,331,332,333,334,335,336,337,338,339,340,341,342,343,344,345,346,347,348,349,350,351,352,353,354,355,356,357,358,359,360,361,362,363,364,365,366,367,368,369,370,371,372,373,374,375,376,377,378,379,380,381,382,383,384,385,386,387,388,389,390,391,392,393,394,395,396,397,398,399,400,401,402,403,404,405,406,407,408,409,410,411,412,413,414,415,416,417,418,419,420,421,422,423,424,425,426,427,428,429,430,431,432,433,434,435,436,437,438,439,440,441,442,443,444,445,446,447,448,449,450,451,452,453,454,455,456,457,458,459,460,461,462,463,464,465,466,467,468,469,470,471,472,473,474,475,476,477,478,479,480,481,482,483,484,485,486,487,488,489,490,491,492,493,494,495,496,497,498,499,500],"tree_info":[0,0,0,0,0,0,0,0,0,0,0,0,0,0,0,0,0,0,0,0,0,0,0,0,0,0,0,0,0,0,0,0,0,0,0,0,0,0,0,0,0,0,0,0,0,0,0,0,0,0,0,0,0,0,0,0,0,0,0,0,0,0,0,0,0,0,0,0,0,0,0,0,0,0,0,0,0,0,0,0,0,0,0,0,0,0,0,0,0,0,0,0,0,0,0,0,0,0,0,0,0,0,0,0,0,0,0,0,0,0,0,0,0,0,0,0,0,0,0,0,0,0,0,0,0,0,0,0,0,0,0,0,0,0,0,0,0,0,0,0,0,0,0,0,0,0,0,0,0,0,0,0,0,0,0,0,0,0,0,0,0,0,0,0,0,0,0,0,0,0,0,0,0,0,0,0,0,0,0,0,0,0,0,0,0,0,0,0,0,0,0,0,0,0,0,0,0,0,0,0,0,0,0,0,0,0,0,0,0,0,0,0,0,0,0,0,0,0,0,0,0,0,0,0,0,0,0,0,0,0,0,0,0,0,0,0,0,0,0,0,0,0,0,0,0,0,0,0,0,0,0,0,0,0,0,0,0,0,0,0,0,0,0,0,0,0,0,0,0,0,0,0,0,0,0,0,0,0,0,0,0,0,0,0,0,0,0,0,0,0,0,0,0,0,0,0,0,0,0,0,0,0,0,0,0,0,0,0,0,0,0,0,0,0,0,0,0,0,0,0,0,0,0,0,0,0,0,0,0,0,0,0,0,0,0,0,0,0,0,0,0,0,0,0,0,0,0,0,0,0,0,0,0,0,0,0,0,0,0,0,0,0,0,0,0,0,0,0,0,0,0,0,0,0,0,0,0,0,0,0,0,0,0,0,0,0,0,0,0,0,0,0,0,0,0,0,0,0,0,0,0,0,0,0,0,0,0,0,0,0,0,0,0,0,0,0,0,0,0,0,0,0,0,0,0,0,0,0,0,0,0,0,0,0,0,0,0,0,0,0,0,0,0,0,0,0,0,0,0,0,0,0,0,0,0,0,0,0,0,0,0,0,0,0,0,0,0,0,0,0,0,0,0,0,0,0,0,0,0,0,0,0,0,0,0,0,0,0,0,0,0,0,0,0,0,0,0,0,0,0],"trees":[{"base_weights":[-1.4314245E-4,1.3502078E0,-9.435686E-2,1.6963648E0,-9.4347626E-2,9.1116774E-1,2.1177483E0,1.851635E0,-9.434532E-2,2.1210487E0,-9.227721E-2,-9.4284855E-2,2.087564E0,2.1215315E0,-8.1738085E-2,-9.179916E-2,1.047292E-1,1.06095135E-1,-7.8584924E-2],"categories":[],"categories_nodes":[],"categories_segments":[],"categories_sizes":[],"default_left":[0,0,0,0,0,0,0,0,0,0,0,0,0,0,0,0,0,0,0],"id":0,"left_children":[1,3,-1,5,-1,7,9,11,-1,13,-1,-1,15,17,-1,-1,-1,-1,-1],"loss_changes":[4.0040062E5,1.0263839E5,0E0,2.737575E4,0E0,7.605211E4,7.083125E2,1.9076031E4,0E0,1.0096875E2,0E0,0E0,5.6425E2,7.7125E1,0E0,0E0,0E0,0E0,0E0],"parents":[2147483647,0,0,1,1,3,3,5,5,6,6,7,7,9,9,12,12,13,13],"right_children":[2,4,-1,6,-1,8,10,12,-1,14,-1,-1,16,18,-1,-1,-1,-1,-1],"split_conditions":[1E0,6.02E2,-9.435686E-2,5.99E2,-9.4347626E-2,1.56E2,6.64E-3,1.5E2,-9.434532E-2,2.0363448E0,-9.227721E-2,-9.4284855E-2,1.0039355E0,4.296578E-7,-8.1738085E-2,-9.179916E-2,1.047292E-1,1.06095135E-1,-7.8584924E-2],"split_indices":[32,31,0,31,0,31,8,31,0,17,0,0,17,14,0,0,0,0,0],"split_type":[0,0,0,0,0,0,0,0,0,0,0,0,0,0,0,0,0,0,0],"sum_hessian":[1.5713469E5,9.159133E4,6.554335E4,8.274382E4,8.847508E3,2.8898371E4,5.384545E4,2.1628951E4,7.26942E3,5.380111E4,4.434092E1,1.2838938E3,2.0345057E4,5.3794633E4,6.4767637E0,3.5871307E1,2.0309186E4,5.378965E4,4.9821258E0],"tree_param":{"num_deleted":"0","num_feature":"36","num_nodes":"19","size_leaf_vector":"1"}},{"base_weights":[-4.2864733E-4,1.2806846E0,-9.0362795E-2,1.6075155E0,-9.0354264E-2,8.652043E-1,2.004545E0,1.7538314E0,-9.035212E-2,2.007653E0,-8.843843E-2,-9.02962E-2,1.9760149E0,2.008109E0,-7.865309E-2,9.912622E-2,-9.637874E-2,1.00423E-1,-7.5713746E-2],"categories":[],"categories_nodes":[],"categories_segments":[],"categories_sizes":[],"default_left":[0,0,0,0,0,0,0,0,0,0,0,0,0,0,0,0,0,0,0],"id":1,"left_children":[1,3,-1,5,-1,7,9,11,-1,13,-1,-1,15,17,-1,-1,-1,-1,-1],"loss_changes":[3.6283544E5,9.256247E4,0E0,2.444211E4,0E0,6.863931E4,6.372656E2,1.7159672E4,0E0,9.1296875E1,0E0,0E0,5.226406E2,6.98125E1,0E0,0E0,0E0,0E0,0E0],"parents":[2147483647,0,0,1,1,3,3,5,5,6,6,7,7,9,9,12,12,13,13],"right_children":[2,4,-1,6,-1,8,10,12,-1,14,-1,-1,16,18,-1,-1,-1,-1,-1],"split_conditions":[1E0,6.02E2,-9.0362795E-2,5.99E2,-9.0354264E-2,1.56E2,6.64E-3,1.5E2,-9.035212E-2,2.0363448E0,-8.843843E-2,-9.02962E-2,2.3E1,4.296578E-7,-7.865309E-2,9.912622E-2,-9.637874E-2,1.00423E-1,-7.5713746E-2],"split_indices":[32,31,0,31,0,31,8,31,0,17,0,0,9,14,0,0,0,0,0],"split_type":[0,0,0,0,0,0,0,0,0,0,0,0,0,0,0,0,0,0,0],"sum_hessian":[1.5674728E5,9.171673E4,6.503056E4,8.293843E4,8.778296E3,2.8902916E4,5.403551E4,2.1690361E4,7.2125547E3,5.3991508E4,4.4003716E1,1.2738588E3,2.0416502E4,5.3985074E4,6.4344907E0,2.0383004E4,3.3498116E1,5.398012E4,4.951163E0],"tree_param":{"num_deleted":"0","num_feature":"36","num_nodes":"19","size_leaf_vector":"1"}},{"base_weights":[-6.517503E-4,1.2210399E0,-8.687536E-2,1.5314211E0,-8.686735E-2,8.256187E-1,1.9078823E0,1.6699483E0,-8.686535E-2,1.9108279E0,-8.506952E-2,-8.681287E-2,1.8804475E0,1.9112616E0,-7.588045E-2,-9.21176E-2,9.43552E-2,9.5579796E-2,-7.311627E-2],"categories":[],"categories_nodes":[],"categories_segments":[],"categories_sizes":[],"default_left":[0,0,0,0,0,0,0,0,0,0,0,0,0,0,0,0,0,0,0],"id":2,"left_children":[1,3,-1,5,-1,7,9,11,-1,13,-1,-1,15,17,-1,-1,-1,-1,-1],"loss_changes":[3.302998E5,8.391359E4,0E0,2.1974234E4,0E0,6.2262125E4,5.766719E2,1.5520645E4,0E0,8.3046875E1,0E0,0E0,5.0857812E2,6.3578125E1,0E0,0E0,0E0,0E0,0E0],"parents":[2147483647,0,0,1,1,3,3,5,5,6,6,7,7,9,9,12,12,13,13],"right_children":[2,4,-1,6,-1,8,10,12,-1,14,-1,-1,16,18,-1,-1,-1,-1,-1],"split_conditions":[1E0,6.02E2,-8.687536E-2,5.99E2,-8.686735E-2,1.56E2,6.64E-3,1.5E2,-8.686535E-2,2.0363448E0,-8.506952E-2,-8.681287E-2,1.0039355E0,4.296578E-7,-7.588045E-2,-9.21176E-2,9.43552E-2,9.5579796E-2,-7.311627E-2],"split_indices":[32,31,0,31,0,31,8,31,0,17,0,0,17,14,0,0,0,0,0],"split_type":[0,0,0,0,0,0,0,0,0,0,0,0,0,0,0,0,0,0,0],"sum_hessian":[1.5566016E5,9.138259E4,6.4277562E4,8.270592E4,8.676666E3,2.8770045E4,5.393588E4,2.164099E4,7.1290547E3,5.3892367E4,4.351073E1,1.2591254E3,2.0381865E4,5.3885992E4,6.374145E0,3.5886543E1,2.0345979E4,5.3881086E4,4.9073024E0],"tree_param":{"num_deleted":"0","num_feature":"36","num_nodes":"19","size_leaf_vector":"1"}},{"base_weights":[-8.2851126E-4,1.169352E0,-8.3806925E-2,1.4655744E0,-8.379932E-2,7.912038E-1,1.8244455E0,1.5972843E0,-8.379742E-2,1.8272523E0,-8.209109E-2,-8.374753E-2,1.7977402E0,1.8276672E0,-7.337405E-2,9.0200126E-2,-9.628202E-2,9.139938E-2,-7.0753984E-2],"categories":[],"categories_nodes":[],"categories_segments":[],"categories_sizes":[],"default_left":[0,0,0,0,0,0,0,0,0,0,0,0,0,0,0,0,0,0,0],"id":3,"left_children":[1,3,-1,5,-1,7,9,11,-1,13,-1,-1,15,17,-1,-1,-1,-1,-1],"loss_changes":[3.0187162E5,7.6414875E4,0E0,1.9870531E4,0E0,5.6723336E4,5.243906E2,1.4104336E4,0E0,7.5890625E1,0E0,0E0,4.758164E2,5.8203125E1,0E0,0E0,0E0,0E0,0E0],"parents":[2147483647,0,0,1,1,3,3,5,5,6,6,7,7,9,9,12,12,13,13],"right_children":[2,4,-1,6,-1,8,10,12,-1,14,-1,-1,16,18,-1,-1,-1,-1,-1],"split_conditions":[1E0,6.02E2,-8.3806925E-2,5.99E2,-8.379932E-2,1.56E2,6.64E-3,1.5E2,-8.379742E-2,2.0363448E0,-8.209109E-2,-8.374753E-2,2.3E1,4.296578E-7,-7.337405E-2,9.0200126E-2,-9.628202E-2,9.139938E-2,-7.0753984E-2],"split_indices":[32,31,0,31,0,31,8,31,0,17,0,0,9,14,0,0,0,0,0],"split_type":[0,0,0,0,0,0,0,0,0,0,0,0,0,0,0,0,0,0,0],"sum_hessian":[1.5398152E5,9.065828E4,6.332324E4,8.211042E4,8.547863E3,2.8520148E4,5.359027E4,2.1496918E4,7.02323E3,5.3547383E4,4.288675E1,1.2404532E3,2.0256465E4,5.3541086E4,6.298333E0,2.0222967E4,3.3497578E1,5.3536234E4,4.852343E0],"tree_param":{"num_deleted":"0","num_feature":"36","num_nodes":"19","size_leaf_vector":"1"}},{"base_weights":[-9.709425E-4,1.1241541E0,-8.108906E-2,1.4080667E0,-8.108174E-2,7.6100755E-1,1.7517537E0,1.5337117E0,-8.10799E-2,1.7544408E0,-7.944066E-2,-8.1031956E-2,1.7254363E0,1.7548399E0,-7.1096204E-2,-9.203404E-2,8.6596005E-2,8.7757416E-2,-6.8594955E-2],"categories":[],"categories_nodes":[],"categories_segments":[],"categories_sizes":[],"default_left":[0,0,0,0,0,0,0,0,0,0,0,0,0,0,0,0,0,0,0],"id":4,"left_children":[1,3,-1,5,-1,7,9,11,-1,13,-1,-1,15,17,-1,-1,-1,-1,-1],"loss_changes":[2.7684116E5,6.985634E4,0E0,1.805861E4,0E0,5.1870914E4,4.7890625E2,1.2868875E4,0E0,6.965625E1,0E0,0E0,4.6691406E2,5.35E1,0E0,0E0,0E0,0E0,0E0],"parents":[2147483647,0,0,1,1,3,3,5,5,6,6,7,7,9,9,12,12,13,13],"right_children":[2,4,-1,6,-1,8,10,12,-1,14,-1,-1,16,18,-1,-1,-1,-1,-1],"split_conditions":[1E0,6.02E2,-8.108906E-2,5.99E2,-8.108174E-2,1.56E2,6.64E-3,1.5E2,-8.10799E-2,2.0363448E0,-7.944066E-2,-8.1031956E-2,1.0039355E0,4.296578E-7,-7.1096204E-2,-9.203404E-2,8.6596005E-2,8.7757416E-2,-6.8594955E-2],"split_indices":[32,31,0,31,0,31,8,31,0,17,0,0,17,14,0,0,0,0,0],"split_type":[0,0,0,0,0,0,0,0,0,0,0,0,0,0,0,0,0,0,0],"sum_hessian":[1.5180708E5,8.960552E4,6.2201555E4,8.120905E4,8.396475E3,2.8172297E4,5.3036754E4,2.127345E4,6.8988477E3,5.2994598E4,4.21535E1,1.2185072E3,2.0054943E4,5.298839E4,6.209389E0,3.588265E1,2.001906E4,5.29836E4,4.787907E0],"tree_param":{"num_deleted":"0","num_feature":"36","num_nodes":"19","size_leaf_vector":"1"}},{"base_weights":[-1.0869905E-3,1.0843346E0,-7.866749E-2,1.3574573E0,-7.866039E-2,7.343295E-1,1.687913E0,1.4776905E0,-7.86586E-2,1.690496E0,-7.70683E-2,-7.8612044E-2,1.6617644E0,1.6908814E0,-6.9015786E-2,8.339639E-2,-9.582164E-2,-9.4024695E-2,8.4557444E-2],"categories":[],"categories_nodes":[],"categories_segments":[],"categories_sizes":[],"default_left":[0,0,0,0,0,0,0,0,0,0,0,0,0,0,0,0,0,0,0],"id":5,"left_children":[1,3,-1,5,-1,7,9,11,-1,13,-1,-1,15,17,-1,-1,-1,-1,-1],"loss_changes":[2.5465608E5,6.4077375E4,0E0,1.6482625E4,0E0,4.7589855E4,4.389375E2,1.1783117E4,0E0,6.41875E1,0E0,0E0,4.3963672E2,5.309375E1,0E0,0E0,0E0,0E0,0E0],"parents":[2147483647,0,0,1,1,3,3,5,5,6,6,7,7,9,9,12,12,13,13],"right_children":[2,4,-1,6,-1,8,10,12,-1,14,-1,-1,16,18,-1,-1,-1,-1,-1],"split_conditions":[1E0,6.02E2,-7.866749E-2,5.99E2,-7.866039E-2,1.56E2,6.64E-3,1.5E2,-7.86586E-2,2.0363448E0,-7.70683E-2,-7.8612044E-2,2.3E1,-4.2528737E-7,-6.9015786E-2,8.339639E-2,-9.582164E-2,-9.4024695E-2,8.4557444E-2],"split_indices":[32,31,0,31,0,31,8,31,0,17,0,0,9,14,0,0,0,0,0],"split_type":[0,0,0,0,0,0,0,0,0,0,0,0,0,0,0,0,0,0,0],"sum_hessian":[1.4921917E5,8.827694E4,6.0942234E4,8.005043E4,8.226506E3,2.7741871E4,5.2308562E4,2.098267E4,6.7592017E3,5.226723E4,4.1330082E1,1.1938677E3,1.9788803E4,5.226112E4,6.1094003E0,1.9755309E4,3.3494026E1,3.3880792E0,5.2257734E4],"tree_param":{"num_deleted":"0","num_feature":"36","num_nodes":"19","size_leaf_vector":"1"}},{"base_weights":[-1.1828727E-3,1.0490046E0,-7.649862E-2,1.3125947E0,-7.649167E-2,7.1058476E-1,1.6314414E0,1.4279283E0,-7.648992E-2,1.633933E0,-7.493367E-2,-7.644429E-2,1.6052364E0,1.6342992E0,-7.0336826E-2,-9.1659606E-2,8.05838E-2,-8.744397E-2,8.1731014E-2],"categories":[],"categories_nodes":[],"categories_segments":[],"categories_sizes":[],"default_left":[0,0,0,0,0,0,0,0,0,0,0,0,0,0,0,0,0,0,0],"id":6,"left_children":[1,3,-1,5,-1,7,9,11,-1,13,-1,-1,15,17,-1,-1,-1,-1,-1],"loss_changes":[2.348762E5,5.8951188E4,0E0,1.5101281E4,0E0,4.3787637E4,4.03625E2,1.0821977E4,0E0,5.9515625E1,0E0,0E0,4.340664E2,5.86875E1,0E0,0E0,0E0,0E0,0E0],"parents":[2147483647,0,0,1,1,3,3,5,5,6,6,7,7,9,9,12,12,13,13],"right_children":[2,4,-1,6,-1,8,10,12,-1,14,-1,-1,16,18,-1,-1,-1,-1,-1],"split_conditions":[1E0,6.02E2,-7.649862E-2,5.99E2,-7.649167E-2,1.56E2,6.64E-3,1.5E2,-7.648992E-2,4.296578E-7,-7.493367E-2,-7.644429E-2,1.0039355E0,-4.2528737E-7,-7.0336826E-2,-9.1659606E-2,8.05838E-2,-8.744397E-2,8.1731014E-2],"split_indices":[32,31,0,31,0,31,8,31,0,14,0,0,17,14,0,0,0,0,0],"split_type":[0,0,0,0,0,0,0,0,0,0,0,0,0,0,0,0,0,0,0],"sum_hessian":[1.4629131E5,8.6720086E4,5.9571227E4,7.867862E4,8.0414653E3,2.7243598E4,5.1435023E4,2.0636426E4,6.6071714E3,5.139459E4,4.0433228E1,1.1670426E3,1.9469383E4,5.1388863E4,5.726493E0,3.586429E1,1.943352E4,4.3612366E0,5.1384504E4],"tree_param":{"num_deleted":"0","num_feature":"36","num_nodes":"19","size_leaf_vector":"1"}},{"base_weights":[-1.2628924E-3,1.0174809E0,-7.454702E-2,1.2725978E0,-7.4540146E-2,6.8934125E-1,1.5811863E0,1.3834893E0,-7.453842E-2,1.583598E0,-7.366954E-2,-7.449336E-2,1.55478E0,-8.101658E-2,1.5840484E0,7.804745E-2,-9.5106065E-2,-8.568745E-2,7.922047E-2],"categories":[],"categories_nodes":[],"categories_segments":[],"categories_sizes":[],"default_left":[0,0,0,0,0,0,0,0,0,0,0,0,0,0,0,0,0,0,0],"id":7,"left_children":[1,3,-1,5,-1,7,9,11,-1,13,-1,-1,15,-1,17,-1,-1,-1,-1],"loss_changes":[2.1715012E5,5.4378312E4,0E0,1.3881492E4,0E0,4.039264E4,3.739453E2,9.966391E3,0E0,7.527344E1,0E0,0E0,4.1040625E2,0E0,6.2703125E1,0E0,0E0,0E0,0E0],"parents":[2147483647,0,0,1,1,3,3,5,5,6,6,7,7,9,9,12,12,14,14],"right_children":[2,4,-1,6,-1,8,10,12,-1,14,-1,-1,16,-1,18,-1,-1,-1,-1],"split_conditions":[1E0,6.02E2,-7.454702E-2,5.99E2,-7.4540146E-2,1.56E2,2.0363448E0,1.5E2,-7.453842E-2,-4.2528737E-7,-7.366954E-2,-7.449336E-2,2.3E1,-8.101658E-2,8.42E2,7.804745E-2,-9.5106065E-2,-8.568745E-2,7.922047E-2],"split_indices":[32,31,0,31,0,31,17,31,0,14,0,0,9,0,1,0,0,0,0],"split_type":[0,0,0,0,0,0,0,0,0,0,0,0,0,0,0,0,0,0,0],"sum_hessian":[1.4308589E5,8.497469E4,5.8111207E4,7.713028E4,7.844411E3,2.6689066E4,5.044121E4,2.0243797E4,6.4452705E3,5.0401895E4,3.931395E1,1.1384756E3,1.910532E4,6.5767627E0,5.039532E4,1.9071836E4,3.348527E1,4.995067E0,5.0390324E4],"tree_param":{"num_deleted":"0","num_feature":"36","num_nodes":"19","size_leaf_vector":"1"}},{"base_weights":[-1.3306107E-3,9.8919505E-1,-7.278356E-2,1.2367339E0,-7.277673E-2,6.702165E-1,1.5362171E0,1.3435348E0,-7.277501E-2,1.538558E0,-7.1858704E-2,-7.2730206E-2,1.5094317E0,-7.822062E-2,1.5389993E0,-9.107586E-2,7.57961E-2,-8.256408E-2,7.696771E-2],"categories":[],"categories_nodes":[],"categories_segments":[],"categories_sizes":[],"default_left":[0,0,0,0,0,0,0,0,0,0,0,0,0,0,0,0,0,0,0],"id":8,"left_children":[1,3,-1,5,-1,7,9,11,-1,13,-1,-1,15,-1,17,-1,-1,-1,-1],"loss_changes":[2.0119028E5,5.0277758E4,0E0,1.2798305E4,0E0,3.734514E4,3.4571875E2,9.200371E3,0E0,6.992969E1,0E0,0E0,4.0717578E2,0E0,5.8335938E1,0E0,0E0,0E0,0E0],"parents":[2147483647,0,0,1,1,3,3,5,5,6,6,7,7,9,9,12,12,14,14],"right_children":[2,4,-1,6,-1,8,10,12,-1,14,-1,-1,16,-1,18,-1,-1,-1,-1],"split_conditions":[1E0,6.02E2,-7.278356E-2,5.99E2,-7.277673E-2,1.56E2,2.0363448E0,1.5E2,-7.277501E-2,-4.2528737E-7,-7.1858704E-2,-7.2730206E-2,1.0039355E0,-7.822062E-2,8.42E2,-9.107586E-2,7.57961E-2,-8.256408E-2,7.696771E-2],"split_indices":[32,31,0,31,0,31,17,31,0,14,0,0,17,0,1,0,0,0,0],"split_type":[0,0,0,0,0,0,0,0,0,0,0,0,0,0,0,0,0,0,0],"sum_hessian":[1.39659E5,8.307703E4,5.6581977E4,7.5439016E4,7.6380137E3,2.6089691E4,4.9349324E4,1.9813998E4,6.2756934E3,4.9310984E4,3.833931E1,1.1085535E3,1.8705445E4,6.508685E0,4.9304477E4,3.5832672E1,1.8669611E4,4.9634213E0,4.929951E4],"tree_param":{"num_deleted":"0","num_feature":"36","num_nodes":"19","size_leaf_vector":"1"}},{"base_weights":[-1.3882034E-3,9.637008E-1,-7.11841E-2,1.2044291E0,-7.117727E-2,6.52932E-1,1.495781E0,1.3074696E0,-7.117554E-2,1.4980586E0,-7.020976E-2,-7.1130715E-2,1.4685116E0,-7.567784E-2,1.4984921E0,7.3738284E-2,-9.421434E-2,-7.97144E-2,7.4942075E-2],"categories":[],"categories_nodes":[],"categories_segments":[],"categories_sizes":[],"default_left":[0,0,0,0,0,0,0,0,0,0,0,0,0,0,0,0,0,0,0],"id":9,"left_children":[1,3,-1,5,-1,7,9,11,-1,13,-1,-1,15,-1,17,-1,-1,-1,-1],"loss_changes":[1.8676177E5,4.658425E4,0E0,1.1830492E4,0E0,3.4598234E4,3.2033594E2,8.511598E3,0E0,6.5125E1,0E0,0E0,3.8602734E2,0E0,5.4398438E1,0E0,0E0,0E0,0E0],"parents":[2147483647,0,0,1,1,3,3,5,5,6,6,7,7,9,9,12,12,14,14],"right_children":[2,4,-1,6,-1,8,10,12,-1,14,-1,-1,16,-1,18,-1,-1,-1,-1],"split_conditions":[1E0,6.02E2,-7.11841E-2,5.99E2,-7.117727E-2,1.56E2,2.0363448E0,1.5E2,-7.117554E-2,-4.2528737E-7,-7.020976E-2,-7.1130715E-2,2.3E1,-7.567784E-2,8.42E2,7.3738284E-2,-9.421434E-2,-7.97144E-2,7.4942075E-2],"split_indices":[32,31,0,31,0,31,17,31,0,14,0,0,9,0,1,0,0,0,0],"split_type":[0,0,0,0,0,0,0,0,0,0,0,0,0,0,0,0,0,0,0],"sum_hessian":[1.3605827E5,8.105751E4,5.5000766E4,7.363291E4,7.4246E3,2.5454172E4,4.8178734E4,1.9353818E4,6.100352E3,4.8141406E4,3.7326912E1,1.0776138E3,1.8276205E4,6.4266605E0,4.813498E4,1.8242736E4,3.3468597E1,4.9206195E0,4.813006E4],"tree_param":{"num_deleted":"0","num_feature":"36","num_nodes":"19","size_leaf_vector":"1"}},{"base_weights":[-1.4379863E-3,9.4061494E-1,-6.972846E-2,1.175191E0,-6.972157E-2,6.372242E-1,1.4592599E0,1.2747184E0,-6.971984E-2,1.4614809E0,-6.870254E-2,-6.967475E-2,1.4313596E0,-7.3354036E-2,1.4619075E0,-9.034341E-2,7.189878E-2,-7.7101946E-2,7.3112614E-2],"categories":[],"categories_nodes":[],"categories_segments":[],"categories_sizes":[],"default_left":[0,0,0,0,0,0,0,0,0,0,0,0,0,0,0,0,0,0,0],"id":10,"left_children":[1,3,-1,5,-1,7,9,11,-1,13,-1,-1,15,-1,17,-1,-1,-1,-1],"loss_changes":[1.736683E5,4.3243406E4,0E0,1.0962156E4,0E0,3.2111496E4,2.974297E2,7.889365E3,0E0,6.0757812E1,0E0,0E0,3.8448828E2,0E0,5.0820312E1,0E0,0E0,0E0,0E0],"parents":[2147483647,0,0,1,1,3,3,5,5,6,6,7,7,9,9,12,12,14,14],"right_children":[2,4,-1,6,-1,8,10,12,-1,14,-1,-1,16,-1,18,-1,-1,-1,-1],"split_conditions":[1E0,6.02E2,-6.972846E-2,5.99E2,-6.972157E-2,1.56E2,2.0363448E0,1.5E2,-6.971984E-2,-4.2528737E-7,-6.870254E-2,-6.967475E-2,1.0039355E0,-7.3354036E-2,8.42E2,-9.034341E-2,7.189878E-2,-7.7101946E-2,7.3112614E-2],"split_indices":[32,31,0,31,0,31,17,31,0,14,0,0,17,0,1,0,0,0,0],"split_type":[0,0,0,0,0,0,0,0,0,0,0,0,0,0,0,0,0,0,0],"sum_hessian":[1.3232647E5,7.8943914E4,5.3382555E4,7.173772E4,7.2061934E3,2.479135E4,4.694637E4,1.8870443E4,5.920907E3,4.6910082E4,3.6286823E1,1.0459492E3,1.7824494E4,6.3327813E0,4.690375E4,3.578767E1,1.7788705E4,4.8681707E0,4.6898883E4],"tree_param":{"num_deleted":"0","num_feature":"36","num_nodes":"19","size_leaf_vector":"1"}},{"base_weights":[-1.4812751E-3,9.1963494E-1,-6.839958E-2,1.148632E0,-6.839263E-2,6.229077E-1,1.4261429E0,1.2448901E0,-6.8390876E-2,1.4283128E0,-6.732003E-2,-6.83453E-2,1.3975309E0,-7.122084E-2,1.4287335E0,7.014346E-2,-1.3562833E-1,7.145449E-2,-7.679836E-2],"categories":[],"categories_nodes":[],"categories_segments":[],"categories_sizes":[],"default_left":[0,0,0,0,0,0,0,0,0,0,0,0,0,0,0,0,0,0,0],"id":11,"left_children":[1,3,-1,5,-1,7,9,11,-1,13,-1,-1,15,-1,17,-1,-1,-1,-1],"loss_changes":[1.6174681E5,4.021073E4,0E0,1.0178984E4,0E0,2.9852977E4,2.7666406E2,7.325371E3,0E0,5.6796875E1,0E0,0E0,3.8460938E2,0E0,5.0390625E1,0E0,0E0,0E0,0E0],"parents":[2147483647,0,0,1,1,3,3,5,5,6,6,7,7,9,9,12,12,14,14],"right_children":[2,4,-1,6,-1,8,10,12,-1,14,-1,-1,16,-1,18,-1,-1,-1,-1],"split_conditions":[1E0,6.02E2,-6.839958E-2,5.99E2,-6.839263E-2,1.56E2,2.0363448E0,1.5E2,-6.8390876E-2,-4.2528737E-7,-6.732003E-2,-6.83453E-2,2.000012E0,-7.122084E-2,4.296578E-7,7.014346E-2,-1.3562833E-1,7.145449E-2,-7.679836E-2],"split_indices":[32,31,0,31,0,31,17,31,0,14,0,0,17,0,14,0,0,0,0],"split_type":[0,0,0,0,0,0,0,0,0,0,0,0,0,0,0,0,0,0,0],"sum_hessian":[1.2849957E5,7.675923E4,5.1740348E4,6.977468E4,6.9845454E3,2.4107678E4,4.5667E4,1.8368877E4,5.7388E3,4.5631773E4,3.522782E1,1.0138146E3,1.7355062E4,6.228911E0,4.5625543E4,1.7333209E4,2.1854095E1,4.562058E4,4.9648757E0],"tree_param":{"num_deleted":"0","num_feature":"36","num_nodes":"19","size_leaf_vector":"1"}},{"base_weights":[-1.5197436E-3,9.004705E-1,-6.718303E-2,1.1243778E0,-6.717596E-2,6.09747E-1,1.3960025E0,1.2174536E0,-6.717419E-2,1.3981355E0,-6.591833E-2,-6.712793E-2,1.3664114E0,1.3985385E0,-7.344673E-2,6.858817E-2,-1.3877971E-1,-7.02387E-2,6.994195E-2],"categories":[],"categories_nodes":[],"categories_segments":[],"categories_sizes":[],"default_left":[0,0,0,0,0,0,0,0,0,0,0,0,0,0,0,0,0,0,0],"id":12,"left_children":[1,3,-1,5,-1,7,9,11,-1,13,-1,-1,15,17,-1,-1,-1,-1,-1],"loss_changes":[1.5085719E5,3.744748E4,0E0,9.471953E3,0E0,2.779232E4,2.5864844E2,6.8114824E3,0E0,5.325E1,0E0,0E0,3.7790625E2,3.9296875E1,0E0,0E0,0E0,0E0,0E0],"parents":[2147483647,0,0,1,1,3,3,5,5,6,6,7,7,9,9,12,12,13,13],"right_children":[2,4,-1,6,-1,8,10,12,-1,14,-1,-1,16,18,-1,-1,-1,-1,-1],"split_conditions":[1E0,6.02E2,-6.718303E-2,5.99E2,-6.717596E-2,1.56E2,6.64E-3,1.5E2,-6.717419E-2,4.296578E-7,-6.591833E-2,-6.712793E-2,4.6153994E-7,-4.2528737E-7,-7.344673E-2,6.858817E-2,-1.3877971E-1,-7.02387E-2,6.994195E-2],"split_indices":[32,31,0,31,0,31,8,31,0,14,0,0,14,14,0,0,0,0,0],"split_type":[0,0,0,0,0,0,0,0,0,0,0,0,0,0,0,0,0,0,0],"sum_hessian":[1.2461177E5,7.452639E4,5.0085383E4,6.776522E4,6.761176E3,2.3411713E4,4.4353504E4,1.7856436E4,5.5552773E3,4.431916E4,3.434189E1,9.814294E2,1.6875006E4,4.4313445E4,5.7153234E0,1.6853898E4,2.1108265E1,4.2487154E0,4.43092E4],"tree_param":{"num_deleted":"0","num_feature":"36","num_nodes":"19","size_leaf_vector":"1"}},{"base_weights":[-1.553965E-3,8.829249E-1,-6.606644E-2,1.1021788E0,-6.605924E-2,5.9764886E-1,1.3684782E0,1.1922332E0,-6.605743E-2,1.3705784E0,-6.5236636E-2,-6.6010304E-2,1.3378068E0,-7.694586E-2,1.3709865E0,-9.241881E-2,6.724576E-2,-6.7610316E-2,6.85676E-2],"categories":[],"categories_nodes":[],"categories_segments":[],"categories_sizes":[],"default_left":[0,0,0,0,0,0,0,0,0,0,0,0,0,0,0,0,0,0,0],"id":13,"left_children":[1,3,-1,5,-1,7,9,11,-1,13,-1,-1,15,-1,17,-1,-1,-1,-1],"loss_changes":[1.4088377E5,3.4922906E4,0E0,8.829719E3,0E0,2.5908662E4,2.433125E2,6.3424824E3,0E0,5.3140625E1,0E0,0E0,3.7363672E2,0E0,4.4609375E1,0E0,0E0,0E0,0E0],"parents":[2147483647,0,0,1,1,3,3,5,5,6,6,7,7,9,9,12,12,14,14],"right_children":[2,4,-1,6,-1,8,10,12,-1,14,-1,-1,16,-1,18,-1,-1,-1,-1],"split_conditions":[1E0,6.02E2,-6.606644E-2,5.99E2,-6.605924E-2,1.56E2,2.0363448E0,1.5E2,-6.605743E-2,8.42E2,-6.5236636E-2,-6.6010304E-2,1.0039355E0,-7.694586E-2,-4.2528737E-7,-9.241881E-2,6.724576E-2,-6.7610316E-2,6.85676E-2],"split_indices":[32,31,0,31,0,31,17,31,0,1,0,0,17,0,14,0,0,0,0],"split_type":[0,0,0,0,0,0,0,0,0,0,0,0,0,0,0,0,0,0,0],"sum_hessian":[1.20688664E5,7.226132E4,4.842734E4,6.572393E4,6.5373896E3,2.270685E4,4.3017082E4,1.7335438E4,5.3714126E3,4.2983797E4,3.328407E1,9.489832E2,1.6386455E4,5.4991536E0,4.2978297E4,3.5899986E1,1.6350555E4,5.268933E0,4.297303E4],"tree_param":{"num_deleted":"0","num_feature":"36","num_nodes":"19","size_leaf_vector":"1"}},{"base_weights":[-1.5844356E-3,8.668401E-1,-6.503917E-2,1.0818354E0,-6.503182E-2,5.865467E-1,1.3432724E0,1.1691121E0,-6.502997E-2,1.3453348E0,-6.412576E-2,-6.498181E-2,1.3115907E0,-7.470863E-2,1.3457398E0,6.593227E-2,-9.907192E-2,6.730547E-2,-7.3933326E-2],"categories":[],"categories_nodes":[],"categories_segments":[],"categories_sizes":[],"default_left":[0,0,0,0,0,0,0,0,0,0,0,0,0,0,0,0,0,0,0],"id":14,"left_children":[1,3,-1,5,-1,7,9,11,-1,13,-1,-1,15,-1,17,-1,-1,-1,-1],"loss_changes":[1.3172802E5,3.2611008E4,0E0,8.242836E3,0E0,2.4184316E4,2.2735938E2,5.91399E3,0E0,4.990625E1,0E0,0E0,3.7179883E2,0E0,4.5445312E1,0E0,0E0,0E0,0E0],"parents":[2147483647,0,0,1,1,3,3,5,5,6,6,7,7,9,9,12,12,14,14],"right_children":[2,4,-1,6,-1,8,10,12,-1,14,-1,-1,16,-1,18,-1,-1,-1,-1],"split_conditions":[1E0,6.02E2,-6.503917E-2,5.99E2,-6.503182E-2,1.56E2,2.0363448E0,1.5E2,-6.502997E-2,8.42E2,-6.412576E-2,-6.498181E-2,2.3E1,-7.470863E-2,4.296578E-7,6.593227E-2,-9.907192E-2,6.730547E-2,-7.3933326E-2],"split_indices":[32,31,0,31,0,31,17,31,0,1,0,0,9,0,14,0,0,0,0],"split_type":[0,0,0,0,0,0,0,0,0,0,0,0,0,0,0,0,0,0,0],"sum_hessian":[1.1675164E5,6.997712E4,4.6774527E4,6.366281E4,6.314309E3,2.1995639E4,4.1667168E4,1.6807512E4,5.1881284E3,4.1634957E4,3.2212147E1,9.166388E2,1.5890872E4,5.412771E0,4.1629543E4,1.58575E4,3.3371784E1,4.162462E4,4.922864E0],"tree_param":{"num_deleted":"0","num_feature":"36","num_nodes":"19","size_leaf_vector":"1"}},{"base_weights":[-1.6124499E-3,8.520224E-1,-6.409205E-2,1.0630974E0,-6.4084515E-2,5.762676E-1,1.3201187E0,1.1476926E0,-6.4082615E-2,1.3221463E0,-6.309491E-2,-6.403326E-2,1.2873012E0,-6.722098E-2,1.3225732E0,6.46561E-2,-1.3847917E-1,6.614708E-2,-7.149836E-2],"categories":[],"categories_nodes":[],"categories_segments":[],"categories_sizes":[],"default_left":[0,0,0,0,0,0,0,0,0,0,0,0,0,0,0,0,0,0,0],"id":15,"left_children":[1,3,-1,5,-1,7,9,11,-1,13,-1,-1,15,-1,17,-1,-1,-1,-1],"loss_changes":[1.233014E5,3.0487469E4,0E0,7.706703E3,0E0,2.259952E4,2.1272656E2,5.520666E3,0E0,4.7625E1,0E0,0E0,3.67125E2,0E0,4.2742188E1,0E0,0E0,0E0,0E0],"parents":[2147483647,0,0,1,1,3,3,5,5,6,6,7,7,9,9,12,12,14,14],"right_children":[2,4,-1,6,-1,8,10,12,-1,14,-1,-1,16,-1,18,-1,-1,-1,-1],"split_conditions":[1E0,6.02E2,-6.409205E-2,5.99E2,-6.4084515E-2,1.56E2,2.0363448E0,1.5E2,-6.4082615E-2,-4.2528737E-7,-6.309491E-2,-6.403326E-2,2.000012E0,-6.722098E-2,4.296578E-7,6.46561E-2,-1.3847917E-1,6.614708E-2,-7.149836E-2],"split_indices":[32,31,0,31,0,31,17,31,0,14,0,0,17,0,14,0,0,0,0],"split_type":[0,0,0,0,0,0,0,0,0,0,0,0,0,0,0,0,0,0,0],"sum_hessian":[1.1282379E5,6.768974E4,4.5134047E4,6.1596848E4,6.092893E3,2.1284547E4,4.03123E4,1.6278336E4,5.00621E3,4.0281156E4,3.1144917E1,8.8453485E2,1.5393802E4,5.9431963E0,4.0275215E4,1.5372426E4,2.1375307E1,4.0270344E4,4.8713274E0],"tree_param":{"num_deleted":"0","num_feature":"36","num_nodes":"19","size_leaf_vector":"1"}},{"base_weights":[-1.6384426E-3,8.3832246E-1,-6.321707E-2,1.0457731E0,-6.320933E-2,5.666885E-1,1.2988007E0,1.127701E0,-6.320739E-2,1.3008096E0,-6.219813E-2,-6.315668E-2,1.264624E0,1.3012229E0,-6.873976E-2,-9.412613E-2,6.361821E-2,-6.592818E-2,6.50766E-2],"categories":[],"categories_nodes":[],"categories_segments":[],"categories_sizes":[],"default_left":[0,0,0,0,0,0,0,0,0,0,0,0,0,0,0,0,0,0,0],"id":16,"left_children":[1,3,-1,5,-1,7,9,11,-1,13,-1,-1,15,17,-1,-1,-1,-1,-1],"loss_changes":[1.15528555E5,2.8532074E4,0E0,7.216621E3,0E0,2.1138627E4,2.0064062E2,5.158408E3,0E0,4.4835938E1,0E0,0E0,3.6535352E2,3.321875E1,0E0,0E0,0E0,0E0,0E0],"parents":[2147483647,0,0,1,1,3,3,5,5,6,6,7,7,9,9,12,12,13,13],"right_children":[2,4,-1,6,-1,8,10,12,-1,14,-1,-1,16,18,-1,-1,-1,-1,-1],"split_conditions":[1E0,6.02E2,-6.321707E-2,5.99E2,-6.320933E-2,1.56E2,6.64E-3,1.5E2,-6.320739E-2,4.296578E-7,-6.219813E-2,-6.315668E-2,1.0039355E0,-4.2528737E-7,-6.873976E-2,-9.412613E-2,6.361821E-2,-6.592818E-2,6.50766E-2],"split_indices":[32,31,0,31,0,31,8,31,0,14,0,0,17,14,0,0,0,0,0],"split_type":[0,0,0,0,0,0,0,0,0,0,0,0,0,0,0,0,0,0,0],"sum_hessian":[1.0892337E5,6.541145E4,4.3511918E4,5.9537496E4,5.8739526E3,2.0578049E4,3.8959445E4,1.5751724E4,4.826326E3,3.8929176E4,3.0268095E1,8.5278955E2,1.4898934E4,3.8923676E4,5.499351E0,3.5959217E1,1.4862975E4,4.086572E0,3.891959E4],"tree_param":{"num_deleted":"0","num_feature":"36","num_nodes":"19","size_leaf_vector":"1"}},{"base_weights":[-1.6622499E-3,8.2566345E-1,-6.2407266E-2,1.0297686E0,-6.2399287E-2,5.578281E-1,1.2791191E0,1.1092203E0,-6.239729E-2,1.2811052E0,-6.1580736E-2,-6.234507E-2,1.243664E0,-7.5617485E-2,1.2815344E0,6.2487867E-2,-1.462671E-1,-6.4201765E-2,6.4095736E-2],"categories":[],"categories_nodes":[],"categories_segments":[],"categories_sizes":[],"default_left":[0,0,0,0,0,0,0,0,0,0,0,0,0,0,0,0,0,0,0],"id":17,"left_children":[1,3,-1,5,-1,7,9,11,-1,13,-1,-1,15,-1,17,-1,-1,-1,-1],"loss_changes":[1.08346914E5,2.672893E4,0E0,6.7648164E3,0E0,1.9792324E4,1.8913672E2,4.825129E3,0E0,4.701172E1,0E0,0E0,3.6961328E2,0E0,3.83125E1,0E0,0E0,0E0,0E0],"parents":[2147483647,0,0,1,1,3,3,5,5,6,6,7,7,9,9,12,12,14,14],"right_children":[2,4,-1,6,-1,8,10,12,-1,14,-1,-1,16,-1,18,-1,-1,-1,-1],"split_conditions":[1E0,6.02E2,-6.2407266E-2,5.99E2,-6.2399287E-2,1.56E2,2.0363448E0,1.5E2,-6.239729E-2,8.42E2,-6.1580736E-2,-6.234507E-2,4.6153994E-7,-7.5617485E-2,-4.2528737E-7,6.2487867E-2,-1.462671E-1,-6.4201765E-2,6.4095736E-2],"split_indices":[32,31,0,31,0,31,17,31,0,1,0,0,14,0,14,0,0,0,0],"split_type":[0,0,0,0,0,0,0,0,0,0,0,0,0,0,0,0,0,0,0],"sum_hessian":[1.0506194E5,6.314871E4,4.191323E4,5.7490535E4,5.658176E3,1.9875617E4,3.7614918E4,1.5226576E4,4.6490415E3,3.7585676E4,2.9240614E1,8.215023E2,1.4405073E4,5.233893E0,3.758044E4,1.4384749E4,2.032411E1,5.0693946E0,3.7575375E4],"tree_param":{"num_deleted":"0","num_feature":"36","num_nodes":"19","size_leaf_vector":"1"}},{"base_weights":[-1.6851836E-3,8.1389105E-1,-6.1656505E-2,1.0148827E0,-6.164827E-2,5.4950136E-1,1.2609144E0,1.0918087E0,-6.1646204E-2,1.262874E0,-6.072519E-2,-6.1592337E-2,1.2239059E0,-7.352218E-2,1.2633026E0,6.1586417E-2,-1.002386E-1,6.3184574E-2,-6.9136344E-2],"categories":[],"categories_nodes":[],"categories_segments":[],"categories_sizes":[],"default_left":[0,0,0,0,0,0,0,0,0,0,0,0,0,0,0,0,0,0,0],"id":18,"left_children":[1,3,-1,5,-1,7,9,11,-1,13,-1,-1,15,-1,17,-1,-1,-1,-1],"loss_changes":[1.0169692E5,2.5061559E4,0E0,6.350367E3,0E0,1.854571E4,1.7753516E2,4.5166777E3,0E0,4.4320312E1,0E0,0E0,3.5401562E2,0E0,3.9058594E1,0E0,0E0,0E0,0E0],"parents":[2147483647,0,0,1,1,3,3,5,5,6,6,7,7,9,9,12,12,14,14],"right_children":[2,4,-1,6,-1,8,10,12,-1,14,-1,-1,16,-1,18,-1,-1,-1,-1],"split_conditions":[1E0,6.02E2,-6.1656505E-2,5.99E2,-6.164827E-2,1.56E2,2.0363448E0,1.5E2,-6.1646204E-2,8.42E2,-6.072519E-2,-6.1592337E-2,2.3E1,-7.352218E-2,4.296578E-7,6.1586417E-2,-1.002386E-1,6.3184574E-2,-6.9136344E-2],"split_indices":[32,31,0,31,0,31,17,31,0,1,0,0,9,0,14,0,0,0,0],"split_type":[0,0,0,0,0,0,0,0,0,0,0,0,0,0,0,0,0,0,0],"sum_hessian":[1.0125576E5,6.091354E4,4.034222E4,5.5467406E4,5.446134E3,1.9183705E4,3.62837E4,1.4708879E4,4.4748257E3,3.6255492E4,2.821017E1,7.907561E2,1.3918123E4,5.144664E0,3.6250348E4,1.3885101E4,3.3022507E1,3.624554E4,4.805426E0],"tree_param":{"num_deleted":"0","num_feature":"36","num_nodes":"19","size_leaf_vector":"1"}},{"base_weights":[-1.7066243E-3,8.029622E-1,-6.095938E-2,1.0010648E0,-6.0950864E-2,5.417565E-1,1.244034E0,1.0756159E0,-6.0948737E-2,1.2459725E0,-5.994491E-2,-6.089306E-2,1.205532E0,1.2464054E0,-6.659008E-2,-9.551077E-2,6.070208E-2,-6.393312E-2,6.2336456E-2],"categories":[],"categories_nodes":[],"categories_segments":[],"categories_sizes":[],"default_left":[0,0,0,0,0,0,0,0,0,0,0,0,0,0,0,0,0,0,0],"id":19,"left_children":[1,3,-1,5,-1,7,9,11,-1,13,-1,-1,15,17,-1,-1,-1,-1,-1],"loss_changes":[9.55312E4,2.351821E4,0E0,5.9666914E3,0E0,1.7392566E4,1.6709766E2,4.231783E3,0E0,4.0660156E1,0E0,0E0,3.585879E2,3.015625E1,0E0,0E0,0E0,0E0,0E0],"parents":[2147483647,0,0,1,1,3,3,5,5,6,6,7,7,9,9,12,12,13,13],"right_children":[2,4,-1,6,-1,8,10,12,-1,14,-1,-1,16,18,-1,-1,-1,-1,-1],"split_conditions":[1E0,6.02E2,-6.095938E-2,5.99E2,-6.0950864E-2,1.56E2,6.64E-3,1.5E2,-6.0948737E-2,4.296578E-7,-5.994491E-2,-6.089306E-2,1.0039355E0,-4.2528737E-7,-6.659008E-2,-9.551077E-2,6.070208E-2,-6.393312E-2,6.2336456E-2],"split_indices":[32,31,0,31,0,31,8,31,0,14,0,0,17,14,0,0,0,0,0],"split_type":[0,0,0,0,0,0,0,0,0,0,0,0,0,0,0,0,0,0,0],"sum_hessian":[9.7511766E4,5.8709367E4,3.88024E4,5.3471066E4,5.2383013E3,1.8500676E4,3.4970387E4,1.4196608E4,4.304068E3,3.4943152E4,2.7237036E1,7.606197E2,1.3435988E4,3.49378E4,5.3510838E0,3.598742E1,1.3400001E4,3.9728274E0,3.493383E4],"tree_param":{"num_deleted":"0","num_feature":"36","num_nodes":"19","size_leaf_vector":"1"}},{"base_weights":[-1.7271988E-3,7.9278034E-1,-6.0311116E-2,9.881907E-1,-6.0302313E-2,5.345031E-1,1.2283509E0,1.060435E0,-6.0300093E-2,1.2302837E0,-5.9515785E-2,-6.024247E-2,1.1883032E0,-7.287378E-2,1.230722E0,5.9752535E-2,-1.4573039E-1,-6.265768E-2,6.1556287E-2],"categories":[],"categories_nodes":[],"categories_segments":[],"categories_sizes":[],"default_left":[0,0,0,0,0,0,0,0,0,0,0,0,0,0,0,0,0,0,0],"id":20,"left_children":[1,3,-1,5,-1,7,9,11,-1,13,-1,-1,15,-1,17,-1,-1,-1,-1],"loss_changes":[8.980484E4,2.2086887E4,0E0,5.61166E3,0E0,1.6323129E4,1.5891797E2,3.9678486E3,0E0,4.1433594E1,0E0,0E0,3.6233398E2,0E0,3.5289062E1,0E0,0E0,0E0,0E0],"parents":[2147483647,0,0,1,1,3,3,5,5,6,6,7,7,9,9,12,12,14,14],"right_children":[2,4,-1,6,-1,8,10,12,-1,14,-1,-1,16,-1,18,-1,-1,-1,-1],"split_conditions":[1E0,6.02E2,-6.0311116E-2,5.99E2,-6.0302313E-2,1.56E2,2.0363448E0,1.5E2,-6.0300093E-2,8.42E2,-5.9515785E-2,-6.024247E-2,2.000012E0,-7.287378E-2,-4.2528737E-7,5.9752535E-2,-1.4573039E-1,-6.265768E-2,6.1556287E-2],"split_indices":[32,31,0,31,0,31,17,31,0,1,0,0,17,0,14,0,0,0,0],"split_type":[0,0,0,0,0,0,0,0,0,0,0,0,0,0,0,0,0,0,0],"sum_hessian":[9.383988E4,5.6543242E4,3.729664E4,5.1508176E4,5.035065E3,1.7829543E4,3.3678637E4,1.3692456E4,4.1370864E3,3.3652234E4,2.640101E1,7.311495E2,1.2961306E4,4.9441047E0,3.364729E4,1.2940733E4,2.0572954E1,4.964261E0,3.3642324E4],"tree_param":{"num_deleted":"0","num_feature":"36","num_nodes":"19","size_leaf_vector":"1"}},{"base_weights":[-1.7475642E-3,7.832429E-1,-5.9707474E-2,9.76127E-1,-5.969835E-2,5.27619E-1,1.2137585E0,1.0459777E0,-5.969606E-2,1.215671E0,-5.878957E-2,-5.9636332E-2,1.1718832E0,-7.097309E-2,1.2161095E0,5.8934685E-2,-1.472673E-1,6.0826212E-2,-6.696725E-2],"categories":[],"categories_nodes":[],"categories_segments":[],"categories_sizes":[],"default_left":[0,0,0,0,0,0,0,0,0,0,0,0,0,0,0,0,0,0,0],"id":21,"left_children":[1,3,-1,5,-1,7,9,11,-1,13,-1,-1,15,-1,17,-1,-1,-1,-1],"loss_changes":[8.447748E4,2.075666E4,0E0,5.284258E3,0E0,1.5327875E4,1.4954688E2,3.7222842E3,0E0,3.9160156E1,0E0,0E0,3.5393555E2,0E0,3.5941406E1,0E0,0E0,0E0,0E0],"parents":[2147483647,0,0,1,1,3,3,5,5,6,6,7,7,9,9,12,12,14,14],"right_children":[2,4,-1,6,-1,8,10,12,-1,14,-1,-1,16,-1,18,-1,-1,-1,-1],"split_conditions":[1E0,6.02E2,-5.9707474E-2,5.99E2,-5.969835E-2,1.56E2,2.0363448E0,1.5E2,-5.969606E-2,8.42E2,-5.878957E-2,-5.9636332E-2,4.6153994E-7,-7.097309E-2,4.296578E-7,5.8934685E-2,-1.472673E-1,6.0826212E-2,-6.696725E-2],"split_indices":[32,31,0,31,0,31,17,31,0,1,0,0,14,0,14,0,0,0,0],"split_type":[0,0,0,0,0,0,0,0,0,0,0,0,0,0,0,0,0,0,0],"sum_hessian":[9.024938E4,5.4422152E4,3.582723E4,4.9585414E4,4.8367354E3,1.7174086E4,3.241133E4,1.319995E4,3.9741355E3,3.2385902E4,2.5427801E1,7.0239E2,1.2497561E4,4.8518114E0,3.238105E4,1.2477634E4,1.9926075E1,3.237632E4,4.7294044E0],"tree_param":{"num_deleted":"0","num_feature":"36","num_nodes":"19","size_leaf_vector":"1"}},{"base_weights":[-1.7677187E-3,7.743114E-1,-5.9144676E-2,9.648273E-1,-5.9135217E-2,5.211208E-1,1.2001494E0,1.0323054E0,-5.9132833E-2,1.202043E0,-5.8104426E-2,-5.9070855E-2,1.1563486E0,-6.229527E-2,1.2025119E0,-9.661033E-2,5.8288395E-2,-7.018875E-2,6.0145687E-2],"categories":[],"categories_nodes":[],"categories_segments":[],"categories_sizes":[],"default_left":[0,0,0,0,0,0,0,0,0,0,0,0,0,0,0,0,0,0,0],"id":22,"left_children":[1,3,-1,5,-1,7,9,11,-1,13,-1,-1,15,-1,17,-1,-1,-1,-1],"loss_changes":[7.9515664E4,1.951917E4,0E0,4.9805117E3,0E0,1.4401863E4,1.4083984E2,3.4939932E3,0E0,3.7246094E1,0E0,0E0,3.5265918E2,0E0,3.4308594E1,0E0,0E0,0E0,0E0],"parents":[2147483647,0,0,1,1,3,3,5,5,6,6,7,7,9,9,12,12,14,14],"right_children":[2,4,-1,6,-1,8,10,12,-1,14,-1,-1,16,-1,18,-1,-1,-1,-1],"split_conditions":[1E0,6.02E2,-5.9144676E-2,5.99E2,-5.9135217E-2,1.56E2,2.0363448E0,1.5E2,-5.9132833E-2,-4.2528737E-7,-5.8104426E-2,-5.9070855E-2,1.0039355E0,-6.229527E-2,8.42E2,-9.661033E-2,5.8288395E-2,-7.018875E-2,6.0145687E-2],"split_indices":[32,31,0,31,0,31,17,31,0,14,0,0,17,0,1,0,0,0,0],"split_type":[0,0,0,0,0,0,0,0,0,0,0,0,0,0,0,0,0,0,0],"sum_hessian":[8.674421E4,5.2348242E4,3.4395973E4,4.7704688E4,4.643554E3,1.6533506E4,3.1171182E4,1.2718089E4,3.815416E3,3.1146705E4,2.4477144E1,6.743769E2,1.2043712E4,5.455563E0,3.114125E4,3.599818E1,1.2007714E4,4.2625494E0,3.1136986E4],"tree_param":{"num_deleted":"0","num_feature":"36","num_nodes":"19","size_leaf_vector":"1"}},{"base_weights":[-1.7868453E-3,7.6596445E-1,-5.861935E-2,9.5426697E-1,-5.8609515E-2,5.1504E-1,1.1874408E0,1.0195111E0,-5.8607038E-2,1.1893172E0,-5.745657E-2,-5.8542658E-2,1.1418127E0,-6.0938526E-2,1.1897862E0,5.7552498E-2,-1.0448636E-1,5.9511464E-2,-6.6773936E-2],"categories":[],"categories_nodes":[],"categories_segments":[],"categories_sizes":[],"default_left":[0,0,0,0,0,0,0,0,0,0,0,0,0,0,0,0,0,0,0],"id":23,"left_children":[1,3,-1,5,-1,7,9,11,-1,13,-1,-1,15,-1,17,-1,-1,-1,-1],"loss_changes":[7.489002E4,1.8367154E4,0E0,4.696996E3,0E0,1.3540791E4,1.3273047E2,3.2820244E3,0E0,3.526172E1,0E0,0E0,3.4865723E2,0E0,3.5078125E1,0E0,0E0,0E0,0E0],"parents":[2147483647,0,0,1,1,3,3,5,5,6,6,7,7,9,9,12,12,14,14],"right_children":[2,4,-1,6,-1,8,10,12,-1,14,-1,-1,16,-1,18,-1,-1,-1,-1],"split_conditions":[1E0,6.02E2,-5.861935E-2,5.99E2,-5.8609515E-2,1.56E2,2.0363448E0,1.5E2,-5.8607038E-2,-4.2528737E-7,-5.745657E-2,-5.8542658E-2,2.3E1,-6.0938526E-2,4.296578E-7,5.7552498E-2,-1.0448636E-1,5.9511464E-2,-6.6773936E-2],"split_indices":[32,31,0,31,0,31,17,31,0,14,0,0,9,0,14,0,0,0,0],"split_type":[0,0,0,0,0,0,0,0,0,0,0,0,0,0,0,0,0,0,0],"sum_hessian":[8.332675E4,5.032251E4,3.3004242E4,4.5866805E4,4.455707E3,1.5906714E4,2.996009E4,1.2245635E4,3.6610789E3,2.9936541E4,2.3550247E1,6.471368E2,1.1598498E4,5.3237877E0,2.9931217E4,1.1566081E4,3.241758E1,2.9926494E4,4.7218533E0],"tree_param":{"num_deleted":"0","num_feature":"36","num_nodes":"19","size_leaf_vector":"1"}},{"base_weights":[-1.8058446E-3,7.5811404E-1,-5.8128454E-2,9.4433105E-1,-5.811822E-2,5.092608E-1,1.1755525E0,1.0073196E0,-5.811565E-2,1.1774204E0,-5.7220858E-2,-5.8048703E-2,1.1279536E0,1.1779066E0,-6.4421676E-2,5.677817E-2,-1.4712347E-1,-5.9127476E-2,5.8912624E-2],"categories":[],"categories_nodes":[],"categories_segments":[],"categories_sizes":[],"default_left":[0,0,0,0,0,0,0,0,0,0,0,0,0,0,0,0,0,0,0],"id":24,"left_children":[1,3,-1,5,-1,7,9,11,-1,13,-1,-1,15,17,-1,-1,-1,-1,-1],"loss_changes":[7.05713E4,1.7292625E4,0E0,4.433496E3,0E0,1.2737304E4,1.2606641E2,3.0843486E3,0E0,3.6003906E1,0E0,0E0,3.4920312E2,2.4867188E1,0E0,0E0,0E0,0E0,0E0],"parents":[2147483647,0,0,1,1,3,3,5,5,6,6,7,7,9,9,12,12,13,13],"right_children":[2,4,-1,6,-1,8,10,12,-1,14,-1,-1,16,18,-1,-1,-1,-1,-1],"split_conditions":[1E0,6.02E2,-5.8128454E-2,5.99E2,-5.811822E-2,1.56E2,6.64E-3,1.5E2,-5.811565E-2,4.296578E-7,-5.7220858E-2,-5.8048703E-2,2.000012E0,-4.2528737E-7,-6.4421676E-2,5.677817E-2,-1.4712347E-1,-5.9127476E-2,5.8912624E-2],"split_indices":[32,31,0,31,0,31,8,31,0,14,0,0,17,14,0,0,0,0,0],"split_type":[0,0,0,0,0,0,0,0,0,0,0,0,0,0,0,0,0,0,0],"sum_hessian":[8.0002914E4,4.8349902E4,3.165301E4,4.4076574E4,4.273327E3,1.5296888E4,2.8779688E4,1.1785655E4,3.5112327E3,2.8757027E4,2.2660213E1,6.20689E2,1.1164966E4,2.8751879E4,5.1480837E0,1.1144852E4,2.0114365E1,3.711243E0,2.8748168E4],"tree_param":{"num_deleted":"0","num_feature":"36","num_nodes":"19","size_leaf_vector":"1"}},{"base_weights":[-1.8256796E-3,7.5069416E-1,-5.7669263E-2,9.3493414E-1,-5.765861E-2,5.037141E-1,1.164406E0,9.955705E-1,-5.765593E-2,1.1662731E0,-5.657952E-2,-5.758626E-2,1.1145859E0,-7.024239E-2,1.1667536E0,-9.746794E-2,5.6253362E-2,5.836006E-2,-6.324381E-2],"categories":[],"categories_nodes":[],"categories_segments":[],"categories_sizes":[],"default_left":[0,0,0,0,0,0,0,0,0,0,0,0,0,0,0,0,0,0,0],"id":25,"left_children":[1,3,-1,5,-1,7,9,11,-1,13,-1,-1,15,-1,17,-1,-1,-1,-1],"loss_changes":[6.653398E4,1.628882E4,0E0,4.188871E3,0E0,1.1985907E4,1.1978516E2,2.8995156E3,0E0,3.575E1,0E0,0E0,3.4728027E2,0E0,3.1515625E1,0E0,0E0,0E0,0E0],"parents":[2147483647,0,0,1,1,3,3,5,5,6,6,7,7,9,9,12,12,14,14],"right_children":[2,4,-1,6,-1,8,10,12,-1,14,-1,-1,16,-1,18,-1,-1,-1,-1],"split_conditions":[1E0,6.02E2,-5.7669263E-2,5.99E2,-5.765861E-2,1.56E2,2.0363448E0,1.5E2,-5.765593E-2,8.42E2,-5.657952E-2,-5.758626E-2,1.0039355E0,-7.024239E-2,4.296578E-7,-9.746794E-2,5.6253362E-2,5.836006E-2,-6.324381E-2],"split_indices":[32,31,0,31,0,31,17,31,0,1,0,0,17,0,14,0,0,0,0],"split_type":[0,0,0,0,0,0,0,0,0,0,0,0,0,0,0,0,0,0,0],"sum_hessian":[7.6776414E4,4.643347E4,3.0342943E4,4.2336965E4,4.096503E3,1.4705604E4,2.7631363E4,1.1339652E4,3.3659514E3,2.7609402E4,2.1961655E1,5.9504645E2,1.0744605E4,4.6123543E0,2.760479E4,3.599989E1,1.0708605E4,2.760023E4,4.5596156E0],"tree_param":{"num_deleted":"0","num_feature":"36","num_nodes":"19","size_leaf_vector":"1"}},{"base_weights":[-1.8447646E-3,7.437253E-1,-5.723932E-2,9.261073E-1,-5.722822E-2,4.984964E-1,1.1539458E0,9.8451495E-1,-5.7225436E-2,1.155797E0,-5.6318134E-2,-5.7152864E-2,1.1020073E0,1.1562871E0,-6.1352164E-2,5.550269E-2,-1.5289046E-1,-5.9021246E-2,5.7832774E-2],"categories":[],"categories_nodes":[],"categories_segments":[],"categories_sizes":[],"default_left":[0,0,0,0,0,0,0,0,0,0,0,0,0,0,0,0,0,0,0],"id":26,"left_children":[1,3,-1,5,-1,7,9,11,-1,13,-1,-1,15,17,-1,-1,-1,-1,-1],"loss_changes":[6.275807E4,1.53511875E4,0E0,3.9594727E3,0E0,1.1285007E4,1.13234375E2,2.7273516E3,0E0,3.2359375E1,0E0,0E0,3.4933984E2,2.4171875E1,0E0,0E0,0E0,0E0,0E0],"parents":[2147483647,0,0,1,1,3,3,5,5,6,6,7,7,9,9,12,12,13,13],"right_children":[2,4,-1,6,-1,8,10,12,-1,14,-1,-1,16,18,-1,-1,-1,-1,-1],"split_conditions":[1E0,6.02E2,-5.723932E-2,5.99E2,-5.722822E-2,1.56E2,6.64E-3,1.5E2,-5.7225436E-2,4.296578E-7,-5.6318134E-2,-5.7152864E-2,4.6153994E-7,-4.2528737E-7,-6.1352164E-2,5.550269E-2,-1.5289046E-1,-5.9021246E-2,5.7832774E-2],"split_indices":[32,31,0,31,0,31,8,31,0,14,0,0,14,14,0,0,0,0,0],"split_type":[0,0,0,0,0,0,0,0,0,0,0,0,0,0,0,0,0,0,0],"sum_hessian":[7.3645336E4,4.457093E4,2.9074408E4,4.0645645E4,3.9252834E3,1.4129801E4,2.6515844E4,1.0904526E4,3.225275E3,2.649483E4,2.1015171E1,5.702165E2,1.033431E4,2.6489896E4,4.9336185E0,1.031509E4,1.9219837E1,3.6704214E0,2.6486225E4],"tree_param":{"num_deleted":"0","num_feature":"36","num_nodes":"19","size_leaf_vector":"1"}},{"base_weights":[-1.8650598E-3,7.371007E-1,-5.6836404E-2,9.177091E-1,-5.682483E-2,4.9343497E-1,1.1441101E0,9.7373426E-1,-5.6821924E-2,1.1459745E0,-5.5814307E-2,-5.6746293E-2,1.0897274E0,-6.987695E-2,1.1464734E0,5.5009592E-2,-1.0561191E-1,-5.8573466E-2,5.7347097E-2],"categories":[],"categories_nodes":[],"categories_segments":[],"categories_sizes":[],"default_left":[0,0,0,0,0,0,0,0,0,0,0,0,0,0,0,0,0,0,0],"id":27,"left_children":[1,3,-1,5,-1,7,9,11,-1,13,-1,-1,15,-1,17,-1,-1,-1,-1],"loss_changes":[5.922098E4,1.4473279E4,0E0,3.7464453E3,0E0,1.062775E4,1.0846484E2,2.5658818E3,0E0,3.385547E1,0E0,0E0,3.3535547E2,0E0,2.89375E1,0E0,0E0,0E0,0E0],"parents":[2147483647,0,0,1,1,3,3,5,5,6,6,7,7,9,9,12,12,14,14],"right_children":[2,4,-1,6,-1,8,10,12,-1,14,-1,-1,16,-1,18,-1,-1,-1,-1],"split_conditions":[1E0,6.02E2,-5.6836404E-2,5.99E2,-5.682483E-2,1.56E2,2.0363448E0,1.5E2,-5.6821924E-2,8.42E2,-5.5814307E-2,-5.6746293E-2,2.3E1,-6.987695E-2,-4.2528737E-7,5.5009592E-2,-1.0561191E-1,-5.8573466E-2,5.7347097E-2],"split_indices":[32,31,0,31,0,31,17,31,0,1,0,0,9,0,14,0,0,0,0],"split_type":[0,0,0,0,0,0,0,0,0,0,0,0,0,0,0,0,0,0,0],"sum_hessian":[7.061477E4,4.2767242E4,2.7847531E4,3.9007555E4,3.7596858E3,1.35737E4,2.5433855E4,1.0484483E4,3.0892175E3,2.5413389E4,2.0467758E1,5.4620135E2,9.938281E3,4.4353533E0,2.5408953E4,9.9065625E3,3.1719543E1,4.62888E0,2.5404324E4],"tree_param":{"num_deleted":"0","num_feature":"36","num_nodes":"19","size_leaf_vector":"1"}},{"base_weights":[-1.8850897E-3,7.3085356E-1,-5.645849E-2,9.097875E-1,-5.6446422E-2,4.8864362E-1,1.1348549E0,9.6351963E-1,-5.64434E-2,1.1367081E0,-5.528141E-2,-5.6364514E-2,1.0780908E0,-6.814837E-2,1.1372102E0,-9.8108746E-2,5.448976E-2,5.6884743E-2,-6.1562765E-2],"categories":[],"categories_nodes":[],"categories_segments":[],"categories_sizes":[],"default_left":[0,0,0,0,0,0,0,0,0,0,0,0,0,0,0,0,0,0,0],"id":28,"left_children":[1,3,-1,5,-1,7,9,11,-1,13,-1,-1,15,-1,17,-1,-1,-1,-1],"loss_changes":[5.5906773E4,1.3651621E4,0E0,3.546371E3,0E0,1.0013366E4,1.0251758E2,2.4151396E3,0E0,3.2128906E1,0E0,0E0,3.421172E2,0E0,2.936914E1,0E0,0E0,0E0,0E0],"parents":[2147483647,0,0,1,1,3,3,5,5,6,6,7,7,9,9,12,12,14,14],"right_children":[2,4,-1,6,-1,8,10,12,-1,14,-1,-1,16,-1,18,-1,-1,-1,-1],"split_conditions":[1E0,6.02E2,-5.645849E-2,5.99E2,-5.6446422E-2,1.56E2,2.0363448E0,1.5E2,-5.64434E-2,8.42E2,-5.528141E-2,-5.6364514E-2,1.0039355E0,-6.814837E-2,4.296578E-7,-9.8108746E-2,5.448976E-2,5.6884743E-2,-6.1562765E-2],"split_indices":[32,31,0,31,0,31,17,31,0,1,0,0,17,0,14,0,0,0,0],"split_type":[0,0,0,0,0,0,0,0,0,0,0,0,0,0,0,0,0,0,0],"sum_hessian":[6.7681336E4,4.1019125E4,2.6662209E4,3.7419426E4,3.599698E3,1.303383E4,2.4385596E4,1.0076061E4,2.9577688E3,2.4365934E4,1.9661865E1,5.229994E2,9.553062E3,4.348051E0,2.4361586E4,3.5997536E1,9.517064E3,2.4357121E4,4.464943E0],"tree_param":{"num_deleted":"0","num_feature":"36","num_nodes":"19","size_leaf_vector":"1"}},{"base_weights":[-1.905262E-3,7.2493213E-1,-5.6103762E-2,9.022747E-1,-5.6091167E-2,4.8406085E-1,1.1261255E0,9.537261E-1,-5.6088E-2,1.1279685E0,-5.477112E-2,-5.6005687E-2,1.0669287E0,-6.650553E-2,1.128474E0,5.3799476E-2,-1.5298365E-1,-5.8538117E-2,5.6448985E-2],"categories":[],"categories_nodes":[],"categories_segments":[],"categories_sizes":[],"default_left":[0,0,0,0,0,0,0,0,0,0,0,0,0,0,0,0,0,0,0],"id":29,"left_children":[1,3,-1,5,-1,7,9,11,-1,13,-1,-1,15,-1,17,-1,-1,-1,-1],"loss_changes":[5.279821E4,1.2881602E4,0E0,3.3588008E3,0E0,9.437856E3,9.693555E1,2.2740518E3,0E0,3.0513672E1,0E0,0E0,3.465625E2,0E0,2.846875E1,0E0,0E0,0E0,0E0],"parents":[2147483647,0,0,1,1,3,3,5,5,6,6,7,7,9,9,12,12,14,14],"right_children":[2,4,-1,6,-1,8,10,12,-1,14,-1,-1,16,-1,18,-1,-1,-1,-1],"split_conditions":[1E0,6.02E2,-5.6103762E-2,5.99E2,-5.6091167E-2,1.56E2,2.0363448E0,1.5E2,-5.6088E-2,8.42E2,-5.477112E-2,-5.6005687E-2,2.000012E0,-6.650553E-2,-4.2528737E-7,5.3799476E-2,-1.5298365E-1,-5.8538117E-2,5.6448985E-2],"split_indices":[32,31,0,31,0,31,17,31,0,1,0,0,17,0,14,0,0,0,0],"split_type":[0,0,0,0,0,0,0,0,0,0,0,0,0,0,0,0,0,0,0],"sum_hessian":[6.4846215E4,3.932804E4,2.5518178E4,3.5882754E4,3.4452827E3,1.2511342E4,2.3371414E4,9.680443E3,2.8308984E3,2.3352531E4,1.8881874E1,5.006053E2,9.179838E3,4.259638E0,2.3348271E4,9.160464E3,1.9374147E1,4.6256046E0,2.3343646E4],"tree_param":{"num_deleted":"0","num_feature":"36","num_nodes":"19","size_leaf_vector":"1"}},{"base_weights":[-1.9268909E-3,7.1926296E-1,-5.5770535E-2,8.950737E-1,-5.5757385E-2,4.795644E-1,1.1178843E0,9.440605E-1,-5.5754084E-2,1.1197181E0,-5.428141E-2,-5.5668153E-2,1.0558985E0,-6.494274E-2,1.120227E0,5.3252514E-2,-1.532764E-1,5.603751E-2,-6.143823E-2],"categories":[],"categories_nodes":[],"categories_segments":[],"categories_sizes":[],"default_left":[0,0,0,0,0,0,0,0,0,0,0,0,0,0,0,0,0,0,0],"id":30,"left_children":[1,3,-1,5,-1,7,9,11,-1,13,-1,-1,15,-1,17,-1,-1,-1,-1],"loss_changes":[4.9878957E4,1.2158689E4,0E0,3.184287E3,0E0,8.896663E3,9.1697266E1,2.141333E3,0E0,2.8996094E1,0E0,0E0,3.3601953E2,0E0,2.8867188E1,0E0,0E0,0E0,0E0],"parents":[2147483647,0,0,1,1,3,3,5,5,6,6,7,7,9,9,12,12,14,14],"right_children":[2,4,-1,6,-1,8,10,12,-1,14,-1,-1,16,-1,18,-1,-1,-1,-1],"split_conditions":[1E0,6.02E2,-5.5770535E-2,5.99E2,-5.5757385E-2,1.56E2,2.0363448E0,1.5E2,-5.5754084E-2,8.42E2,-5.428141E-2,-5.5668153E-2,4.6153994E-7,-6.494274E-2,4.296578E-7,5.3252514E-2,-1.532764E-1,5.603751E-2,-6.143823E-2],"split_indices":[32,31,0,31,0,31,17,31,0,1,0,0,14,0,14,0,0,0,0],"split_type":[0,0,0,0,0,0,0,0,0,0,0,0,0,0,0,0,0,0,0],"sum_hessian":[6.21112E4,3.769619E4,2.4415006E4,3.439981E4,3.2963816E3,1.2008623E4,2.2391186E4,9.300064E3,2.708559E3,2.2373059E4,1.8127735E1,4.7901056E2,8.821054E3,4.1703725E0,2.2368889E4,8.80225E3,1.8804192E1,2.236443E4,4.457454E0],"tree_param":{"num_deleted":"0","num_feature":"36","num_nodes":"19","size_leaf_vector":"1"}},{"base_weights":[-1.9493175E-3,7.138555E-1,-5.5457305E-2,8.8819975E-1,-5.5443566E-2,4.7521624E-1,1.1100872E0,9.3468255E-1,-5.5440117E-2,1.1119139E0,-5.466128E-2,-5.5350363E-2,1.0451895E0,1.1124796E0,-5.9705894E-2,-9.855282E-2,5.2914347E-2,-5.7465393E-2,5.5645254E-2],"categories":[],"categories_nodes":[],"categories_segments":[],"categories_sizes":[],"default_left":[0,0,0,0,0,0,0,0,0,0,0,0,0,0,0,0,0,0,0],"id":31,"left_children":[1,3,-1,5,-1,7,9,11,-1,13,-1,-1,15,17,-1,-1,-1,-1,-1],"loss_changes":[4.713646E4,1.1479998E4,0E0,3.0206484E3,0E0,8.388637E3,8.753516E1,2.0168208E3,0E0,2.928125E1,0E0,0E0,3.3691895E2,2.1894531E1,0E0,0E0,0E0,0E0,0E0],"parents":[2147483647,0,0,1,1,3,3,5,5,6,6,7,7,9,9,12,12,13,13],"right_children":[2,4,-1,6,-1,8,10,12,-1,14,-1,-1,16,18,-1,-1,-1,-1,-1],"split_conditions":[1E0,6.02E2,-5.5457305E-2,5.99E2,-5.5443566E-2,1.56E2,6.64E-3,1.5E2,-5.5440117E-2,4.296578E-7,-5.466128E-2,-5.5350363E-2,1.0039355E0,-4.2528737E-7,-5.9705894E-2,-9.855282E-2,5.2914347E-2,-5.7465393E-2,5.5645254E-2],"split_indices":[32,31,0,31,0,31,8,31,0,14,0,0,17,14,0,0,0,0,0],"split_type":[0,0,0,0,0,0,0,0,0,0,0,0,0,0,0,0,0,0,0],"sum_hessian":[5.947342E4,3.6121293E4,2.3352127E4,3.2968375E4,3.15292E3,1.1523545E4,2.1444828E4,8.932857E3,2.5906877E3,2.1427559E4,1.7270514E1,4.5820444E2,8.474653E3,2.142282E4,4.737847E0,3.5994152E1,8.438659E3,3.5209002E0,2.1419299E4],"tree_param":{"num_deleted":"0","num_feature":"36","num_nodes":"19","size_leaf_vector":"1"}},{"base_weights":[-1.9709878E-3,7.0873064E-1,-5.5162676E-2,8.816825E-1,-5.5148315E-2,4.7109306E-1,1.1026987E0,9.2578554E-1,-5.514471E-2,1.1045411E0,-5.368644E-2,-5.505092E-2,1.0350299E0,-5.7167567E-2,1.1051242E0,5.237897E-2,-1.09787695E-1,-6.538089E-2,5.528128E-2],"categories":[],"categories_nodes":[],"categories_segments":[],"categories_sizes":[],"default_left":[0,0,0,0,0,0,0,0,0,0,0,0,0,0,0,0,0,0,0],"id":32,"left_children":[1,3,-1,5,-1,7,9,11,-1,13,-1,-1,15,-1,17,-1,-1,-1,-1],"loss_changes":[4.455941E4,1.0842951E4,0E0,2.8658965E3,0E0,7.912777E3,8.351953E1,1.9003799E3,0E0,2.8160156E1,0E0,0E0,3.323164E2,0E0,2.6259766E1,0E0,0E0,0E0,0E0],"parents":[2147483647,0,0,1,1,3,3,5,5,6,6,7,7,9,9,12,12,14,14],"right_children":[2,4,-1,6,-1,8,10,12,-1,14,-1,-1,16,-1,18,-1,-1,-1,-1],"split_conditions":[1E0,6.02E2,-5.5162676E-2,5.99E2,-5.5148315E-2,1.56E2,2.0363448E0,1.5E2,-5.514471E-2,-4.2528737E-7,-5.368644E-2,-5.505092E-2,2.3E1,-5.7167567E-2,8.42E2,5.237897E-2,-1.09787695E-1,-6.538089E-2,5.528128E-2],"split_indices":[32,31,0,31,0,31,17,31,0,14,0,0,9,0,1,0,0,0,0],"split_type":[0,0,0,0,0,0,0,0,0,0,0,0,0,0,0,0,0,0,0],"sum_hessian":[5.69296E4,3.4600727E4,2.2328877E4,3.158592E4,3.014806E3,1.1053877E4,2.0532043E4,8.576667E3,2.4772107E3,2.051517E4,1.6873936E1,4.381736E2,8.138493E3,4.812863E0,2.0510357E4,8.1076753E3,3.0817537E1,3.71948E0,2.0506637E4],"tree_param":{"num_deleted":"0","num_feature":"36","num_nodes":"19","size_leaf_vector":"1"}},{"base_weights":[-1.9935998E-3,7.038173E-1,-5.488537E-2,8.754279E-1,-5.487035E-2,4.6706674E-1,1.0956944E0,9.1706157E-1,-5.4866582E-2,1.09753E0,-5.3235758E-2,-5.4768544E-2,1.0250593E0,1.0981003E0,-5.9873786E-2,5.17703E-2,-1.5378487E-1,-5.6080103E-2,5.493436E-2],"categories":[],"categories_nodes":[],"categories_segments":[],"categories_sizes":[],"default_left":[0,0,0,0,0,0,0,0,0,0,0,0,0,0,0,0,0,0,0],"id":33,"left_children":[1,3,-1,5,-1,7,9,11,-1,13,-1,-1,15,17,-1,-1,-1,-1,-1],"loss_changes":[4.2135035E4,1.0243947E4,0E0,2.7208926E3,0E0,7.465168E3,7.9103516E1,1.7908799E3,0E0,2.7019531E1,0E0,0E0,3.348086E2,2.6804688E1,0E0,0E0,0E0,0E0,0E0],"parents":[2147483647,0,0,1,1,3,3,5,5,6,6,7,7,9,9,12,12,13,13],"right_children":[2,4,-1,6,-1,8,10,12,-1,14,-1,-1,16,18,-1,-1,-1,-1,-1],"split_conditions":[1E0,6.02E2,-5.488537E-2,5.99E2,-5.487035E-2,1.56E2,2.0363448E0,1.5E2,-5.4866582E-2,4.296578E-7,-5.3235758E-2,-5.4768544E-2,2.000012E0,-4.2528737E-7,-5.9873786E-2,5.17703E-2,-1.5378487E-1,-5.6080103E-2,5.493436E-2],"split_indices":[32,31,0,31,0,31,17,31,0,14,0,0,17,14,0,0,0,0,0],"split_type":[0,0,0,0,0,0,0,0,0,0,0,0,0,0,0,0,0,0,0],"sum_hessian":[5.4480613E4,3.3136125E4,2.1344486E4,3.025419E4,2.8819365E3,1.06019375E4,1.9652252E4,8.233895E3,2.368043E3,1.963606E4,1.6191694E1,4.189033E2,7.814991E3,1.9631703E4,4.357604E0,7.7960684E3,1.8922712E1,4.683559E0,1.962702E4],"tree_param":{"num_deleted":"0","num_feature":"36","num_nodes":"19","size_leaf_vector":"1"}},{"base_weights":[-2.0179432E-3,6.990729E-1,-5.462421E-2,8.693802E-1,-5.4608513E-2,4.6307558E-1,1.089044E0,9.0836555E-1,-5.460457E-2,-5.8908332E-2,1.0907817E0,-5.4502048E-2,1.0151093E0,1.0913949E0,-5.8302373E-2,-9.8832674E-2,5.1489443E-2,-6.4806186E-2,5.4597635E-2],"categories":[],"categories_nodes":[],"categories_segments":[],"categories_sizes":[],"default_left":[0,0,0,0,0,0,0,0,0,0,0,0,0,0,0,0,0,0,0],"id":34,"left_children":[1,3,-1,5,-1,7,9,11,-1,-1,13,-1,15,17,-1,-1,-1,-1,-1],"loss_changes":[3.985239E4,9.680098E3,0E0,2.585463E3,0E0,7.0432705E3,7.537305E1,1.6876494E3,0E0,0E0,2.7279297E1,0E0,3.316753E2,2.64375E1,0E0,0E0,0E0,0E0,0E0],"parents":[2147483647,0,0,1,1,3,3,5,5,6,6,7,7,10,10,12,12,13,13],"right_children":[2,4,-1,6,-1,8,10,12,-1,-1,14,-1,16,18,-1,-1,-1,-1,-1],"split_conditions":[1E0,6.02E2,-5.462421E-2,5.99E2,-5.4608513E-2,1.56E2,3.290064E0,1.5E2,-5.460457E-2,-5.8908332E-2,4.296578E-7,-5.4502048E-2,1.0039355E0,8.42E2,-5.8302373E-2,-9.8832674E-2,5.1489443E-2,-6.4806186E-2,5.4597635E-2],"split_indices":[32,31,0,31,0,31,18,31,0,0,14,0,17,1,0,0,0,0,0],"split_type":[0,0,0,0,0,0,0,0,0,0,0,0,0,0,0,0,0,0,0],"sum_hessian":[5.2125613E4,3.1727492E4,2.039812E4,2.8973293E4,2.7541992E3,1.0168351E4,1.8804941E4,7.905259E3,2.263092E3,1.3883266E1,1.8791059E4,4.00377E2,7.504882E3,1.878647E4,4.5881734E0,3.5991306E1,7.4688906E3,3.8460042E0,1.8782625E4],"tree_param":{"num_deleted":"0","num_feature":"36","num_nodes":"19","size_leaf_vector":"1"}},{"base_weights":[-2.0424712E-3,6.9455045E-1,-5.4378133E-2,8.636124E-1,-5.436171E-2,4.5927665E-1,1.0826976E0,9.0008426E-1,-5.4357585E-2,1.084546E0,-5.2713957E-2,-5.425034E-2,1.0056342E0,-5.5794235E-2,1.0851678E0,5.082953E-2,-1.5800731E-1,-6.3537695E-2,5.4285776E-2],"categories":[],"categories_nodes":[],"categories_segments":[],"categories_sizes":[],"default_left":[0,0,0,0,0,0,0,0,0,0,0,0,0,0,0,0,0,0,0],"id":35,"left_children":[1,3,-1,5,-1,7,9,11,-1,13,-1,-1,15,-1,17,-1,-1,-1,-1],"loss_changes":[3.770356E4,9.149848E3,0E0,2.456832E3,0E0,6.647533E3,7.220703E1,1.5909844E3,0E0,2.580664E1,0E0,0E0,3.3208252E2,0E0,2.4574219E1,0E0,0E0,0E0,0E0],"parents":[2147483647,0,0,1,1,3,3,5,5,6,6,7,7,9,9,12,12,14,14],"right_children":[2,4,-1,6,-1,8,10,12,-1,14,-1,-1,16,-1,18,-1,-1,-1,-1],"split_conditions":[1E0,6.02E2,-5.4378133E-2,5.99E2,-5.436171E-2,1.56E2,2.0363448E0,1.5E2,-5.4357585E-2,-4.2528737E-7,-5.2713957E-2,-5.425034E-2,4.6153994E-7,-5.5794235E-2,8.42E2,5.082953E-2,-1.5800731E-1,-6.3537695E-2,5.4285776E-2],"split_indices":[32,31,0,31,0,31,17,31,0,14,0,0,14,0,1,0,0,0,0],"split_type":[0,0,0,0,0,0,0,0,0,0,0,0,0,0,0,0,0,0,0],"sum_hessian":[4.98595E4,3.0370623E4,1.9488877E4,2.773915E4,2.631473E3,9.749294E3,1.7989857E4,7.587036E3,2.162258E3,1.7974803E4,1.5054858E1,3.8257724E2,7.2044585E3,4.5707827E0,1.797023E4,7.186314E3,1.8144646E1,3.6385026E0,1.7966592E4],"tree_param":{"num_deleted":"0","num_feature":"36","num_nodes":"19","size_leaf_vector":"1"}},{"base_weights":[-2.0688248E-3,6.90148E-1,-5.4146152E-2,8.579882E-1,-5.4128956E-2,4.5545194E-1,1.0766588E0,8.916942E-1,-5.412465E-2,1.0785025E0,-5.2291363E-2,-5.4012436E-2,9.960218E-1,1.0791267E0,-5.8422603E-2,5.0515927E-2,-1.1115626E-1,-5.4768186E-2,5.3987652E-2],"categories":[],"categories_nodes":[],"categories_segments":[],"categories_sizes":[],"default_left":[0,0,0,0,0,0,0,0,0,0,0,0,0,0,0,0,0,0,0],"id":36,"left_children":[1,3,-1,5,-1,7,9,11,-1,13,-1,-1,15,17,-1,-1,-1,-1,-1],"loss_changes":[3.5677855E4,8.649976E3,0E0,2.3369922E3,0E0,6.273688E3,6.846094E1,1.4996084E3,0E0,2.5373047E1,0E0,0E0,3.2066113E2,2.459375E1,0E0,0E0,0E0,0E0,0E0],"parents":[2147483647,0,0,1,1,3,3,5,5,6,6,7,7,9,9,12,12,13,13],"right_children":[2,4,-1,6,-1,8,10,12,-1,14,-1,-1,16,18,-1,-1,-1,-1,-1],"split_conditions":[1E0,6.02E2,-5.4146152E-2,5.99E2,-5.4128956E-2,1.56E2,2.0363448E0,1.5E2,-5.412465E-2,4.296578E-7,-5.2291363E-2,-5.4012436E-2,2.3E1,-4.2528737E-7,-5.8422603E-2,5.0515927E-2,-1.1115626E-1,-5.4768186E-2,5.3987652E-2],"split_indices":[32,31,0,31,0,31,17,31,0,14,0,0,9,14,0,0,0,0,0],"split_type":[0,0,0,0,0,0,0,0,0,0,0,0,0,0,0,0,0,0,0],"sum_hessian":[4.768384E4,2.9068023E4,1.8615816E4,2.6554395E4,2.5136294E3,9.348482E3,1.7205912E4,7.2830464E3,2.0654358E3,1.719147E4,1.444132E1,3.6548544E2,6.917561E3,1.7187217E4,4.255188E0,6.887658E3,2.9902996E1,4.4455123E0,1.718277E4],"tree_param":{"num_deleted":"0","num_feature":"36","num_nodes":"19","size_leaf_vector":"1"}},{"base_weights":[-2.0953591E-3,6.859336E-1,-5.3927343E-2,8.526007E-1,-5.390935E-2,4.517739E-1,1.0708979E0,8.8361645E-1,-5.390483E-2,-5.887335E-2,1.072637E0,-5.378739E-2,9.867662E-1,1.0733043E0,-5.699336E-2,-9.8958835E-2,5.0161302E-2,-6.306044E-2,5.369566E-2],"categories":[],"categories_nodes":[],"categories_segments":[],"categories_sizes":[],"default_left":[0,0,0,0,0,0,0,0,0,0,0,0,0,0,0,0,0,0,0],"id":37,"left_children":[1,3,-1,5,-1,7,9,11,-1,-1,13,-1,15,17,-1,-1,-1,-1,-1],"loss_changes":[3.3768945E4,8.1793906E3,0E0,2.2233496E3,0E0,5.9224526E3,6.55957E1,1.4138872E3,0E0,0E0,2.55E1,0E0,3.262085E2,2.471875E1,0E0,0E0,0E0,0E0,0E0],"parents":[2147483647,0,0,1,1,3,3,5,5,6,6,7,7,10,10,12,12,13,13],"right_children":[2,4,-1,6,-1,8,10,12,-1,-1,14,-1,16,18,-1,-1,-1,-1,-1],"split_conditions":[1E0,6.02E2,-5.3927343E-2,5.99E2,-5.390935E-2,1.56E2,3.290064E0,1.5E2,-5.390483E-2,-5.887335E-2,4.296578E-7,-5.378739E-2,1.0039355E0,8.42E2,-5.699336E-2,-9.8958835E-2,5.0161302E-2,-6.306044E-2,5.369566E-2],"split_indices":[32,31,0,31,0,31,18,31,0,0,14,0,17,1,0,0,0,0,0],"split_type":[0,0,0,0,0,0,0,0,0,0,0,0,0,0,0,0,0,0,0],"sum_hessian":[4.5592906E4,2.7814955E4,1.7777951E4,2.5414418E4,2.4005369E3,8.961965E3,1.6452453E4,6.9894487E3,1.9725166E3,1.2193102E1,1.644026E4,3.490824E2,6.640366E3,1.6435816E4,4.442178E0,3.598984E1,6.6043765E3,3.746125E0,1.643207E4],"tree_param":{"num_deleted":"0","num_feature":"36","num_nodes":"19","size_leaf_vector":"1"}},{"base_weights":[-2.1226923E-3,6.818631E-1,-5.3720873E-2,8.4739166E-1,-5.3702027E-2,4.4818854E-1,1.065369E0,8.7572396E-1,-5.3697295E-2,1.0672313E0,-5.1832717E-2,-5.357436E-2,9.7771955E-1,-6.1409265E-2,1.0678618E0,4.950718E-2,-1.5874678E-1,5.3424902E-2,-5.595128E-2],"categories":[],"categories_nodes":[],"categories_segments":[],"categories_sizes":[],"default_left":[0,0,0,0,0,0,0,0,0,0,0,0,0,0,0,0,0,0,0],"id":38,"left_children":[1,3,-1,5,-1,7,9,11,-1,13,-1,-1,15,-1,17,-1,-1,-1,-1],"loss_changes":[3.1968674E4,7.7358555E3,0E0,2.1158105E3,0E0,5.5918296E3,6.268164E1,1.333273E3,0E0,2.4058594E1,0E0,0E0,3.3202148E2,0E0,2.305664E1,0E0,0E0,0E0,0E0],"parents":[2147483647,0,0,1,1,3,3,5,5,6,6,7,7,9,9,12,12,14,14],"right_children":[2,4,-1,6,-1,8,10,12,-1,14,-1,-1,16,-1,18,-1,-1,-1,-1],"split_conditions":[1E0,6.02E2,-5.3720873E-2,5.99E2,-5.3702027E-2,1.56E2,2.0363448E0,1.5E2,-5.3697295E-2,8.42E2,-5.1832717E-2,-5.357436E-2,2.000012E0,-6.1409265E-2,4.296578E-7,4.950718E-2,-1.5874678E-1,5.3424902E-2,-5.595128E-2],"split_indices":[32,31,0,31,0,31,17,31,0,1,0,0,17,0,14,0,0,0,0],"split_type":[0,0,0,0,0,0,0,0,0,0,0,0,0,0,0,0,0,0,0],"sum_hessian":[4.358564E4,2.6611377E4,1.6974264E4,2.4319318E4,2.2920576E3,8.590238E3,1.572908E4,6.70685E3,1.883388E3,1.5715649E4,1.3430574E1,3.333483E2,6.373502E3,3.7811198E0,1.5711869E4,6.3552495E3,1.8252209E1,1.5707811E4,4.0584545E0],"tree_param":{"num_deleted":"0","num_feature":"36","num_nodes":"19","size_leaf_vector":"1"}},{"base_weights":[-2.1522637E-3,6.7786115E-1,-5.3525954E-2,8.422602E-1,-5.3506214E-2,4.445346E-1,1.0600802E0,8.6219084E-1,-1.0902789E0,-5.8888685E-2,1.0618312E0,-5.333927E-2,9.4480604E-1,-1.486459E0,-5.349916E-2,1.06251E0,-5.476321E-2,4.920761E-2,-5.308459E-2,-5.254615E-2,-1.1039416E-1,-6.0228895E-2,5.315661E-2],"categories":[],"categories_nodes":[],"categories_segments":[],"categories_sizes":[],"default_left":[0,0,0,0,0,0,0,0,0,0,0,0,0,0,0,0,0,0,0,0,0,0,0],"id":39,"left_children":[1,3,-1,5,-1,7,9,11,13,-1,15,-1,17,19,-1,21,-1,-1,-1,-1,-1,-1,-1],"loss_changes":[3.0269008E4,7.317043E3,0E0,2.0155684E3,0E0,5.28078E3,6.0171875E1,1.0329185E3,1.2580078E1,0E0,2.3160156E1,0E0,4.912959E2,2.3857285E1,0E0,2.2466797E1,0E0,0E0,0E0,0E0,0E0,0E0,0E0],"parents":[2147483647,0,0,1,1,3,3,5,5,6,6,7,7,8,8,10,10,12,12,13,13,15,15],"right_children":[2,4,-1,6,-1,8,10,12,14,-1,16,-1,18,20,-1,22,-1,-1,-1,-1,-1,-1,-1],"split_conditions":[1E0,6.02E2,-5.3525954E-2,5.99E2,-5.3506214E-2,2.3E1,3.290064E0,1.5E2,1.56E2,-5.8888685E-2,4.296578E-7,-5.333927E-2,1.56E2,1.5E2,-5.349916E-2,8.42E2,-5.476321E-2,4.920761E-2,-5.308459E-2,-5.254615E-2,-1.1039416E-1,-6.0228895E-2,5.315661E-2],"split_indices":[32,31,0,31,0,9,18,31,31,0,14,0,31,31,0,1,0,0,0,0,0,0,0],"split_type":[0,0,0,0,0,0,0,0,0,0,0,0,0,0,0,0,0,0,0,0,0,0,0],"sum_hessian":[4.1661938E4,2.5458207E4,1.6203733E4,2.3270152E4,2.188053E3,8.235565E3,1.5034587E4,6.474226E3,1.76134E3,1.1230268E1,1.5023356E4,2.6540454E2,6.2088213E3,8.231351E1,1.6790265E3,1.5019139E4,4.218211E0,6.089912E3,1.1890948E2,5.285861E1,2.94549E1,3.5901425E0,1.5015549E4],"tree_param":{"num_deleted":"0","num_feature":"36","num_nodes":"23","size_leaf_vector":"1"}},{"base_weights":[-2.1853445E-3,6.739953E-1,-5.3341873E-2,8.373E-1,-5.332119E-2,4.4098502E-1,1.0549889E0,8.5462016E-1,-1.0856197E0,1.0568744E0,-5.1419325E-2,-5.3146582E-2,9.363251E-1,-1.4551467E0,-5.331381E-2,-5.6355953E-2,1.0576308E0,4.8761696E-2,-5.2882683E-2,-5.23228E-2,-1.0486259E-1,-5.904891E-2,5.291226E-2],"categories":[],"categories_nodes":[],"categories_segments":[],"categories_sizes":[],"default_left":[0,0,0,0,0,0,0,0,0,0,0,0,0,0,0,0,0,0,0,0,0,0,0],"id":40,"left_children":[1,3,-1,5,-1,7,9,11,13,15,-1,-1,17,19,-1,-1,21,-1,-1,-1,-1,-1,-1],"loss_changes":[2.8664986E4,6.9221436E3,0E0,1.9202793E3,0E0,4.9862866E3,5.753418E1,9.743203E2,1.04823E1,2.490918E1,0E0,0E0,4.633579E2,1.9062347E1,0E0,0E0,2.099121E1,0E0,0E0,0E0,0E0,0E0,0E0],"parents":[2147483647,0,0,1,1,3,3,5,5,6,6,7,7,8,8,9,9,12,12,13,13,16,16],"right_children":[2,4,-1,6,-1,8,10,12,14,16,-1,-1,18,20,-1,-1,22,-1,-1,-1,-1,-1,-1],"split_conditions":[1E0,6.02E2,-5.3341873E-2,5.99E2,-5.332119E-2,2.3E1,2.0363448E0,1.5E2,1.56E2,-4.2528737E-7,-5.1419325E-2,-5.3146582E-2,1.56E2,1.5E2,-5.331381E-2,-5.6355953E-2,8.42E2,4.8761696E-2,-5.2882683E-2,-5.23228E-2,-1.0486259E-1,-5.904891E-2,5.291226E-2],"split_indices":[32,31,0,31,0,9,17,31,31,14,0,0,31,31,0,0,1,0,0,0,0,0,0],"split_type":[0,0,0,0,0,0,0,0,0,0,0,0,0,0,0,0,0,0,0,0,0,0,0],"sum_hessian":[3.981617E4,2.4350852E4,1.5465319E4,2.2262469E4,2.0883838E3,7.894005E3,1.4368463E4,6.2114473E3,1.6825579E3,1.4355963E4,1.2499687E1,2.5335634E2,5.958091E3,8.000306E1,1.6025548E3,4.4548674E0,1.4351508E4,5.844556E3,1.1353488E2,5.049405E1,2.9509012E1,3.4110103E0,1.4348098E4],"tree_param":{"num_deleted":"0","num_feature":"36","num_nodes":"23","size_leaf_vector":"1"}},{"base_weights":[-2.219296E-3,6.7023295E-1,-5.3167947E-2,8.3246666E-1,-5.314628E-2,4.3746838E-1,1.050106E0,8.4709203E-1,-1.0812097E0,-5.8921605E-2,1.0518603E0,-5.296361E-2,9.2788815E-1,-1.4261215E0,-5.313856E-2,1.052596E0,-5.4715194E-2,4.8318032E-2,-5.268986E-2,-5.2107364E-2,-1.0000908E-1,-5.5009723E-2,5.2662857E-2],"categories":[],"categories_nodes":[],"categories_segments":[],"categories_sizes":[],"default_left":[0,0,0,0,0,0,0,0,0,0,0,0,0,0,0,0,0,0,0,0,0,0,0],"id":41,"left_children":[1,3,-1,5,-1,7,9,11,13,-1,15,-1,17,19,-1,21,-1,-1,-1,-1,-1,-1,-1],"loss_changes":[2.7150365E4,6.549461E3,0E0,1.8303818E3,0E0,4.708532E3,5.491797E1,9.190576E2,8.710571E0,0E0,2.2816406E1,0E0,4.370122E2,1.5256897E1,0E0,2.0677734E1,0E0,0E0,0E0,0E0,0E0,0E0,0E0],"parents":[2147483647,0,0,1,1,3,3,5,5,6,6,7,7,8,8,10,10,12,12,13,13,15,15],"right_children":[2,4,-1,6,-1,8,10,12,14,-1,16,-1,18,20,-1,22,-1,-1,-1,-1,-1,-1,-1],"split_conditions":[1E0,6.02E2,-5.3167947E-2,5.99E2,-5.314628E-2,2.3E1,3.290064E0,1.5E2,1.56E2,-5.8921605E-2,4.296578E-7,-5.296361E-2,1.56E2,1.5E2,-5.313856E-2,-4.2528737E-7,-5.4715194E-2,4.8318032E-2,-5.268986E-2,-5.2107364E-2,-1.0000908E-1,-5.5009723E-2,5.2662857E-2],"split_indices":[32,31,0,31,0,9,18,31,31,0,14,0,31,31,0,14,0,0,0,0,0,0,0],"split_type":[0,0,0,0,0,0,0,0,0,0,0,0,0,0,0,0,0,0,0,0,0,0,0],"sum_hessian":[3.8046867E4,2.328889E4,1.4757978E4,2.1295982E4,1.9929081E3,7.566463E3,1.3729519E4,5.959489E3,1.6069739E3,1.0271507E1,1.3719247E4,2.4181494E2,5.717674E3,7.767282E1,1.529301E3,1.3715056E4,4.19203E0,5.6092876E3,1.0838654E2,4.822903E1,2.9443794E1,3.6995518E0,1.3711355E4],"tree_param":{"num_deleted":"0","num_feature":"36","num_nodes":"23","size_leaf_vector":"1"}},{"base_weights":[-2.2543846E-3,6.665509E-1,-5.300356E-2,8.277298E-1,-5.298085E-2,4.339762E-1,1.0453851E0,8.3958954E-1,-1.0770333E0,1.0472939E0,-5.102492E-2,-5.2789696E-2,9.194767E-1,-1.3991584E0,-5.2972782E-2,-5.4274984E-2,1.0480629E0,-8.286812E-2,4.74614E-2,-5.189916E-2,-9.571892E-2,5.243848E-2,-5.3706598E-2],"categories":[],"categories_nodes":[],"categories_segments":[],"categories_sizes":[],"default_left":[0,0,0,0,0,0,0,0,0,0,0,0,0,0,0,0,0,0,0,0,0,0,0],"id":42,"left_children":[1,3,-1,5,-1,7,9,11,13,15,-1,-1,17,19,-1,-1,21,-1,-1,-1,-1,-1,-1],"loss_changes":[2.5719451E4,6.1975127E3,0E0,1.745376E3,0E0,4.4464727E3,5.279785E1,8.66926E2,7.211914E0,2.2635742E1,0E0,0E0,4.2232568E2,1.2217545E1,0E0,0E0,2.0774414E1,0E0,0E0,0E0,0E0,0E0,0E0],"parents":[2147483647,0,0,1,1,3,3,5,5,6,6,7,7,8,8,9,9,12,12,13,13,16,16],"right_children":[2,4,-1,6,-1,8,10,12,14,16,-1,-1,18,20,-1,-1,22,-1,-1,-1,-1,-1,-1],"split_conditions":[1E0,6.02E2,-5.300356E-2,5.99E2,-5.298085E-2,2.3E1,2.0363448E0,1.5E2,1.56E2,-4.2528737E-7,-5.102492E-2,-5.2789696E-2,1.0039355E0,1.5E2,-5.2972782E-2,-5.4274984E-2,4.296578E-7,-8.286812E-2,4.74614E-2,-5.189916E-2,-9.571892E-2,5.243848E-2,-5.3706598E-2],"split_indices":[32,31,0,31,0,9,17,31,31,14,0,0,17,31,0,0,14,0,0,0,0,0,0],"split_type":[0,0,0,0,0,0,0,0,0,0,0,0,0,0,0,0,0,0,0,0,0,0,0],"sum_hessian":[3.635194E4,2.2271283E4,1.408066E4,2.0369797E4,1.9014854E3,7.252504E3,1.3117293E4,5.7180127E3,1.5344911E3,1.3105677E4,1.1616036E1,2.3076337E2,5.487249E3,7.533429E1,1.4591569E3,4.215774E0,1.3101462E4,6.2006348E1,5.4252427E3,4.6060196E1,2.927409E1,1.3097606E4,3.8553004E0],"tree_param":{"num_deleted":"0","num_feature":"36","num_nodes":"23","size_leaf_vector":"1"}},{"base_weights":[-2.294941E-3,6.6268665E-1,-5.284814E-2,8.227361E-1,-5.2824344E-2,4.2996764E-1,1.0408449E0,8.3743906E-1,-5.2833688E-2,-5.9031248E-2,1.0426052E0,-5.266549E-2,9.3369716E-1,-5.9932686E-2,1.0433371E0,4.7296282E-2,-2.215139E-1,5.220434E-2,-5.2700806E-2],"categories":[],"categories_nodes":[],"categories_segments":[],"categories_sizes":[],"default_left":[0,0,0,0,0,0,0,0,0,0,0,0,0,0,0,0,0,0,0],"id":43,"left_children":[1,3,-1,5,-1,7,9,11,-1,-1,13,-1,15,-1,17,-1,-1,-1,-1],"loss_changes":[2.4363496E4,5.8631143E3,0E0,1.6693105E3,0E0,4.217586E3,5.0231445E1,9.9543994E2,0E0,0E0,2.1795898E1,0E0,3.4526807E2,0E0,2.0786133E1,0E0,0E0,0E0,0E0],"parents":[2147483647,0,0,1,1,3,3,5,5,6,6,7,7,10,10,12,12,14,14],"right_children":[2,4,-1,6,-1,8,10,12,-1,-1,14,-1,16,-1,18,-1,-1,-1,-1],"split_conditions":[1E0,6.02E2,-5.284814E-2,5.99E2,-5.2824344E-2,1.56E2,3.290064E0,1.5E2,-5.2833688E-2,-5.9031248E-2,8.42E2,-5.266549E-2,4.705917E-7,-5.9932686E-2,4.296578E-7,4.7296282E-2,-2.215139E-1,5.220434E-2,-5.2700806E-2],"split_indices":[32,31,0,31,0,31,18,31,0,0,1,0,14,0,14,0,0,0,0],"split_type":[0,0,0,0,0,0,0,0,0,0,0,0,0,0,0,0,0,0,0],"sum_hessian":[3.4736754E4,2.1304418E4,1.3432336E4,1.9490443E4,1.8139753E3,6.9599663E3,1.2530478E4,5.463045E3,1.4969214E3,9.390622E0,1.2521087E4,2.6416888E2,5.198876E3,3.5536506E0,1.2517533E4,5.1878726E3,1.1003395E1,1.2513562E4,3.9711585E0],"tree_param":{"num_deleted":"0","num_feature":"36","num_nodes":"19","size_leaf_vector":"1"}},{"base_weights":[-2.3318958E-3,6.5905726E-1,-5.2701153E-2,8.180484E-1,-5.2676197E-2,4.2634252E-1,1.036425E0,8.2926977E-1,-5.2684452E-2,1.0383667E0,-5.068432E-2,-5.2509516E-2,9.242984E-1,-5.4104835E-2,1.039189E0,4.6964426E-2,-1.7126448E-1,-5.8742452E-2,5.1995803E-2],"categories":[],"categories_nodes":[],"categories_segments":[],"categories_sizes":[],"default_left":[0,0,0,0,0,0,0,0,0,0,0,0,0,0,0,0,0,0,0],"id":44,"left_children":[1,3,-1,5,-1,7,9,11,-1,13,-1,-1,15,-1,17,-1,-1,-1,-1],"loss_changes":[2.3084258E4,5.548463E3,0E0,1.5943545E3,0E0,3.98162E3,4.8698242E1,9.381677E2,0E0,2.197754E1,0E0,0E0,3.2891943E2,0E0,2.0464844E1,0E0,0E0,0E0,0E0],"parents":[2147483647,0,0,1,1,3,3,5,5,6,6,7,7,9,9,12,12,14,14],"right_children":[2,4,-1,6,-1,8,10,12,-1,14,-1,-1,16,-1,18,-1,-1,-1,-1],"split_conditions":[1E0,6.02E2,-5.2701153E-2,5.99E2,-5.2676197E-2,1.56E2,2.0363448E0,1.5E2,-5.2684452E-2,-4.2528737E-7,-5.068432E-2,-5.2509516E-2,2.000012E0,-5.4104835E-2,8.42E2,4.6964426E-2,-1.7126448E-1,-5.8742452E-2,5.1995803E-2],"split_indices":[32,31,0,31,0,31,17,31,0,14,0,0,17,0,1,0,0,0,0],"split_type":[0,0,0,0,0,0,0,0,0,0,0,0,0,0,0,0,0,0,0],"sum_hessian":[3.31852E4,2.0373227E4,1.2811973E4,1.8642988E4,1.7302397E3,6.67424E3,1.1968748E4,5.24639E3,1.4278499E3,1.1957916E4,1.0831446E1,2.5201569E2,4.9943745E3,4.125951E0,1.195379E4,4.9780024E3,1.6371767E1,3.393824E0,1.1950396E4],"tree_param":{"num_deleted":"0","num_feature":"36","num_nodes":"19","size_leaf_vector":"1"}},{"base_weights":[-2.3695538E-3,6.555207E-1,-5.2562088E-2,8.134767E-1,-5.2535918E-2,4.2278138E-1,1.0321559E0,8.1655324E-1,-1.0706484E0,1.0340979E0,-5.0284892E-2,-5.231629E-2,8.934851E-1,-1.421138E0,-5.2526563E-2,-5.3133357E-2,1.0349278E0,-8.511819E-2,4.62556E-2,-5.130431E-2,-9.598553E-2,5.178535E-2,-5.26725E-2],"categories":[],"categories_nodes":[],"categories_segments":[],"categories_sizes":[],"default_left":[0,0,0,0,0,0,0,0,0,0,0,0,0,0,0,0,0,0,0,0,0,0,0],"id":45,"left_children":[1,3,-1,5,-1,7,9,11,13,15,-1,-1,17,19,-1,-1,21,-1,-1,-1,-1,-1,-1],"loss_changes":[2.1875154E4,5.2513555E3,0E0,1.5230283E3,0E0,3.764917E3,4.6280273E1,7.26926E2,7.9266357E0,2.0976562E1,0E0,0E0,4.0101294E2,1.1755203E1,0E0,0E0,1.9669922E1,0E0,0E0,0E0,0E0,0E0,0E0],"parents":[2147483647,0,0,1,1,3,3,5,5,6,6,7,7,8,8,9,9,12,12,13,13,16,16],"right_children":[2,4,-1,6,-1,8,10,12,14,16,-1,-1,18,20,-1,-1,22,-1,-1,-1,-1,-1,-1],"split_conditions":[1E0,6.02E2,-5.2562088E-2,5.99E2,-5.2535918E-2,2.3E1,2.0363448E0,1.5E2,1.56E2,-4.2528737E-7,-5.0284892E-2,-5.231629E-2,1.0039355E0,1.5E2,-5.2526563E-2,-5.3133357E-2,4.296578E-7,-8.511819E-2,4.62556E-2,-5.130431E-2,-9.598553E-2,5.178535E-2,-5.26725E-2],"split_indices":[32,31,0,31,0,9,17,31,31,14,0,0,17,31,0,0,14,0,0,0,0,0,0],"split_type":[0,0,0,0,0,0,0,0,0,0,0,0,0,0,0,0,0,0,0,0,0,0,0],"sum_hessian":[3.169916E4,1.9480604E4,1.2218558E4,1.783046E4,1.6501412E3,6.399665E3,1.1430797E4,5.064709E3,1.3349558E3,1.1420406E4,1.0390719E1,2.0036398E2,4.864345E3,6.868351E1,1.2662723E3,4.012489E0,1.1416394E4,5.7916126E1,4.8064287E3,4.002619E1,2.8657322E1,1.141264E4,3.7541003E0],"tree_param":{"num_deleted":"0","num_feature":"36","num_nodes":"23","size_leaf_vector":"1"}},{"base_weights":[-2.414907E-3,6.518054E-1,-5.243048E-2,8.0865675E-1,-5.240304E-2,4.1876495E-1,1.0280111E0,8.144756E-1,-5.24259E-2,-5.959121E-2,1.0297931E0,-5.2220095E-2,9.0716517E-1,-5.8480043E-2,1.030598E0,-1.00133635E-1,4.652428E-2,5.1571053E-2,-5.1735263E-2],"categories":[],"categories_nodes":[],"categories_segments":[],"categories_sizes":[],"default_left":[0,0,0,0,0,0,0,0,0,0,0,0,0,0,0,0,0,0,0],"id":46,"left_children":[1,3,-1,5,-1,7,9,11,-1,-1,13,-1,15,-1,17,-1,-1,-1,-1],"loss_changes":[2.072867E4,4.9690063E3,0E0,1.4586055E3,0E0,3.5681587E3,4.441211E1,8.347881E2,0E0,0E0,2.0517578E1,0E0,3.1470483E2,0E0,1.960254E1,0E0,0E0,0E0,0E0],"parents":[2147483647,0,0,1,1,3,3,5,5,6,6,7,7,10,10,12,12,14,14],"right_children":[2,4,-1,6,-1,8,10,12,-1,-1,14,-1,16,-1,18,-1,-1,-1,-1],"split_conditions":[1E0,6.02E2,-5.243048E-2,5.99E2,-5.240304E-2,1.56E2,3.290064E0,1.5E2,-5.24259E-2,-5.959121E-2,8.42E2,-5.2220095E-2,1.0039355E0,-5.8480043E-2,4.296578E-7,-1.00133635E-1,4.652428E-2,5.1571053E-2,-5.1735263E-2],"split_indices":[32,31,0,31,0,31,18,31,0,0,1,0,17,0,14,0,0,0,0],"split_type":[0,0,0,0,0,0,0,0,0,0,0,0,0,0,0,0,0,0,0],"sum_hessian":[3.028351E4,1.8632416E4,1.1651093E4,1.7058871E4,1.5735448E3,6.1429624E3,1.0915909E4,4.8385117E3,1.3044504E3,8.220237E0,1.0907689E4,2.293172E2,4.609195E3,3.4593465E0,1.090423E4,3.5971073E1,4.5732236E3,1.0900387E4,3.8428519E0],"tree_param":{"num_deleted":"0","num_feature":"36","num_nodes":"19","size_leaf_vector":"1"}},{"base_weights":[-2.4538357E-3,6.4842427E-1,-5.230589E-2,8.04278E-1,-5.2277114E-2,4.1535902E-1,1.0239447E0,8.067783E-1,-5.2298117E-2,1.0259254E0,-4.9969796E-2,-5.2085098E-2,8.9831454E-1,-5.2995462E-2,1.026815E0,4.5621935E-2,-2.1039656E-1,-5.732229E-2,5.138083E-2],"categories":[],"categories_nodes":[],"categories_segments":[],"categories_sizes":[],"default_left":[0,0,0,0,0,0,0,0,0,0,0,0,0,0,0,0,0,0,0],"id":47,"left_children":[1,3,-1,5,-1,7,9,11,-1,13,-1,-1,15,-1,17,-1,-1,-1,-1],"loss_changes":[1.9647686E4,4.703912E3,0E0,1.3932861E3,0E0,3.3698691E3,4.2802734E1,7.870906E2,0E0,2.041504E1,0E0,0E0,3.231587E2,0E0,1.931543E1,0E0,0E0,0E0,0E0],"parents":[2147483647,0,0,1,1,3,3,5,5,6,6,7,7,9,9,12,12,14,14],"right_children":[2,4,-1,6,-1,8,10,12,-1,14,-1,-1,16,-1,18,-1,-1,-1,-1],"split_conditions":[1E0,6.02E2,-5.230589E-2,5.99E2,-5.2277114E-2,1.56E2,2.0363448E0,1.5E2,-5.2298117E-2,-4.2528737E-7,-4.9969796E-2,-5.2085098E-2,4.705917E-7,-5.2995462E-2,8.42E2,4.5621935E-2,-2.1039656E-1,-5.732229E-2,5.138083E-2],"split_indices":[32,31,0,31,0,31,17,31,0,14,0,0,14,0,1,0,0,0,0],"split_type":[0,0,0,0,0,0,0,0,0,0,0,0,0,0,0,0,0,0,0],"sum_hessian":[2.8921516E4,1.7812918E4,1.1108598E4,1.6312599E4,1.5003191E3,5.889014E3,1.0423585E4,4.6452246E3,1.2437894E3,1.0413884E4,9.701242E0,2.1868689E2,4.4265376E3,3.9323819E0,1.0409951E4,4.4151465E3,1.1391204E1,3.3113112E0,1.040664E4],"tree_param":{"num_deleted":"0","num_feature":"36","num_nodes":"19","size_leaf_vector":"1"}},{"base_weights":[-2.4955904E-3,6.449469E-1,-5.218792E-2,7.9976237E-1,-5.215773E-2,4.116771E-1,1.0199924E0,7.940506E-1,-1.0661639E0,-5.9892006E-2,1.0217869E0,-5.1905062E-2,8.6806357E-1,-1.4461854E0,-5.214686E-2,1.0226822E0,-5.1717132E-2,-8.2247354E-2,4.5031875E-2,-5.075285E-2,-9.590933E-2,-5.6043632E-2,5.1175375E-2],"categories":[],"categories_nodes":[],"categories_segments":[],"categories_sizes":[],"default_left":[0,0,0,0,0,0,0,0,0,0,0,0,0,0,0,0,0,0,0,0,0,0,0],"id":48,"left_children":[1,3,-1,5,-1,7,9,11,13,-1,15,-1,17,19,-1,21,-1,-1,-1,-1,-1,-1,-1],"loss_changes":[1.8623262E4,4.452407E3,0E0,1.3331426E3,0E0,3.1938643E3,4.084082E1,6.0970215E2,8.747314E0,0E0,1.936621E1,0E0,3.5476782E2,1.1145309E1,0E0,1.8737305E1,0E0,0E0,0E0,0E0,0E0,0E0,0E0],"parents":[2147483647,0,0,1,1,3,3,5,5,6,6,7,7,8,8,10,10,12,12,13,13,15,15],"right_children":[2,4,-1,6,-1,8,10,12,14,-1,16,-1,18,20,-1,22,-1,-1,-1,-1,-1,-1,-1],"split_conditions":[1E0,6.02E2,-5.218792E-2,5.99E2,-5.215773E-2,2.3E1,3.290064E0,1.5E2,1.56E2,-5.9892006E-2,4.296578E-7,-5.1905062E-2,1.0039355E0,1.5E2,-5.214686E-2,8.42E2,-5.1717132E-2,-8.2247354E-2,4.5031875E-2,-5.075285E-2,-9.590933E-2,-5.6043632E-2,5.1175375E-2],"split_indices":[32,31,0,31,0,9,18,31,31,0,14,0,17,31,0,1,0,0,0,0,0,0,0],"split_type":[0,0,0,0,0,0,0,0,0,0,0,0,0,0,0,0,0,0,0,0,0,0,0],"sum_hessian":[2.7622484E4,1.7032375E4,1.0590109E4,1.5602042E4,1.4303339E3,5.649487E3,9.952555E3,4.488583E3,1.1609038E3,7.5081177E0,9.945047E3,1.7377795E2,4.314805E3,6.3338234E1,1.0975656E3,9.941221E3,3.8256304E0,5.4579994E1,4.260225E3,3.4748924E1,2.8589312E1,3.3040476E0,9.937917E3],"tree_param":{"num_deleted":"0","num_feature":"36","num_nodes":"23","size_leaf_vector":"1"}},{"base_weights":[-2.5471833E-3,6.412919E-1,-5.2076187E-2,7.950036E-1,-5.204451E-2,4.076059E-1,1.0160981E0,7.916284E-1,-5.208038E-2,1.0181228E0,-4.968003E-2,-5.1833566E-2,8.807573E-1,-5.2874397E-2,1.0190779E0,4.4924732E-2,-1.7645527E-1,5.0997373E-2,-5.076489E-2],"categories":[],"categories_nodes":[],"categories_segments":[],"categories_sizes":[],"default_left":[0,0,0,0,0,0,0,0,0,0,0,0,0,0,0,0,0,0,0],"id":49,"left_children":[1,3,-1,5,-1,7,9,11,-1,13,-1,-1,15,-1,17,-1,-1,-1,-1],"loss_changes":[1.7651371E4,4.213372E3,0E0,1.2782051E3,0E0,3.020444E3,3.9682617E1,6.9995044E2,0E0,1.9899414E1,0E0,0E0,3.231604E2,0E0,1.7824219E1,0E0,0E0,0E0,0E0],"parents":[2147483647,0,0,1,1,3,3,5,5,6,6,7,7,9,9,12,12,14,14],"right_children":[2,4,-1,6,-1,8,10,12,-1,14,-1,-1,16,-1,18,-1,-1,-1,-1],"split_conditions":[1E0,6.02E2,-5.2076187E-2,5.99E2,-5.204451E-2,1.56E2,2.0363448E0,1.5E2,-5.208038E-2,-4.2528737E-7,-4.968003E-2,-5.1833566E-2,2.000012E0,-5.2874397E-2,4.296578E-7,4.4924732E-2,-1.7645527E-1,5.0997373E-2,-5.076489E-2],"split_indices":[32,31,0,31,0,31,17,31,0,14,0,0,17,0,14,0,0,0,0],"split_type":[0,0,0,0,0,0,0,0,0,0,0,0,0,0,0,0,0,0,0],"sum_hessian":[2.6385328E4,1.6290634E4,1.0094693E4,1.4927171E4,1.3634631E3,5.424792E3,9.502379E3,4.2887764E3,1.1360157E3,9.493308E3,9.070893E0,1.9886324E2,4.089913E3,3.8576043E0,9.48945E3,4.0743215E3,1.5591547E1,9.485895E3,3.5556545E0],"tree_param":{"num_deleted":"0","num_feature":"36","num_nodes":"19","size_leaf_vector":"1"}},{"base_weights":[-2.592806E-3,6.3787967E-1,-5.197033E-2,7.90564E-1,-5.1937103E-2,4.039418E-1,1.0123061E0,7.7777845E-1,-1.0626702E0,1.0143336E0,-4.9275234E-2,-5.165956E-2,8.497185E-1,-1.443263E0,-5.19251E-2,-5.1939666E-2,1.0152984E0,-8.215459E-2,4.4164978E-2,-5.040365E-2,-9.4171405E-2,-5.6005474E-2,5.0809186E-2],"categories":[],"categories_nodes":[],"categories_segments":[],"categories_sizes":[],"default_left":[0,0,0,0,0,0,0,0,0,0,0,0,0,0,0,0,0,0,0,0,0,0,0],"id":50,"left_children":[1,3,-1,5,-1,7,9,11,13,15,-1,-1,17,19,-1,-1,21,-1,-1,-1,-1,-1,-1],"loss_changes":[1.6733742E4,3.9884536E3,0E0,1.2236055E3,0E0,2.8549443E3,3.7750977E1,5.413943E2,8.231079E0,1.9007812E1,0E0,0E0,3.3553125E2,9.708847E0,0E0,0E0,1.8266602E1,0E0,0E0,0E0,0E0,0E0,0E0],"parents":[2147483647,0,0,1,1,3,3,5,5,6,6,7,7,8,8,9,9,12,12,13,13,16,16],"right_children":[2,4,-1,6,-1,8,10,12,14,16,-1,-1,18,20,-1,-1,22,-1,-1,-1,-1,-1,-1],"split_conditions":[1E0,6.02E2,-5.197033E-2,5.99E2,-5.1937103E-2,2.3E1,2.0363448E0,1.5E2,1.56E2,-4.2528737E-7,-4.9275234E-2,-5.165956E-2,1.0039355E0,1.5E2,-5.19251E-2,-5.1939666E-2,8.42E2,-8.215459E-2,4.4164978E-2,-5.040365E-2,-9.4171405E-2,-5.6005474E-2,5.0809186E-2],"split_indices":[32,31,0,31,0,9,17,31,31,14,0,0,17,31,0,0,1,0,0,0,0,0,0],"split_type":[0,0,0,0,0,0,0,0,0,0,0,0,0,0,0,0,0,0,0,0,0,0,0],"sum_hessian":[2.5197498E4,1.5576061E4,9.621438E3,1.4276478E4,1.2995826E3,5.2046475E3,9.07183E3,4.1478403E3,1.056807E3,9.063124E3,8.705614E0,1.5796545E2,3.989875E3,5.959591E1,9.972112E2,3.7513745E0,9.059373E3,5.239661E1,3.9374785E3,3.1621763E1,2.7974148E1,3.230543E0,9.056143E3],"tree_param":{"num_deleted":"0","num_feature":"36","num_nodes":"23","size_leaf_vector":"1"}},{"base_weights":[-2.6480665E-3,6.342287E-1,-5.187002E-2,7.858003E-1,-5.1835157E-2,3.997854E-1,1.0085663E0,7.7644444E-1,-5.1886853E-2,-6.0772546E-2,1.0103949E0,-5.1603254E-2,8.6315864E-1,1.0113803E0,-5.0805546E-2,4.3970898E-2,-2.0042785E-1,-5.4807045E-2,5.0614513E-2],"categories":[],"categories_nodes":[],"categories_segments":[],"categories_sizes":[],"default_left":[0,0,0,0,0,0,0,0,0,0,0,0,0,0,0,0,0,0,0],"id":51,"left_children":[1,3,-1,5,-1,7,9,11,-1,-1,13,-1,15,17,-1,-1,-1,-1,-1],"loss_changes":[1.5862331E4,3.7743472E3,0E0,1.1743135E3,0E0,2.7083472E3,3.6453125E1,6.2236035E2,0E0,0E0,1.8310547E1,0E0,3.0310645E2,1.7700195E1,0E0,0E0,0E0,0E0,0E0],"parents":[2147483647,0,0,1,1,3,3,5,5,6,6,7,7,10,10,12,12,13,13],"right_children":[2,4,-1,6,-1,8,10,12,-1,-1,14,-1,16,18,-1,-1,-1,-1,-1],"split_conditions":[1E0,6.02E2,-5.187002E-2,5.99E2,-5.1835157E-2,1.56E2,3.290064E0,1.5E2,-5.1886853E-2,-6.0772546E-2,4.296578E-7,-5.1603254E-2,4.705917E-7,8.42E2,-5.0805546E-2,4.3970898E-2,-2.0042785E-1,-5.4807045E-2,5.0614513E-2],"split_indices":[32,31,0,31,0,31,18,31,0,0,14,0,14,1,0,0,0,0,0],"split_type":[0,0,0,0,0,0,0,0,0,0,0,0,0,0,0,0,0,0,0],"sum_hessian":[2.4067951E4,1.4898501E4,9.16945E3,1.3659928E4,1.2385731E3,4.999485E3,8.660443E3,3.9618596E3,1.037625E3,6.569596E0,8.653874E3,1.8077243E2,3.7810872E3,8.650169E3,3.7051303E0,3.7693267E3,1.1760586E1,3.2139833E0,8.646955E3],"tree_param":{"num_deleted":"0","num_feature":"36","num_nodes":"19","size_leaf_vector":"1"}},{"base_weights":[-2.6975402E-3,6.307583E-1,-5.1774938E-2,7.8127277E-1,-5.173835E-2,3.9597592E-1,1.0048512E0,7.6772696E-1,-5.178665E-2,1.0069292E0,-4.8998725E-2,-5.1494874E-2,8.5313153E-1,-5.1840086E-2,1.0079669E0,4.362315E-2,-1.7025928E-1,5.044641E-2,-4.9875896E-2],"categories":[],"categories_nodes":[],"categories_segments":[],"categories_sizes":[],"default_left":[0,0,0,0,0,0,0,0,0,0,0,0,0,0,0,0,0,0,0],"id":52,"left_children":[1,3,-1,5,-1,7,9,11,-1,13,-1,-1,15,-1,17,-1,-1,-1,-1],"loss_changes":[1.5038821E4,3.5725918E3,0E0,1.12531E3,0E0,2.5556028E3,3.508789E1,5.8599854E2,0E0,1.856543E1,0E0,0E0,3.025249E2,0E0,1.6922852E1,0E0,0E0,0E0,0E0],"parents":[2147483647,0,0,1,1,3,3,5,5,6,6,7,7,9,9,12,12,14,14],"right_children":[2,4,-1,6,-1,8,10,12,-1,14,-1,-1,16,-1,18,-1,-1,-1,-1],"split_conditions":[1E0,6.02E2,-5.1774938E-2,5.99E2,-5.173835E-2,1.56E2,2.0363448E0,1.5E2,-5.178665E-2,-4.2528737E-7,-4.8998725E-2,-5.1494874E-2,2.000012E0,-5.1840086E-2,4.296578E-7,4.362315E-2,-1.7025928E-1,5.044641E-2,-4.9875896E-2],"split_indices":[32,31,0,31,0,31,17,31,0,14,0,0,17,0,14,0,0,0,0],"split_type":[0,0,0,0,0,0,0,0,0,0,0,0,0,0,0,0,0,0,0],"sum_hessian":[2.2984918E4,1.4247054E4,8.737864E3,1.3066736E4,1.1803177E3,4.7991113E3,8.267625E3,3.8102285E3,9.8888293E2,8.259471E3,8.1538925E0,1.723109E2,3.6379177E3,3.6854117E0,8.255785E3,3.6222688E3,1.5648877E1,8.252327E3,3.4583888E0],"tree_param":{"num_deleted":"0","num_feature":"36","num_nodes":"19","size_leaf_vector":"1"}},{"base_weights":[-2.749528E-3,6.273192E-1,-5.1684793E-2,7.76784E-1,-5.1646408E-2,3.921825E-1,1.00121E0,7.537599E-1,-1.0603043E0,-6.124827E-2,1.0030584E0,-5.132659E-2,8.225963E-1,-1.4687059E0,-5.1632434E-2,-5.472183E-2,1.0040493E0,-8.3825074E-2,4.29292E-2,-4.9893793E-2,-9.4344735E-2,5.025279E-2,-4.9107693E-2],"categories":[],"categories_nodes":[],"categories_segments":[],"categories_sizes":[],"default_left":[0,0,0,0,0,0,0,0,0,0,0,0,0,0,0,0,0,0,0,0,0,0,0],"id":53,"left_children":[1,3,-1,5,-1,7,9,11,13,-1,15,-1,17,19,-1,-1,21,-1,-1,-1,-1,-1,-1],"loss_changes":[1.4259036E4,3.3817666E3,0E0,1.0785444E3,0E0,2.420806E3,3.3708984E1,4.530547E2,8.861572E0,0E0,1.749121E1,0E0,3.2100488E2,9.125069E0,0E0,0E0,1.674707E1,0E0,0E0,0E0,0E0,0E0,0E0],"parents":[2147483647,0,0,1,1,3,3,5,5,6,6,7,7,8,8,10,10,12,12,13,13,16,16],"right_children":[2,4,-1,6,-1,8,10,12,14,-1,16,-1,18,20,-1,-1,22,-1,-1,-1,-1,-1,-1],"split_conditions":[1E0,6.02E2,-5.1684793E-2,5.99E2,-5.1646408E-2,2.3E1,3.290064E0,1.5E2,1.56E2,-6.124827E-2,8.42E2,-5.132659E-2,1.0039355E0,1.5E2,-5.1632434E-2,-5.472183E-2,4.296578E-7,-8.3825074E-2,4.29292E-2,-4.9893793E-2,-9.4344735E-2,5.025279E-2,-4.9107693E-2],"split_indices":[32,31,0,31,0,9,18,31,31,0,1,0,17,31,0,0,14,0,0,0,0,0,0],"split_type":[0,0,0,0,0,0,0,0,0,0,0,0,0,0,0,0,0,0,0,0,0,0,0],"sum_hessian":[2.1949604E4,1.3623758E4,8.325846E3,1.2499054E4,1.1247032E3,4.6069E3,7.892154E3,3.6890427E3,9.178575E2,5.9987655E0,7.8861553E3,1.3681186E2,3.5522307E3,5.490745E1,8.6295E2,3.202646E0,7.8829526E3,4.9779724E1,3.5024512E3,2.7420954E1,2.74865E1,7.8794536E3,3.4986956E0],"tree_param":{"num_deleted":"0","num_feature":"36","num_nodes":"23","size_leaf_vector":"1"}},{"base_weights":[-2.8112456E-3,6.236107E-1,-5.159932E-2,7.7193207E-1,-5.155903E-2,3.8789713E-1,9.9756163E-1,7.5203395E-1,-5.1623125E-2,9.99696E-1,-4.8741244E-2,-5.1291246E-2,8.3495575E-1,-5.175035E-2,1.0008137E0,4.2783722E-2,-1.5598573E-1,-5.3665068E-2,5.009025E-2],"categories":[],"categories_nodes":[],"categories_segments":[],"categories_sizes":[],"default_left":[0,0,0,0,0,0,0,0,0,0,0,0,0,0,0,0,0,0,0],"id":54,"left_children":[1,3,-1,5,-1,7,9,11,-1,13,-1,-1,15,-1,17,-1,-1,-1,-1],"loss_changes":[1.3518021E4,3.199974E3,0E0,1.036185E3,0E0,2.29144E3,3.26958E1,5.2063525E2,0E0,1.815332E1,0E0,0E0,2.787256E2,0E0,1.6543945E1,0E0,0E0,0E0,0E0],"parents":[2147483647,0,0,1,1,3,3,5,5,6,6,7,7,9,9,12,12,14,14],"right_children":[2,4,-1,6,-1,8,10,12,-1,14,-1,-1,16,-1,18,-1,-1,-1,-1],"split_conditions":[1E0,6.02E2,-5.159932E-2,5.99E2,-5.155903E-2,1.56E2,2.0363448E0,1.5E2,-5.1623125E-2,-4.2528737E-7,-4.8741244E-2,-5.1291246E-2,4.6153994E-7,-5.175035E-2,8.42E2,4.2783722E-2,-1.5598573E-1,-5.3665068E-2,5.009025E-2],"split_indices":[32,31,0,31,0,31,17,31,0,14,0,0,14,0,1,0,0,0,0],"split_type":[0,0,0,0,0,0,0,0,0,0,0,0,0,0,0,0,0,0,0],"sum_hessian":[2.0965996E4,1.3033417E4,7.9325786E3,1.1961797E4,1.0716198E3,4.427926E3,7.5338716E3,3.5247563E3,9.0316925E2,7.52622E3,7.651223E0,1.5656679E2,3.3681897E3,3.6240308E0,7.522596E3,3.351415E3,1.677454E1,3.0768294E0,7.5195195E3],"tree_param":{"num_deleted":"0","num_feature":"36","num_nodes":"19","size_leaf_vector":"1"}},{"base_weights":[-2.8677427E-3,6.201332E-1,-5.151825E-2,7.6738584E-1,-5.147596E-2,3.8403037E-1,9.939648E-1,7.366167E-1,-1.0577453E0,-6.177899E-2,9.9583614E-1,-5.1124375E-2,8.0329466E-1,-1.4614327E0,-5.1460553E-2,9.969335E-1,-4.91119E-2,-8.342886E-2,4.202153E-2,-4.956131E-2,-9.2327595E-2,-5.0786622E-2,4.9899947E-2],"categories":[],"categories_nodes":[],"categories_segments":[],"categories_sizes":[],"default_left":[0,0,0,0,0,0,0,0,0,0,0,0,0,0,0,0,0,0,0,0,0,0,0],"id":55,"left_children":[1,3,-1,5,-1,7,9,11,13,-1,15,-1,17,19,-1,21,-1,-1,-1,-1,-1,-1,-1],"loss_changes":[1.2817952E4,3.0288916E3,0E0,9.9370703E2,0E0,2.1628506E3,3.1240234E1,4.017284E2,8.127197E0,0E0,1.6580078E1,0E0,3.0374976E2,7.734291E0,0E0,1.6416992E1,0E0,0E0,0E0,0E0,0E0,0E0,0E0],"parents":[2147483647,0,0,1,1,3,3,5,5,6,6,7,7,8,8,10,10,12,12,13,13,15,15],"right_children":[2,4,-1,6,-1,8,10,12,14,-1,16,-1,18,20,-1,22,-1,-1,-1,-1,-1,-1,-1],"split_conditions":[1E0,6.02E2,-5.151825E-2,5.99E2,-5.147596E-2,2.3E1,3.290064E0,1.5E2,1.56E2,-6.177899E-2,4.296578E-7,-5.1124375E-2,1.0039355E0,1.5E2,-5.1460553E-2,-4.2528737E-7,-4.91119E-2,-8.342886E-2,4.202153E-2,-4.956131E-2,-9.2327595E-2,-5.0786622E-2,4.9899947E-2],"split_indices":[32,31,0,31,0,9,18,31,31,0,14,0,17,31,0,14,0,0,0,0,0,0,0],"split_type":[0,0,0,0,0,0,0,0,0,0,0,0,0,0,0,0,0,0,0,0,0,0,0],"sum_hessian":[2.002193E4,1.2464651E4,7.5572783E3,1.144369E4,1.0209613E3,4.252113E3,7.1915776E3,3.4169792E3,8.3513336E2,5.478366E0,7.1860996E3,1.24265396E2,3.2927139E3,5.1818386E1,7.8331494E2,7.182611E3,3.488707E0,4.808538E1,3.2446284E3,2.4940907E1,2.6877481E1,3.2960587E0,7.1793145E3],"tree_param":{"num_deleted":"0","num_feature":"36","num_nodes":"23","size_leaf_vector":"1"}},{"base_weights":[-2.9341867E-3,6.1635137E-1,-5.144134E-2,7.624311E-1,-5.1396947E-2,3.7962475E-1,9.9035245E-1,7.360431E-1,-5.147773E-2,9.925427E-1,-4.847308E-2,-5.1102348E-2,8.1644475E-1,-5.353857E-2,9.9365E-1,4.1913178E-2,-1.6965184E-1,-4.994562E-2,4.9738254E-2],"categories":[],"categories_nodes":[],"categories_segments":[],"categories_sizes":[],"default_left":[0,0,0,0,0,0,0,0,0,0,0,0,0,0,0,0,0,0,0],"id":56,"left_children":[1,3,-1,5,-1,7,9,11,-1,13,-1,-1,15,-1,17,-1,-1,-1,-1],"loss_changes":[1.2152302E4,2.865774E3,0E0,9.554463E2,0E0,2.054988E3,3.0435059E1,4.6234424E2,0E0,1.6734863E1,0E0,0E0,2.896521E2,0E0,1.6225098E1,0E0,0E0,0E0,0E0],"parents":[2147483647,0,0,1,1,3,3,5,5,6,6,7,7,9,9,12,12,14,14],"right_children":[2,4,-1,6,-1,8,10,12,-1,14,-1,-1,16,-1,18,-1,-1,-1,-1],"split_conditions":[1E0,6.02E2,-5.144134E-2,5.99E2,-5.1396947E-2,1.56E2,2.0363448E0,1.5E2,-5.147773E-2,8.42E2,-4.847308E-2,-5.1102348E-2,2.000012E0,-5.353857E-2,-4.2528737E-7,4.1913178E-2,-1.6965184E-1,-4.994562E-2,4.9738254E-2],"split_indices":[32,31,0,31,0,31,17,31,0,1,0,0,17,0,14,0,0,0,0],"split_type":[0,0,0,0,0,0,0,0,0,0,0,0,0,0,0,0,0,0,0],"sum_hessian":[1.912583E4,1.19266455E4,7.199184E3,1.09540205E4,9.726252E2,4.088995E3,6.8650254E3,3.2639377E3,8.2505756E2,6.8578545E3,7.170591E0,1.4222762E2,3.12171E3,3.160492E0,6.8546943E3,3.1064097E3,1.5300444E1,3.3331287E0,6.851361E3],"tree_param":{"num_deleted":"0","num_feature":"36","num_nodes":"19","size_leaf_vector":"1"}},{"base_weights":[-2.9947262E-3,6.1278623E-1,-5.1368367E-2,7.5776327E-1,-5.132177E-2,3.756233E-1,9.867702E-1,7.2687966E-1,-5.1397633E-2,-6.2359054E-2,9.8866796E-1,-5.1012427E-2,8.0593014E-1,9.8986554E-1,-4.9112115E-2,4.1418474E-2,-1.5152414E-1,-5.2525666E-2,4.9548727E-2],"categories":[],"categories_nodes":[],"categories_segments":[],"categories_sizes":[],"default_left":[0,0,0,0,0,0,0,0,0,0,0,0,0,0,0,0,0,0,0],"id":57,"left_children":[1,3,-1,5,-1,7,9,11,-1,-1,13,-1,15,17,-1,-1,-1,-1,-1],"loss_changes":[1.1523262E4,2.712228E3,0E0,9.1702E2,0E0,1.9381714E3,2.9018555E1,4.3500732E2,0E0,0E0,1.6430664E1,0E0,2.6147632E2,1.58515625E1,0E0,0E0,0E0,0E0,0E0],"parents":[2147483647,0,0,1,1,3,3,5,5,6,6,7,7,10,10,12,12,13,13],"right_children":[2,4,-1,6,-1,8,10,12,-1,-1,14,-1,16,18,-1,-1,-1,-1,-1],"split_conditions":[1E0,6.02E2,-5.1368367E-2,5.99E2,-5.132177E-2,1.56E2,3.290064E0,1.5E2,-5.1397633E-2,-6.2359054E-2,4.296578E-7,-5.1012427E-2,4.6153994E-7,8.42E2,-4.9112115E-2,4.1418474E-2,-1.5152414E-1,-5.2525666E-2,4.9548727E-2],"split_indices":[32,31,0,31,0,31,18,31,0,0,14,0,14,1,0,0,0,0,0],"split_type":[0,0,0,0,0,0,0,0,0,0,0,0,0,0,0,0,0,0,0],"sum_hessian":[1.8266012E4,1.1408452E4,6.857559E3,1.0481939E4,9.2651245E2,3.928747E3,6.5531924E3,3.1427341E3,7.860128E2,5.0052457E0,6.5481875E3,1.3552528E2,3.007209E3,6.544708E3,3.4790297E0,2.9905015E3,1.6707464E1,3.0409982E0,6.5416675E3],"tree_param":{"num_deleted":"0","num_feature":"36","num_nodes":"19","size_leaf_vector":"1"}},{"base_weights":[-3.0580647E-3,6.091722E-1,-5.1299114E-2,7.5302887E-1,-5.1250197E-2,3.715781E-1,9.8314863E-1,7.1110034E-1,-1.0568929E0,9.854083E-1,-4.824609E-2,-1.4807073E0,7.617522E-1,-1.4847065E0,-5.1232297E-2,-4.990326E-2,9.866387E-1,-4.910221E-2,-8.472329E-2,-5.0723325E-2,4.0720593E-2,-4.906061E-2,-9.25552E-2,4.9390774E-2,-4.822741E-2],"categories":[],"categories_nodes":[],"categories_segments":[],"categories_sizes":[],"default_left":[0,0,0,0,0,0,0,0,0,0,0,0,0,0,0,0,0,0,0,0,0,0,0,0,0],"id":58,"left_children":[1,3,-1,5,-1,7,9,11,13,15,-1,17,19,21,-1,-1,23,-1,-1,-1,-1,-1,-1,-1,-1],"loss_changes":[1.0926846E4,2.5667332E3,0E0,8.802739E2,0E0,1.8323796E3,2.8492676E1,3.3994983E2,8.489624E0,1.623877E1,0E0,5.720276E0,2.799016E2,7.155922E0,0E0,0E0,1.5295898E1,0E0,0E0,0E0,0E0,0E0,0E0,0E0,0E0],"parents":[2147483647,0,0,1,1,3,3,5,5,6,6,7,7,8,8,9,9,11,11,12,12,13,13,16,16],"right_children":[2,4,-1,6,-1,8,10,12,14,16,-1,18,20,22,-1,-1,24,-1,-1,-1,-1,-1,-1,-1,-1],"split_conditions":[1E0,6.02E2,-5.1299114E-2,5.99E2,-5.1250197E-2,2.3E1,2.0363448E0,1.0039355E0,1.56E2,-4.2528737E-7,-4.824609E-2,1.5E2,1.5E2,1.5E2,-5.1232297E-2,-4.990326E-2,4.296578E-7,-4.910221E-2,-8.472329E-2,-5.0723325E-2,4.0720593E-2,-4.906061E-2,-9.25552E-2,4.9390774E-2,-4.822741E-2],"split_indices":[32,31,0,31,0,9,17,17,31,14,0,31,31,31,0,0,14,0,0,0,0,0,0,0,0],"split_type":[0,0,0,0,0,0,0,0,0,0,0,0,0,0,0,0,0,0,0,0,0,0,0,0,0],"sum_hessian":[1.7445637E4,1.0913939E4,6.531697E3,1.0031413E4,8.82527E2,3.7755708E3,6.255842E3,3.0509229E3,7.246481E2,6.2490874E3,6.7544317E0,6.827542E1,2.9826475E3,4.7635612E1,6.7701245E2,3.371906E0,6.2457153E3,2.216419E1,4.6111233E1,8.5354645E1,2.8972927E3,2.1613237E1,2.6022375E1,6.2424443E3,3.2710834E0],"tree_param":{"num_deleted":"0","num_feature":"36","num_nodes":"25","size_leaf_vector":"1"}},{"base_weights":[-3.133722E-3,6.052554E-1,-5.1233377E-2,7.478915E-1,-5.118202E-2,3.669844E-1,9.7955805E-1,7.101982E-1,-5.127442E-2,9.818244E-1,-4.7804944E-2,-5.084225E-2,7.8668433E-1,-5.2452087E-2,9.830459E-1,4.051951E-2,-1.6275284E-1,-4.902508E-2,4.9213264E-2],"categories":[],"categories_nodes":[],"categories_segments":[],"categories_sizes":[],"default_left":[0,0,0,0,0,0,0,0,0,0,0,0,0,0,0,0,0,0,0],"id":59,"left_children":[1,3,-1,5,-1,7,9,11,-1,13,-1,-1,15,-1,17,-1,-1,-1,-1],"loss_changes":[1.0359622E4,2.4280354E3,0E0,8.47353E2,0E0,1.7377834E3,2.7141602E1,3.8605737E2,0E0,1.5831055E1,0E0,0E0,2.7028186E2,0E0,1.5243164E1,0E0,0E0,0E0,0E0],"parents":[2147483647,0,0,1,1,3,3,5,5,6,6,7,7,9,9,12,12,14,14],"right_children":[2,4,-1,6,-1,8,10,12,-1,14,-1,-1,16,-1,18,-1,-1,-1,-1],"split_conditions":[1E0,6.02E2,-5.1233377E-2,5.99E2,-5.118202E-2,1.56E2,2.0363448E0,1.5E2,-5.127442E-2,8.42E2,-4.7804944E-2,-5.084225E-2,2.000012E0,-5.2452087E-2,-4.2528737E-7,4.051951E-2,-1.6275284E-1,-4.902508E-2,4.9213264E-2],"split_indices":[32,31,0,31,0,31,17,31,0,1,0,0,17,0,14,0,0,0,0],"split_type":[0,0,0,0,0,0,0,0,0,0,0,0,0,0,0,0,0,0,0],"sum_hessian":[1.6667008E4,1.0446094E4,6.220914E3,9.605518E3,8.4057697E2,3.6336458E3,5.9718716E3,2.9155234E3,7.1812225E2,5.9653794E3,6.491813E0,1.2312342E2,2.7924001E3,3.070202E0,5.9623096E3,2.7769124E3,1.5487822E1,3.2018425E0,5.9591074E3],"tree_param":{"num_deleted":"0","num_feature":"36","num_nodes":"19","size_leaf_vector":"1"}},{"base_weights":[-3.2003897E-3,6.015298E-1,-5.1170964E-2,7.4300635E-1,-5.1117044E-2,3.6279207E-1,9.759356E-1,7.006124E-1,-5.1203903E-2,-6.373816E-2,9.7789335E-1,-5.0760247E-2,7.75705E-1,9.7921425E-1,-4.8312914E-2,-9.200293E-2,4.0585432E-2,-5.1469702E-2,4.9021956E-2],"categories":[],"categories_nodes":[],"categories_segments":[],"categories_sizes":[],"default_left":[0,0,0,0,0,0,0,0,0,0,0,0,0,0,0,0,0,0,0],"id":60,"left_children":[1,3,-1,5,-1,7,9,11,-1,-1,13,-1,15,17,-1,-1,-1,-1,-1],"loss_changes":[9.823407E3,2.2974202E3,0E0,8.140918E2,0E0,1.6382535E3,2.6371094E1,3.6299182E2,0E0,0E0,1.5578125E1,0E0,2.5519275E2,1.5019043E1,0E0,0E0,0E0,0E0,0E0],"parents":[2147483647,0,0,1,1,3,3,5,5,6,6,7,7,10,10,12,12,13,13],"right_children":[2,4,-1,6,-1,8,10,12,-1,-1,14,-1,16,18,-1,-1,-1,-1,-1],"split_conditions":[1E0,6.02E2,-5.1170964E-2,5.99E2,-5.1117044E-2,1.56E2,3.290064E0,1.5E2,-5.1203903E-2,-6.373816E-2,4.296578E-7,-5.0760247E-2,1.0039355E0,8.42E2,-4.8312914E-2,-9.200293E-2,4.0585432E-2,-5.1469702E-2,4.9021956E-2],"split_indices":[32,31,0,31,0,31,18,31,0,0,14,0,17,1,0,0,0,0,0],"split_type":[0,0,0,0,0,0,0,0,0,0,0,0,0,0,0,0,0,0,0],"sum_hessian":[1.5920352E4,9.995798E3,5.9245537E3,9.195225E3,8.005735E2,3.4941777E3,5.7010464E3,2.8101606E3,6.840173E2,4.389644E0,5.6966567E3,1.1730464E2,2.692856E3,5.693285E3,3.3718731E0,3.588118E1,2.6569746E3,2.9581118E0,5.6903267E3],"tree_param":{"num_deleted":"0","num_feature":"36","num_nodes":"19","size_leaf_vector":"1"}},{"base_weights":[-3.2689346E-3,5.978905E-1,-5.1111706E-2,7.382372E-1,-5.1055085E-2,3.5881916E-1,9.722457E-1,6.855846E-1,-1.0574604E0,9.745893E-1,-4.7579043E-2,-1.443912E0,7.3666996E-1,-1.5086265E0,-5.103434E-2,-4.9004484E-2,9.75933E-1,-4.8602056E-2,-8.116264E-2,3.844599E-2,-1.0944714E-1,-4.855169E-2,-9.247949E-2,4.8861742E-2,-4.7450542E-2],"categories":[],"categories_nodes":[],"categories_segments":[],"categories_sizes":[],"default_left":[0,0,0,0,0,0,0,0,0,0,0,0,0,0,0,0,0,0,0,0,0,0,0,0,0],"id":61,"left_children":[1,3,-1,5,-1,7,9,11,13,15,-1,17,19,21,-1,-1,23,-1,-1,-1,-1,-1,-1,-1,-1],"loss_changes":[9.315717E3,2.1740823E3,0E0,7.811914E2,0E0,1.5554778E3,2.5472656E1,2.980841E2,8.91571E0,1.5239258E1,0E0,3.863739E0,2.5331714E2,6.5262985E0,0E0,0E0,1.4545898E1,0E0,0E0,0E0,0E0,0E0,0E0,0E0,0E0],"parents":[2147483647,0,0,1,1,3,3,5,5,6,6,7,7,8,8,9,9,11,11,12,12,13,13,16,16],"right_children":[2,4,-1,6,-1,8,10,12,14,16,-1,18,20,22,-1,-1,24,-1,-1,-1,-1,-1,-1,-1,-1],"split_conditions":[1E0,6.02E2,-5.1111706E-2,5.99E2,-5.1055085E-2,2.3E1,2.0363448E0,1.0039355E0,1.56E2,-4.2528737E-7,-4.7579043E-2,1.5E2,4.6153994E-7,1.5E2,-5.103434E-2,-4.9004484E-2,4.296578E-7,-4.8602056E-2,-8.116264E-2,3.844599E-2,-1.0944714E-1,-4.855169E-2,-9.247949E-2,4.8861742E-2,-4.7450542E-2],"split_indices":[32,31,0,31,0,9,17,17,31,14,0,31,14,31,0,0,14,0,0,0,0,0,0,0,0],"split_type":[0,0,0,0,0,0,0,0,0,0,0,0,0,0,0,0,0,0,0,0,0,0,0,0,0],"sum_hessian":[1.5205834E4,9.5638545E3,5.6419795E3,8.801423E3,7.6243115E2,3.3585125E3,5.442911E3,2.7293174E3,6.2919495E2,5.4367812E3,6.129545E0,6.3302025E1,2.6660154E3,4.4402847E1,5.847921E2,3.234582E0,5.433547E3,1.9201143E1,4.4100883E1,2.6376768E3,2.833863E1,1.8725885E1,2.5676964E1,5.4303667E3,3.1801505E0],"tree_param":{"num_deleted":"0","num_feature":"36","num_nodes":"25","size_leaf_vector":"1"}},{"base_weights":[-3.3604878E-3,5.933191E-1,-5.105541E-2,7.322288E-1,-5.0995965E-2,3.5323644E-1,9.685669E-1,6.814216E-1,-5.109459E-2,-6.4447194E-2,9.7056043E-1,-5.0679572E-2,7.5721353E-1,-5.142035E-2,9.7189504E-1,3.9145503E-2,-1.5605454E-1,4.8662234E-2,-4.678307E-2],"categories":[],"categories_nodes":[],"categories_segments":[],"categories_sizes":[],"default_left":[0,0,0,0,0,0,0,0,0,0,0,0,0,0,0,0,0,0,0],"id":62,"left_children":[1,3,-1,5,-1,7,9,11,-1,-1,13,-1,15,-1,17,-1,-1,-1,-1],"loss_changes":[8.829233E3,2.0547183E3,0E0,7.555947E2,0E0,1.4642863E3,2.4641602E1,3.3720276E2,0E0,0E0,1.485498E1,0E0,2.523186E2,0E0,1.4273926E1,0E0,0E0,0E0,0E0],"parents":[2147483647,0,0,1,1,3,3,5,5,6,6,7,7,10,10,12,12,14,14],"right_children":[2,4,-1,6,-1,8,10,12,-1,-1,14,-1,16,-1,18,-1,-1,-1,-1],"split_conditions":[1E0,6.02E2,-5.105541E-2,5.99E2,-5.0995965E-2,1.56E2,3.290064E0,1.5E2,-5.109459E-2,-6.4447194E-2,8.42E2,-5.0679572E-2,2.000012E0,-5.142035E-2,4.296578E-7,3.9145503E-2,-1.5605454E-1,4.8662234E-2,-4.678307E-2],"split_indices":[32,31,0,31,0,31,18,31,0,0,1,0,17,0,14,0,0,0,0],"split_type":[0,0,0,0,0,0,0,0,0,0,0,0,0,0,0,0,0,0,0],"sum_hessian":[1.453724E4,9.164653E3,5.3725864E3,8.438586E3,7.260676E2,3.2420771E3,5.196509E3,2.6178186E3,6.242585E2,4.0152307E0,5.1924937E3,1.1151528E2,2.5063035E3,2.9510896E0,5.1895425E3,2.4905996E3,1.5703859E1,5.186363E3,3.1795766E0],"tree_param":{"num_deleted":"0","num_feature":"36","num_nodes":"19","size_leaf_vector":"1"}},{"base_weights":[-3.4362904E-3,5.8937544E-1,-5.1001936E-2,7.270559E-1,-5.093952E-2,3.488572E-1,9.647882E-1,6.649993E-1,-1.056666E0,9.6721697E-1,-4.736578E-2,-1.4417119E0,7.166878E-1,-1.5025878E0,-5.0916698E-2,-4.895185E-2,9.686697E-1,-4.826193E-2,-8.045865E-2,3.7460387E-2,-1.105507E-1,-4.8205517E-2,-9.074677E-2,-5.046032E-2,4.8500523E-2],"categories":[],"categories_nodes":[],"categories_segments":[],"categories_sizes":[],"default_left":[0,0,0,0,0,0,0,0,0,0,0,0,0,0,0,0,0,0,0,0,0,0,0,0,0],"id":63,"left_children":[1,3,-1,5,-1,7,9,11,13,15,-1,17,19,21,-1,-1,23,-1,-1,-1,-1,-1,-1,-1,-1],"loss_changes":[8.371751E3,1.9435723E3,0E0,7.264321E2,0E0,1.3877217E3,2.3963867E1,2.7859192E2,8.274048E0,1.4963867E1,0E0,3.343727E0,2.3858801E2,5.5328064E0,0E0,0E0,1.4115234E1,0E0,0E0,0E0,0E0,0E0,0E0,0E0,0E0],"parents":[2147483647,0,0,1,1,3,3,5,5,6,6,7,7,8,8,9,9,11,11,12,12,13,13,16,16],"right_children":[2,4,-1,6,-1,8,10,12,14,16,-1,18,20,22,-1,-1,24,-1,-1,-1,-1,-1,-1,-1,-1],"split_conditions":[1E0,6.02E2,-5.1001936E-2,5.99E2,-5.093952E-2,2.3E1,2.0363448E0,1.0039355E0,1.56E2,-4.2528737E-7,-4.736578E-2,1.5E2,4.6153994E-7,1.5E2,-5.0916698E-2,-4.895185E-2,8.42E2,-4.826193E-2,-8.045865E-2,3.7460387E-2,-1.105507E-1,-4.8205517E-2,-9.074677E-2,-5.046032E-2,4.8500523E-2],"split_indices":[32,31,0,31,0,9,17,17,31,14,0,31,14,31,0,0,1,0,0,0,0,0,0,0,0],"split_type":[0,0,0,0,0,0,0,0,0,0,0,0,0,0,0,0,0,0,0,0,0,0,0,0,0],"sum_hessian":[1.3889478E4,8.773692E3,5.1157856E3,8.082288E3,6.9140393E2,3.120491E3,4.961797E3,2.5479187E3,5.725724E2,4.955996E3,5.8010087E0,6.037254E1,2.4875461E3,4.2299335E1,5.302731E2,3.194623E0,4.9528013E3,1.7459463E1,4.2913074E1,2.4609548E3,2.659141E1,1.7028826E1,2.527051E1,2.845851E0,4.9499556E3],"tree_param":{"num_deleted":"0","num_feature":"36","num_nodes":"25","size_leaf_vector":"1"}},{"base_weights":[-3.5355182E-3,5.846159E-1,-5.0951134E-2,7.208031E-1,-5.0885577E-2,3.4312582E-1,9.610008E-1,6.6116303E-1,-5.0997097E-2,-6.518418E-2,9.630342E-1,-5.0608464E-2,7.375427E-1,9.6450627E-1,-4.6799604E-2,3.8210142E-2,-1.463003E-1,-4.8147976E-2,4.8297193E-2],"categories":[],"categories_nodes":[],"categories_segments":[],"categories_sizes":[],"default_left":[0,0,0,0,0,0,0,0,0,0,0,0,0,0,0,0,0,0,0],"id":64,"left_children":[1,3,-1,5,-1,7,9,11,-1,-1,13,-1,15,17,-1,-1,-1,-1,-1],"loss_changes":[7.9339556E3,1.8363501E3,0E0,7.0304956E2,0E0,1.3080117E3,2.3077637E1,3.1334192E2,0E0,0E0,1.4139648E1,0E0,2.307489E2,1.404248E1,0E0,0E0,0E0,0E0,0E0],"parents":[2147483647,0,0,1,1,3,3,5,5,6,6,7,7,10,10,12,12,13,13],"right_children":[2,4,-1,6,-1,8,10,12,-1,-1,14,-1,16,18,-1,-1,-1,-1,-1],"split_conditions":[1E0,6.02E2,-5.0951134E-2,